{
    "learning_rate": 0.01,
    "loss": "categorical_crossentropy",
    "layers": [
        {
            "input_size": 64,
            "output_size": 128,
            "activation": "relu",
            "weights": [
                [
                    -0.09781904323678765,
                    0.09187784284964635,
                    0.34579285327873965,
                    0.17267593741908982,
                    0.015449051778848378,
                    0.043692230764681844,
                    0.17243354776757092,
                    -0.037171066014943334,
                    0.30189117093888157,
                    -0.21799809959436087,
                    -0.105987221669177,
                    0.13171081694581954,
                    -0.0813886391797139,
                    -0.11083772953527751,
                    -0.06914971663757395,
                    0.18694932302545603,
                    -0.2703318814023608,
                    -0.06473977306478919,
                    -0.18188889323667928,
                    0.13272918429301223,
                    -0.04753354685080144,
                    0.015221623422696671,
                    -0.04344626660882925,
                    0.30430518960976705,
                    -0.10753228344934633,
                    -0.024295709380216662,
                    0.09107987730226219,
                    -0.19271839240907077,
                    0.16293825097414574,
                    0.13494240859224788,
                    -0.01942529403483137,
                    -0.31201669839028434,
                    -0.18466099531292504,
                    -0.13794159947190454,
                    0.08580787951724005,
                    -0.17095620131697664,
                    -0.21664269505717731,
                    0.04269657432555251,
                    -0.030897093506487807,
                    -0.3222149028316735,
                    -0.2560661713790596,
                    -0.07359316474008935,
                    0.12070076282025771,
                    -0.21374580762856413,
                    -0.38742592522037766,
                    0.07943405560326276,
                    -0.28341378999865785,
                    0.3669191850878526,
                    -0.2540703055134675,
                    -0.12306261194862975,
                    0.10836190441247658,
                    0.17186830960025545,
                    0.16280199111349963,
                    0.06093562919243052,
                    -0.10424673537062315,
                    -0.002497664814510726,
                    0.42456409928703337,
                    0.034086666266477744,
                    -0.0981406770183702,
                    0.08341903128148825,
                    -0.3318261105702144,
                    0.1850947285368501,
                    0.11543370382466624,
                    0.06184252970266584
                ],
                [
                    0.049926405999918426,
                    0.07547013022300872,
                    -0.062070079678415636,
                    0.06492914651115288,
                    0.03361911091465896,
                    -0.06971657012993815,
                    0.07838930347236643,
                    0.31437214299620536,
                    0.29413945751147486,
                    -0.18838922544478082,
                    -0.02146689577771054,
                    -0.22279866072691668,
                    0.2356392023914466,
                    -0.07934023635298204,
                    0.1833680632738382,
                    0.08701264506453806,
                    -0.10387438794288353,
                    -0.10907788851168558,
                    0.11856228848982922,
                    -0.17333283208998973,
                    -0.15211301354041723,
                    -0.050551636126275404,
                    -0.32138359930235016,
                    0.04256469193793708,
                    0.20702296848511245,
                    -0.046176180639067956,
                    0.2274343525403228,
                    -0.11897100262909019,
                    -0.13969193938369204,
                    0.009666179422006888,
                    0.23617188922817842,
                    -0.28478071221788837,
                    -0.05033375497180235,
                    -0.06265930824370752,
                    0.1178424399992294,
                    0.12854614817465407,
                    -0.3181927099147234,
                    0.31446262647186507,
                    0.1425312901666068,
                    -0.06105233652825158,
                    -0.0502616991508222,
                    -0.10599563046073422,
                    -0.11616554633933501,
                    0.17385998850643813,
                    -0.008998547934632119,
                    -0.21374220099827332,
                    -0.009788999072069083,
                    -0.15251286839645756,
                    -0.3965953188516819,
                    0.15987805039301894,
                    -0.15091050732262518,
                    0.27669769938824085,
                    0.20911112703339718,
                    -0.23195797015485195,
                    0.15513010943780045,
                    -0.12084687929964116,
                    0.21596486821223496,
                    -0.16534595048440343,
                    -0.063323266587387,
                    -0.22257386967969486,
                    -0.02110367268098993,
                    0.2801361369558177,
                    0.20389472918279458,
                    0.10928569565929222
                ],
                [
                    0.15041541033936845,
                    -0.11192690990057119,
                    0.09681818372938289,
                    0.030088448562925797,
                    -0.04858466867847918,
                    0.1105633080491362,
                    -0.08793813568788728,
                    -0.14096436920973707,
                    -0.3640132381296613,
                    -0.06640580385118493,
                    -0.09748061680142354,
                    -0.28060122586101455,
                    0.11633555316166193,
                    -0.12544690771716754,
                    -0.07833113133900549,
                    -0.016938807892995046,
                    0.053572736524500925,
                    0.13992359083516542,
                    0.0733063496849274,
                    -0.1021155827701606,
                    0.1672993084478686,
                    0.27773946745138195,
                    -0.050074473396628155,
                    0.017938354783366285,
                    -0.11678928582522553,
                    -0.18470861403733604,
                    0.15850431788689995,
                    -0.026504885072839438,
                    0.03223467288520773,
                    -0.03131489317387801,
                    -0.2671974271370395,
                    -0.15985507635913343,
                    0.047519893614919956,
                    0.013408869113869985,
                    0.4979388635012179,
                    0.1431812362280257,
                    -0.0035942520756484637,
                    -0.23479333967473423,
                    -0.08653293705916734,
                    0.07362297385109273,
                    -0.028773536979365952,
                    -0.017553276105313046,
                    -0.061564942655145304,
                    0.29111390419340694,
                    0.031158559197175077,
                    0.13191503238742305,
                    -0.21118520628300652,
                    -0.0989929652492639,
                    0.006424081654367472,
                    0.07632496542584581,
                    -0.20188060872847038,
                    -0.24972409338817741,
                    -0.06127989122577281,
                    -0.15559754227720446,
                    0.2612146889415045,
                    -0.11091009136573134,
                    0.1447389649945414,
                    0.17528046526298374,
                    -0.21430915912373708,
                    -0.10100788982952641,
                    0.04713302774092458,
                    0.2378063998527588,
                    0.23603889662324845,
                    -0.17513682782190335
                ],
                [
                    0.06307776421564862,
                    -0.16251794925726748,
                    -0.13909361777078832,
                    0.1235695307250134,
                    -0.1289638495431757,
                    -0.12111839589437856,
                    0.2644162039251889,
                    0.1459685365531796,
                    0.5869518424373532,
                    0.0008025695845039075,
                    -0.19439203080423698,
                    0.310249701720206,
                    0.43425594978896653,
                    -0.020382104804344412,
                    -0.0807285256243973,
                    0.07788579776507833,
                    -0.13423467570047334,
                    0.008281695681513481,
                    -0.11981187858846258,
                    -0.026033599902145932,
                    -0.3147401491821539,
                    -0.06125169076588632,
                    -0.2512239490738996,
                    -0.1243366906934186,
                    -0.010435079287639036,
                    -0.022978983225299957,
                    -0.1864525514264614,
                    0.09809080260481183,
                    -0.08083128680924433,
                    -0.34127387031509454,
                    -0.22222017830090207,
                    -0.2490177363403792,
                    0.0358548148133609,
                    -0.19766168302466067,
                    -0.06408584170513315,
                    0.12223337387323717,
                    -0.007437436768710176,
                    0.07911899117117385,
                    0.2662949166264999,
                    0.3768441576262293,
                    -0.15221289884668243,
                    0.07804856863768372,
                    -0.12030750167284517,
                    0.10068849256539228,
                    0.19780108791777906,
                    -0.06430860355889773,
                    0.2768294463696262,
                    -0.050815009564617195,
                    -0.1256986039722361,
                    -0.30960631020613966,
                    0.17018493574703605,
                    0.16355252907981022,
                    -0.3441563816114135,
                    0.30077374010866886,
                    -0.1304712621928624,
                    -0.06702589703186305,
                    -0.11409466109651949,
                    0.035483098111683126,
                    -0.02330335874468173,
                    -0.14723869081497817,
                    -0.2971511843825344,
                    -0.060472425920869335,
                    0.08463099180795501,
                    -0.24029888261832041
                ],
                [
                    0.03277322292190333,
                    0.04664565535078975,
                    0.055292848901227244,
                    0.20363534499692354,
                    -0.12694401046244053,
                    -0.01872639731325695,
                    -0.05596436837303044,
                    0.04720825557220074,
                    0.05311671925514431,
                    -0.06798338085551552,
                    -0.0665322438584369,
                    -0.0891076041045376,
                    -0.17822145951597143,
                    -0.040839713358002606,
                    0.06207343517686556,
                    0.01451106514313462,
                    -0.1501942208087456,
                    0.017305055644387272,
                    0.06880110259618644,
                    0.07965290261600903,
                    0.22446649048275158,
                    0.12437264419949041,
                    0.1894742857057124,
                    0.16851968566362793,
                    -0.10750315465196777,
                    0.528912253855237,
                    -0.10531777280973553,
                    -0.03563444884413783,
                    -0.06437711048624373,
                    0.06332431650884464,
                    -0.19298046232513213,
                    -0.043275689419308164,
                    -0.09760702671380328,
                    -0.11154230350340481,
                    0.0719744528233542,
                    -0.05150832490628945,
                    0.0018600276345903917,
                    -0.11166162659450843,
                    0.03441948742201922,
                    -0.1982172903633833,
                    0.055425119471249715,
                    -0.3625723859373818,
                    -0.11857003774189777,
                    -0.11342681417198619,
                    0.20664166744679616,
                    0.06887689399173652,
                    -0.2314656465913428,
                    -0.1152992262290453,
                    -0.10591603683194424,
                    0.0005762091347511115,
                    -0.040487427376449565,
                    -0.49279473375749505,
                    -0.06785963407735708,
                    -0.2493461762107673,
                    -0.004567772268484507,
                    -0.2168830610838968,
                    0.0029533083461653017,
                    0.18990463486074244,
                    0.0535554604853547,
                    0.11426869142523736,
                    -0.20164928742604946,
                    0.12268901433715251,
                    -0.06894605290831937,
                    0.3269399326611901
                ],
                [
                    0.1289585697799617,
                    0.1584008367084316,
                    -0.062281402050315474,
                    0.16033556677821065,
                    -0.03014234558989019,
                    0.10643934700067899,
                    -0.035644202798446045,
                    -0.4939601954194429,
                    -0.1353263383499087,
                    -0.18581221828815525,
                    -0.013755612087444514,
                    -0.04133106382022216,
                    -0.14679546085913098,
                    -0.0271530146773534,
                    0.12141430129175147,
                    -0.14890098911627447,
                    -0.1538730616368754,
                    -0.20882943913932778,
                    -0.26492357046101844,
                    0.07091122660494692,
                    0.10928344283363116,
                    -0.12130678699381729,
                    -0.020780096000950724,
                    0.17141518739997316,
                    -0.17266612996330252,
                    -0.11431214587941038,
                    0.053554479560713034,
                    0.07726363189944346,
                    0.03682332517829163,
                    0.05931824815067877,
                    0.04390044835369527,
                    0.21004411560662614,
                    0.19786532082322197,
                    -0.24103630034605072,
                    0.41028214617356407,
                    0.03188511316240879,
                    -0.15560827273037434,
                    0.19932378846913068,
                    -0.29385865117932397,
                    0.018423521891212644,
                    0.2778036529603984,
                    0.1571248863724886,
                    0.0560168787347689,
                    0.028984792545081003,
                    -0.0032023679576734325,
                    0.06073398400987417,
                    0.06778574690838848,
                    -0.18364504638530213,
                    0.1948183682633685,
                    0.20365425922483008,
                    0.11552904229102681,
                    0.06623938504311849,
                    0.35377291034313846,
                    0.1271034288331433,
                    0.07632455112821701,
                    0.06709649364990618,
                    -0.10445283295694612,
                    0.40572543077318207,
                    0.19924272684712135,
                    -0.25163095047746514,
                    0.09343976338243865,
                    -0.04083502925634699,
                    0.15575585819391452,
                    -0.13620135815605738
                ],
                [
                    0.11337998919289048,
                    0.13757106219965654,
                    0.1072601183971692,
                    0.29024225816608307,
                    0.3199130109211752,
                    0.43221315541050387,
                    -0.018502936059086195,
                    -0.3578060772613239,
                    0.11498690165045745,
                    0.016799892772185236,
                    -0.20839412064591858,
                    -0.09740188985333655,
                    0.0032898347746040334,
                    0.02586853309560028,
                    -0.016516685084921507,
                    -0.09657181901020613,
                    -0.05124522697703911,
                    -0.15373793467443464,
                    -0.24393748981492605,
                    0.04006672884829435,
                    -0.1779311773112807,
                    0.4314778103415375,
                    -0.15402352189427532,
                    0.24964440432769763,
                    0.09378126834781177,
                    -0.0322504515021787,
                    0.08487235544033371,
                    0.0382385890470132,
                    0.147638543469301,
                    0.00915781387681431,
                    -0.13483212879751116,
                    0.039169885340793145,
                    0.15092441420664618,
                    -0.11801524781821443,
                    0.080465315302952,
                    -0.0661947543686431,
                    -0.28800481183098403,
                    0.08048007253610363,
                    0.009917705328713633,
                    0.06439129763452286,
                    0.2877188189123756,
                    0.10701401917241252,
                    -0.05065920283121828,
                    0.009914357933757084,
                    0.07969031591078841,
                    -0.27703557861361316,
                    0.09258934166047067,
                    0.04832310522628282,
                    0.24618164499354958,
                    -0.10650293862327016,
                    0.3421473647445847,
                    -0.10789174504918951,
                    -0.027208592032725937,
                    -0.11300602889293226,
                    -0.20779139620211262,
                    0.03551511992379233,
                    0.029265612275456425,
                    -0.17547923557127393,
                    -0.15037638196662892,
                    -0.10131026617069357,
                    -0.25993047294871635,
                    0.08651631770718851,
                    0.1692225152538204,
                    -0.21084755971951077
                ],
                [
                    0.06057832546440105,
                    -0.2029687328753395,
                    0.09123158458516903,
                    0.32261691459201525,
                    0.3704094111189865,
                    0.17472610716312453,
                    0.3013604304021404,
                    -0.020616393573183688,
                    0.22327316264634514,
                    -0.0019872362173176364,
                    0.2528753087028769,
                    -0.20669007850627605,
                    0.10522208636899606,
                    0.212389197731661,
                    0.2746649483867858,
                    -0.19917614648144308,
                    0.15559875370989837,
                    0.29260227719958415,
                    0.2283555747329526,
                    0.01497441745402799,
                    0.08239982980416494,
                    0.5187146395715438,
                    0.19375351655721698,
                    0.2216999380380618,
                    0.3060040203306033,
                    -0.06293318298128422,
                    0.14669984004773612,
                    -0.22404444994447725,
                    0.19667287323982208,
                    -0.08012327961994532,
                    0.03485330275110657,
                    -0.03485890042107548,
                    0.13990251623970193,
                    -0.1985470017439433,
                    0.18342669475229245,
                    0.2772531599604038,
                    0.2364217192888951,
                    0.20088864135379028,
                    0.20125706454038275,
                    -0.22963933888304913,
                    0.03494739667777695,
                    0.019687933048453538,
                    0.2144012706136533,
                    -0.31644071558798254,
                    -0.13478157914514954,
                    -0.423151994138125,
                    0.14106079770950117,
                    -0.014934429101753209,
                    0.13362656489444213,
                    0.21271311663892928,
                    -0.028664145109286984,
                    -0.050150035234141584,
                    0.0692419627583139,
                    0.21731295894205105,
                    -0.35503042365276133,
                    -0.10754369854613881,
                    -0.24371783846247644,
                    0.18442426014887753,
                    0.044504526228575335,
                    -0.19353352430468618,
                    -0.04620420663322753,
                    -0.29108262094142706,
                    -0.20163240249873107,
                    0.08153719963515116
                ],
                [
                    -0.2993493163043022,
                    0.047332405143185784,
                    0.10402990374132971,
                    -0.2832624277511705,
                    0.18992587722073084,
                    0.19640872653056085,
                    0.22041499051501084,
                    0.18872147071667147,
                    -0.16584287477751866,
                    -0.2076947835991526,
                    0.0026614538691064585,
                    0.044802158393299096,
                    -0.15037759237884785,
                    -0.01669409030170564,
                    -0.09408020961836801,
                    -0.004869517327834093,
                    -0.22154666160635791,
                    0.0855295558945344,
                    0.08261532264342737,
                    -0.3106987465091417,
                    -0.20156638049803602,
                    -0.15417300470828965,
                    0.07616803913579082,
                    0.23910529384048604,
                    0.2521077840376768,
                    -0.22714660641179835,
                    -0.2717921701423945,
                    0.3032833404600593,
                    -0.2634581064476762,
                    -0.2534474615651965,
                    0.3294500229282689,
                    -0.2095434745862177,
                    0.3230146743497947,
                    -0.1129020665629673,
                    -0.3066044909662761,
                    -0.24250967980959617,
                    0.04672106454858424,
                    -0.08354229964452096,
                    0.15890472225671162,
                    0.17265702624410678,
                    0.07848741642253326,
                    0.04152496312693362,
                    0.4517209899493071,
                    0.15662660306891477,
                    0.045525834978464894,
                    -0.005510901700138104,
                    0.1840185846699425,
                    0.21393536969066987,
                    0.07274223956850309,
                    -0.14375152002819952,
                    0.2449626998371145,
                    0.4388560867710015,
                    0.07708417603569066,
                    -0.1472782495610041,
                    0.08596974529445711,
                    0.07273869930105951,
                    -0.1621706322488906,
                    0.2387240355790748,
                    0.07215024679332055,
                    0.0032504187058715033,
                    -0.2580430856733388,
                    0.15273932416832195,
                    -0.09895988448709904,
                    0.04180055724262516
                ],
                [
                    -0.12221735709368153,
                    0.2734579862147903,
                    -0.1286388387783721,
                    0.07667807206931536,
                    0.07947550001935895,
                    0.02862022824222065,
                    -0.13939520827464838,
                    0.11209933091564019,
                    -0.1422759467792772,
                    0.09356297674407449,
                    -0.0883423192774022,
                    0.02924703361874532,
                    -0.09106637935355916,
                    0.3444168008475982,
                    0.0929907067570224,
                    0.2121931746301883,
                    -0.09358969350892178,
                    0.18545183758166386,
                    0.021701935682556083,
                    -0.2571115771770444,
                    0.1038560763743093,
                    -0.32356630274400194,
                    0.33727034665350025,
                    -0.17997589022575067,
                    0.3475963200561366,
                    -0.12295981618147689,
                    -0.0756823779099317,
                    -0.04171979499082091,
                    0.23014034252821047,
                    -0.18717413458115367,
                    0.11675910499970324,
                    -0.1273981806175437,
                    -0.07748771162505762,
                    -0.0036358413662905048,
                    -0.0819781641865863,
                    0.48089199048263237,
                    -0.022166679806096674,
                    -0.25895926519696877,
                    -0.08322984810500224,
                    -0.18334219353225453,
                    -0.10061412540813498,
                    0.007961833073337529,
                    -0.0005689085916042883,
                    0.11994985855223857,
                    -0.032189101597389476,
                    -0.08104965080101811,
                    -0.16325863502676144,
                    0.17447157554930762,
                    0.07840994139687792,
                    -0.2087865111358713,
                    0.14645253011332046,
                    -0.14986602874627056,
                    -0.15873096807071416,
                    0.1264717275707048,
                    -0.07403596988211948,
                    0.05531476935523189,
                    0.33140440411509264,
                    0.20705682066475972,
                    -0.036675285696973474,
                    -0.06029488256395519,
                    -0.14272845948337648,
                    -0.14013853643313082,
                    0.07119994941449896,
                    -0.038774661192732256
                ],
                [
                    0.26391024491254306,
                    0.21751744204492138,
                    0.15008305435142458,
                    -0.0789417721823535,
                    0.14279479712926496,
                    -0.27568932157659914,
                    -0.13023252494036414,
                    -0.1548223294224521,
                    -0.30628041314688276,
                    0.26195350572594983,
                    -0.14120948973457959,
                    0.03697788988722412,
                    0.0030688952761223896,
                    0.020839093636258868,
                    -0.039151718360046245,
                    -0.07391120813269397,
                    0.18647603088901546,
                    -0.24671795011725406,
                    0.0033053936970062897,
                    -0.2931967477332511,
                    -0.08182858934580066,
                    -0.03295265267998342,
                    -0.04845227257402795,
                    0.05615257965796518,
                    0.08771869176339447,
                    -0.03846248851802655,
                    -0.23438960041325704,
                    0.060355313243495606,
                    0.0034625140758033197,
                    -0.25622573112477304,
                    0.006655737976207565,
                    -0.02406315599007248,
                    -0.08627038060465622,
                    -0.10973205012676887,
                    0.2453861579379179,
                    0.18785482033397657,
                    -0.12409510713252585,
                    -0.10659125671690511,
                    0.25623394981259767,
                    -0.1594635332859543,
                    -0.07837565400418994,
                    0.00913478958444722,
                    0.11954423012697336,
                    -0.09203384582163385,
                    -0.09218341436865098,
                    0.21795620979965005,
                    0.1511356474511842,
                    -0.0030576613302672013,
                    0.027793799264650018,
                    0.10321859589025274,
                    -0.16833266329828106,
                    0.22558683240900415,
                    -0.34246844604949617,
                    -0.12476341768195393,
                    -0.06455667786532991,
                    -0.2047485718921761,
                    -0.40909443231953224,
                    -0.14156192124825595,
                    0.023432464033969053,
                    -0.02187203259642037,
                    0.30475650474085114,
                    0.048687697619839154,
                    -0.016868372360699293,
                    -0.25677033726866605
                ],
                [
                    -0.015790546095723626,
                    -0.12441218452993508,
                    -0.05157911295286821,
                    -0.29410831242187774,
                    -0.06318383210727702,
                    0.2564467874727391,
                    0.029274759797966673,
                    0.2055306941212544,
                    -0.18548161017360842,
                    -0.21091141055029078,
                    -0.16704936910140733,
                    -0.155162408414472,
                    0.16639377743391928,
                    -0.21935977599133294,
                    -0.15674091674433704,
                    0.3275788516753928,
                    0.2308102106123342,
                    0.39604555760011523,
                    0.3495846007734546,
                    -0.1726936838728911,
                    0.11975550256351612,
                    0.07196484647226073,
                    -0.2289303253157113,
                    0.12521498443296417,
                    0.24992681598501643,
                    -0.138445860142477,
                    0.09849116404667149,
                    -0.10190851405365849,
                    0.14001785544444523,
                    0.024257214671482025,
                    0.0957031175253664,
                    0.14904375419498747,
                    -0.23633911903258834,
                    -0.06278247355261951,
                    -0.12050908858510709,
                    0.012661060141436073,
                    0.10831879298707833,
                    -0.16008345222067125,
                    0.14780734780869753,
                    -0.0436397426248064,
                    0.025729348629932054,
                    0.11139385361107228,
                    0.003209057536222962,
                    -0.14435842013831665,
                    -0.16717892460371522,
                    0.35905964250194605,
                    -0.1505133277464811,
                    0.04940410128215078,
                    0.0019029833001477884,
                    0.0025630847763273494,
                    -0.01579327903031629,
                    0.2243542409487931,
                    -0.19937524305407126,
                    0.013014754510902652,
                    0.04414266401648789,
                    0.015971501384979058,
                    -0.31835308482092817,
                    -0.04086088287823164,
                    -0.15634425385903924,
                    0.1363146275426876,
                    -0.07479833647905182,
                    -0.3275522924271597,
                    0.06831332143270154,
                    -0.1527056254948517
                ],
                [
                    0.07311990393093223,
                    -0.036388501788924485,
                    0.09602023305953428,
                    -0.18139503607293542,
                    0.03697651500126129,
                    0.08113168994026798,
                    0.16423015605614813,
                    0.08776411931079585,
                    -0.206069428845392,
                    0.12890192661786065,
                    -0.034164311150650516,
                    -0.02124929542679685,
                    -0.0816795134622077,
                    0.1704694599821081,
                    -0.07410041705217706,
                    -0.029780995455084714,
                    -0.13152543447738976,
                    0.018528407038777985,
                    -0.08392207132030804,
                    -0.01464453149549662,
                    0.1457034973997799,
                    0.11421226802850841,
                    -0.1790208235796558,
                    -0.09912687395042953,
                    -0.10900685476392204,
                    -0.21555105344701225,
                    -0.00840386103040141,
                    0.3945011021155099,
                    0.187443228882722,
                    0.08950442324740168,
                    -0.027494098806396177,
                    0.04085901289491364,
                    -0.05550788614752392,
                    0.0024263911831898153,
                    -0.08100794714403842,
                    -0.008356743755994225,
                    0.34370528647348686,
                    0.17614092017619426,
                    -0.19966770646369728,
                    -0.21226258342962329,
                    0.014151445872496605,
                    0.12263613992135221,
                    0.11118043088992444,
                    -0.12184715515978237,
                    -0.11154880838983651,
                    -0.06554901096157142,
                    0.1669678175278672,
                    0.2668063310594828,
                    0.10485820201469526,
                    -0.1426646274210775,
                    -0.08424740099989365,
                    -0.12909564939981755,
                    -0.12628283224295836,
                    -0.16461574121162423,
                    0.020488120883394734,
                    -0.15714458895056607,
                    -0.31128323581675704,
                    0.11761678507312193,
                    0.07237530225010803,
                    0.2990236549358339,
                    0.3009586982940517,
                    -0.053902936728994925,
                    -0.013433642751575652,
                    -0.04660655734043048
                ],
                [
                    0.1129745834264079,
                    0.11528053181955127,
                    0.04438014785148526,
                    -0.3597705274768747,
                    -0.063866826743888,
                    0.17988915916384574,
                    -0.14809261915526717,
                    -0.03758805068613798,
                    -0.22127593960083447,
                    0.26221051782509025,
                    0.1486708882053967,
                    -0.09732674181806272,
                    0.14721033385408464,
                    -0.0688957547166326,
                    0.11208882810646825,
                    0.161092912503647,
                    -0.17591759036363633,
                    0.1280417928164538,
                    -0.056168734897467036,
                    -0.10318509766861751,
                    -0.02349367931810348,
                    0.3123701773843512,
                    -0.2624528885886131,
                    0.273455444418419,
                    -0.12372708985321393,
                    0.11507771071535423,
                    0.2130725591340102,
                    -0.045716859874373565,
                    -0.24744583474619347,
                    -0.06829553796081957,
                    -0.026165129966321955,
                    0.05909593575149908,
                    -0.1091220832773318,
                    0.171944606307767,
                    -0.12067262080097603,
                    0.011028209939355965,
                    0.323470754679305,
                    0.35100663062988907,
                    -0.19970945050527328,
                    -0.3478143949578257,
                    0.08968673122810483,
                    0.1649814850068975,
                    -0.07767211152862244,
                    -0.5106792859278654,
                    -0.11556529004528739,
                    0.37336143025409885,
                    0.06494154300318128,
                    0.20251664419459783,
                    0.037384245943895965,
                    -0.18220052852617927,
                    -0.1927190491122679,
                    -0.06017225085135212,
                    0.17067699605602812,
                    -0.053714184065873236,
                    -0.21571404822893445,
                    -0.05857701399965282,
                    0.05683159926428294,
                    -0.16700185980271912,
                    -0.16603171953752302,
                    0.22660140120423952,
                    -0.10734053431113358,
                    -0.0864231486733189,
                    -0.1291762798574765,
                    -0.003092843352353491
                ],
                [
                    -0.050296822801581514,
                    0.17664014672813505,
                    0.24346569078324184,
                    0.07297178493317899,
                    -0.10282642193460824,
                    0.03082694657347216,
                    -0.10063890756200325,
                    -0.00458379461891963,
                    0.09632396612317158,
                    0.39393048562539523,
                    -0.27446371281164517,
                    0.11433935471697121,
                    0.18717093661898532,
                    -0.3293240041505742,
                    0.06016287191687672,
                    -0.058432824393973196,
                    0.09308945633046249,
                    0.29412192677382815,
                    0.06147276272161336,
                    -0.1643624733566244,
                    -0.03417901713223033,
                    0.18447139122653589,
                    -0.2275580855566798,
                    -0.03769393698746015,
                    0.5545352884078786,
                    0.2068834631028546,
                    0.008675699661496849,
                    -0.42673477386980546,
                    0.05037878042706454,
                    -0.045895249223317836,
                    0.43711899311601715,
                    -0.13244947065123291,
                    0.18151841124769244,
                    -0.14362380880259712,
                    0.14683333004108257,
                    0.1462450188507678,
                    -0.14878603642581056,
                    -0.048815657428937544,
                    -0.20706376085071895,
                    0.06527766330486184,
                    0.09418870088720746,
                    -0.13549392574585023,
                    -0.04002445529084203,
                    0.03523312020359731,
                    0.11813280862309562,
                    -0.2571026392872123,
                    -0.1115423669509383,
                    0.05770352391645084,
                    0.3388272938129994,
                    0.2206874834976013,
                    -0.0320851057154592,
                    0.1808081888224122,
                    -0.029689431464630718,
                    -0.02299176773968057,
                    -0.10237622516427548,
                    -0.21023574399830755,
                    0.22556109925017323,
                    0.3195992597295688,
                    0.21172458952223194,
                    0.011105804574831308,
                    -0.3012937629431921,
                    0.20886516322667975,
                    -0.029565105906612744,
                    -0.1133403520406534
                ],
                [
                    -0.09748865283858704,
                    0.10576356658188586,
                    -0.28842742916393554,
                    0.1402334399230479,
                    0.09174215287973365,
                    -0.042815385631836005,
                    -0.08380715417557584,
                    0.27950763528911676,
                    0.20237778360399777,
                    0.027796041460360237,
                    0.12102955098202894,
                    0.04702894653016494,
                    -0.13494943090942543,
                    0.2563422491966641,
                    0.22739645324204186,
                    -0.09557076487481984,
                    -0.0784769927155016,
                    -0.19271718772047583,
                    0.2645437332413267,
                    0.21089302983890573,
                    -0.0020539172844823927,
                    -0.218547180389308,
                    0.14427754870452686,
                    -0.128891653716092,
                    -0.06118832000895333,
                    -0.013600851399559657,
                    0.004774649238524745,
                    -0.0037018910846488336,
                    -0.2860278463470624,
                    0.44993086331695525,
                    -0.16455008255292544,
                    -0.08185145162339899,
                    0.23626879369316184,
                    -0.29049840984743375,
                    0.04979605501463447,
                    0.07611539569930716,
                    -0.009409683071581739,
                    0.06471197900310849,
                    -0.044789574628192455,
                    0.30011674632200913,
                    -0.026062709982643432,
                    -0.08529883973347649,
                    0.007679573351990311,
                    -0.06979621740353183,
                    -0.061915409615835165,
                    0.09849495032057178,
                    0.14011799229987493,
                    0.23660866792400276,
                    0.06793143095104213,
                    0.02693993890603027,
                    -0.2549833819441264,
                    0.2752613948420201,
                    -0.196159952787793,
                    0.08945984534747937,
                    0.27743914172523015,
                    -0.1912016437707205,
                    0.17138694092617338,
                    0.06076419853404148,
                    -0.04279078769880929,
                    -0.4948042731624367,
                    -0.053158408105656155,
                    0.0607889644650716,
                    0.02283954629759955,
                    -0.35172089562657793
                ],
                [
                    -0.038034542448481555,
                    -0.07119915136864226,
                    0.2408171861879388,
                    -0.17635025818870717,
                    0.09855381304504268,
                    -0.1803392692369305,
                    -0.011460647185515111,
                    -0.09932306433227088,
                    -0.03933092392466178,
                    -0.313044063322228,
                    0.026128622521559595,
                    -0.36760147133582277,
                    0.059888088072506125,
                    0.0606251878737645,
                    0.038563109336323745,
                    -0.11788221642601417,
                    -0.028518902344760257,
                    0.1922662320956732,
                    -0.05381532408667754,
                    0.06697765697676361,
                    -0.5664173768636573,
                    -0.111511975607451,
                    0.12032955316571867,
                    0.3015529960598817,
                    -0.061855129813176965,
                    0.05235781679561127,
                    0.11436169786574024,
                    -0.038962019608764734,
                    -0.033296778901858254,
                    0.002595515006288916,
                    0.24705826810975837,
                    0.12316024581362046,
                    -0.16650452395412293,
                    0.016437428667813902,
                    0.10461718421477613,
                    -0.026856363447703896,
                    0.05476807057551522,
                    -0.07628425579330737,
                    -0.3210725066736669,
                    0.06847696667001028,
                    -0.13778897984613248,
                    0.1470136661275418,
                    -0.1487266133012501,
                    -0.011255903143244738,
                    -0.01936727942761342,
                    0.013284180519306276,
                    -0.21673035824694373,
                    -0.4161582574822558,
                    -0.06101392037415454,
                    -0.06486841740434886,
                    -0.01930893994759894,
                    0.040922882790640464,
                    -0.06086967281506672,
                    -0.0435325877476212,
                    0.059616122500198716,
                    -0.17147960964659392,
                    -0.025753046301273303,
                    0.10118228316490549,
                    -0.20348784862477434,
                    -0.25230864179526946,
                    0.24567484664677477,
                    0.22690442750975712,
                    0.19330899597108855,
                    -0.031329409510197276
                ],
                [
                    0.11311443665877277,
                    -0.019665146203270648,
                    0.07180855105765904,
                    -0.055810617909452666,
                    -0.0005179139767103176,
                    0.12649804604637824,
                    -0.13550810543010877,
                    -0.2454687027304617,
                    0.27193319673267524,
                    0.08314051216788952,
                    0.14680743329912146,
                    -0.0816383638691951,
                    -0.2609100801077022,
                    -0.12140955289777491,
                    -0.23465042346909493,
                    -0.2482258168138035,
                    0.20074055473960908,
                    0.2624309322503458,
                    0.0794575621469339,
                    0.023244708040922595,
                    0.060815543628682446,
                    -0.028039527147940398,
                    -0.054194773007278554,
                    0.03586211910167292,
                    -0.13275196372695333,
                    0.0980797442788459,
                    -0.10501787507223855,
                    -0.052008057401883724,
                    0.2898469429634171,
                    0.275303958794445,
                    -0.13243307310597785,
                    0.10664486596682557,
                    -0.18850938819816396,
                    0.21454200769392368,
                    0.0430786875781402,
                    0.17924272958570905,
                    -0.1469988984795607,
                    -0.15290973575898983,
                    -0.08894789505657864,
                    -0.04545675713280907,
                    -0.30871553759563214,
                    -0.4681320134706881,
                    -0.029655488673717957,
                    -0.13217487779706646,
                    -0.16184798628065686,
                    -0.21715485615133348,
                    0.14887061615565944,
                    0.06758305074329084,
                    0.04892478667675392,
                    0.08923374998302397,
                    -0.10314118492871509,
                    -0.14531148774006816,
                    -0.06801658949735614,
                    -0.03434372812301611,
                    0.11392264155148978,
                    0.00938472350532907,
                    -0.12172431598526372,
                    0.07549106257927513,
                    -0.021913552834821874,
                    -0.23275267170112804,
                    0.3332752280439845,
                    0.08290549650357232,
                    0.05686620996402584,
                    -0.10100750260134406
                ],
                [
                    0.005894691993401795,
                    -0.026321398375062557,
                    -0.17971221477865038,
                    -0.05232476469661358,
                    0.1705697268469913,
                    0.10852912358724663,
                    0.05428537013995767,
                    0.15519497956278122,
                    -0.02751206779190698,
                    -0.09780779512248164,
                    0.15221947747142114,
                    0.10238682684068093,
                    0.3384487357612692,
                    0.30942736149270494,
                    0.2985934647977166,
                    0.164393267340966,
                    0.22610334278657793,
                    0.3820528640798532,
                    -0.22029459246671793,
                    0.0031782260198543453,
                    -0.20536359545233535,
                    -0.14502838637031668,
                    -0.30620093591725334,
                    0.06527104853520457,
                    -0.1612815114427329,
                    -0.15500330849629068,
                    -0.01574542183342044,
                    0.10241902126477483,
                    0.2625303751861387,
                    0.37234386993601265,
                    0.15460385485430336,
                    -0.2789006753060568,
                    0.10974588357681543,
                    0.29436414433503516,
                    0.29453414021269897,
                    0.17458942239597694,
                    -0.27277896087252074,
                    -0.035447859992302655,
                    0.30672594943080667,
                    -0.18514817567945016,
                    0.19194391842168665,
                    0.27607188505806,
                    0.15870630731284008,
                    0.2560825964809768,
                    0.24270116304730324,
                    -0.1853014258899072,
                    0.17915571520779772,
                    0.05080193508947323,
                    -0.2301365037497036,
                    0.049401071823455094,
                    0.05734265422025449,
                    0.12220074392643539,
                    -0.10937134992629252,
                    -0.19181723086516816,
                    -0.19273036414055963,
                    -0.11737285509292912,
                    -0.042359756054637016,
                    -0.09876363950483126,
                    0.05751289806425975,
                    0.1911832596456367,
                    -0.011726558556947158,
                    -0.20352221748536053,
                    0.2323101945423017,
                    -0.02771244528014125
                ],
                [
                    -0.007974836201500144,
                    0.1368102754395355,
                    0.21103438202500066,
                    0.006509328699138508,
                    0.29379191573773916,
                    0.07140048938999406,
                    -0.28708824685817447,
                    -0.04424050001928066,
                    0.3048751278647983,
                    0.0934638886980732,
                    0.007927288174630575,
                    -0.3735358569671576,
                    -0.11925256431403611,
                    -0.1213434038346991,
                    0.11083461572703036,
                    0.23301310790338517,
                    -0.12356833359126139,
                    -0.04780356811142066,
                    -0.40937112854399005,
                    0.1796501523720935,
                    0.1699704196710134,
                    0.21086249129920473,
                    0.07790074436271457,
                    -0.028588608186751432,
                    0.0926999402710314,
                    -0.09464594068677781,
                    0.03182030182542586,
                    0.028365102362133753,
                    -0.16303867770340494,
                    -0.05383103205759554,
                    0.188801188415546,
                    -0.050754625915681875,
                    0.10070355060902043,
                    -0.11793562833200967,
                    0.05994687247026815,
                    -0.1320483526446676,
                    0.013238183220744432,
                    -0.012140339580548332,
                    -0.09059032533889327,
                    0.16423094141701508,
                    0.11416873836104326,
                    -0.05147812845522686,
                    -0.1204783371481106,
                    0.07550388577860367,
                    0.17819785327322957,
                    0.02265236185290738,
                    -0.13592502378951812,
                    -0.13601834258373346,
                    0.10939413787707508,
                    0.14347358195281565,
                    0.07987095283526659,
                    -0.039588111439237364,
                    0.1289225941294508,
                    0.09906688789211748,
                    -0.04942379119632093,
                    0.28475275909738407,
                    0.02296961889377078,
                    0.33915246972651614,
                    0.02454634647888032,
                    0.23200780479736133,
                    -0.09185789909932572,
                    -0.06464945239860381,
                    -0.17147942057959267,
                    0.1280894540910095
                ],
                [
                    -0.09748959083743308,
                    0.1390469502796296,
                    0.17474534084847307,
                    0.20067051985768705,
                    0.24119962832875871,
                    0.06909144502939976,
                    -0.08640462175532354,
                    -0.3057161448239898,
                    0.011448980946886737,
                    0.27526830870393404,
                    -0.06725543122411695,
                    -0.35451471448734956,
                    -0.35918551124153153,
                    0.05466690477569633,
                    0.27043353602044806,
                    0.2794349029232159,
                    -0.03022100581709534,
                    0.14052247933279158,
                    -0.09538275648959466,
                    0.1832543508144952,
                    -0.13703770893552394,
                    -0.050563567030223446,
                    -0.0655237713427779,
                    -0.067058053899609,
                    -0.1881534484685856,
                    -0.016859324467461242,
                    0.07752390295224018,
                    -0.10420661815492813,
                    0.24829407860827674,
                    -0.09149697398799404,
                    -0.19260812661469262,
                    0.3084132413926939,
                    0.2645684659080954,
                    0.35570561931215533,
                    -0.06297365364446285,
                    -0.13595658106230005,
                    0.06560530084820962,
                    0.07400537831314127,
                    0.1274005549659334,
                    -0.11199320368048166,
                    -0.03604018144784185,
                    -0.13472588343170663,
                    -0.4060501449451162,
                    -0.10197313468032676,
                    0.12401826019382539,
                    0.28928612105460283,
                    -0.15258238188055884,
                    0.03969937574021055,
                    -0.04437252405845334,
                    -0.06158270377636209,
                    0.03176217179958679,
                    -0.09346846471627711,
                    0.029262926152639968,
                    0.014171938932636404,
                    0.11156195381724845,
                    -0.1936151102077363,
                    0.11365374254281323,
                    -0.032347161335774775,
                    -0.26476493811691937,
                    0.022868186397622527,
                    -0.09121310745117783,
                    0.09860376306633008,
                    -0.016576788458268293,
                    -0.1361953760716226
                ],
                [
                    0.12142712661046003,
                    -0.29106174636038296,
                    -0.21556978853629077,
                    0.05228575845133081,
                    -0.21239283327868375,
                    0.15552027791535014,
                    0.07300241477700091,
                    -0.17811403486303995,
                    -0.19250203417154987,
                    0.23920420373797588,
                    -0.09222410587030104,
                    -0.05949154876050518,
                    -0.050429860713272254,
                    -0.12005507384816931,
                    0.08413088935311754,
                    0.17362658850592508,
                    0.4635849395393013,
                    0.20568088852233476,
                    -0.13440626942883796,
                    -0.08898529170929065,
                    0.14617539842160948,
                    -0.08476224393105922,
                    0.009552981485656099,
                    -0.36869984781055254,
                    -0.004326989181874085,
                    0.06089221475979399,
                    0.15944554957095292,
                    0.27087323949610875,
                    0.17233272355835635,
                    0.04059077236759243,
                    -0.11558708731786589,
                    -0.12065621925630483,
                    0.10490472559622692,
                    -0.04969964067679052,
                    0.016303641123903482,
                    -0.08766179702333353,
                    -0.2520768684470678,
                    -0.08433765954517125,
                    0.2764700286793266,
                    -0.27660119131375493,
                    -0.014894003064980482,
                    0.15464918813821052,
                    0.29532020719780977,
                    -0.0612578335329847,
                    -0.04014949955049645,
                    -0.2142574553433772,
                    -0.22335349136198232,
                    -0.1673536879864087,
                    -0.0693535315251757,
                    -0.011100114063447786,
                    -0.09870377540061064,
                    0.01918129639107015,
                    0.04454770094190774,
                    -0.032040444173452184,
                    -0.2657735845252642,
                    0.21657493686581905,
                    -0.3011360593971534,
                    -0.02976389543032694,
                    -0.09691556936729596,
                    -0.09113175820186006,
                    0.030459034154631998,
                    0.24203483908483195,
                    0.16418682878398008,
                    0.2584805448228425
                ],
                [
                    -0.10427709204123643,
                    0.001131815295091738,
                    0.3031665887386077,
                    -0.011203408797694759,
                    -0.27417067028525743,
                    -0.13925569404865928,
                    -0.42667898424850187,
                    -0.09619505610725569,
                    0.050152527275758516,
                    0.10585138960796983,
                    -0.02993037031432986,
                    0.3049148065262403,
                    0.15225600727088082,
                    0.23332313389959344,
                    0.10325541940489336,
                    -0.042468060570125636,
                    0.10176845417566503,
                    0.015031656476326581,
                    0.09005280567690961,
                    0.12305773443528871,
                    -0.08020496544271787,
                    -0.00773823412533733,
                    0.1750746162236753,
                    0.2757079743787733,
                    -0.06625010403012466,
                    0.23949986136967588,
                    -0.21955697084099038,
                    -0.16941251463549623,
                    -0.052884961351775714,
                    0.21188045063058591,
                    0.20779803841283404,
                    0.14043708718166475,
                    -0.031042472246282458,
                    0.013791388588451936,
                    -0.2706347505942133,
                    -0.14587707951414547,
                    -0.029076135247777486,
                    -0.3787055704616358,
                    -0.3123493671839452,
                    0.21502717900432727,
                    -0.10286003454004815,
                    -0.0863451259466934,
                    -0.1377015322776031,
                    -0.28874722481921294,
                    -0.07816620881194868,
                    -0.010634808275486534,
                    0.23771073544219568,
                    -0.06713987612377367,
                    -0.13299307771435998,
                    0.11026680829552661,
                    -0.10968787009059754,
                    -0.4342243198168641,
                    0.07526770761794446,
                    -0.046043697243955226,
                    0.020645991045330183,
                    0.16228432837174034,
                    -0.05547475181734521,
                    0.053637626546855124,
                    0.34436489397576153,
                    0.26736326641825575,
                    0.2202363299943097,
                    0.08059668166419397,
                    -0.19401079472955507,
                    -0.00750747155785615
                ],
                [
                    0.12028061697385115,
                    -0.08834195192659332,
                    -0.06587928834022817,
                    0.12591432076131634,
                    -0.22952753737835943,
                    0.2542441884151653,
                    -0.04890715935368061,
                    -0.09737873972045347,
                    -0.039570443587209625,
                    -0.00979375624729849,
                    0.06616789578199492,
                    0.09685467267148959,
                    -0.07867452386014485,
                    0.0037055361908756522,
                    0.12615283845487751,
                    -0.07579557847209775,
                    0.1479455266716139,
                    0.021574358241560395,
                    -0.0955668869201777,
                    0.038834574946162354,
                    0.0038052523972876466,
                    0.21046325609741784,
                    -0.0775063580562695,
                    -0.20721611641926832,
                    0.1533801199456451,
                    0.17044043233254658,
                    -0.055962235896476496,
                    0.2185570663519732,
                    0.1465001482539687,
                    -0.029649808160214376,
                    -0.24526278695040454,
                    -0.1348308921755199,
                    -0.0301400478183513,
                    -0.17114183067630676,
                    -0.27158094689140394,
                    0.28114481718463,
                    0.15311540310620206,
                    -0.23481668931037486,
                    -0.24950788485540332,
                    0.10729364707862744,
                    -0.18205392519308367,
                    0.02980314291131987,
                    0.08982147227583173,
                    -0.10278809049853696,
                    -0.13369323354565923,
                    -0.02635220752978818,
                    -0.1957801833231434,
                    -0.07813831791056222,
                    0.08501895287328533,
                    -0.09546119215978752,
                    0.4486844947477203,
                    -0.10609227985480825,
                    0.046506526669410256,
                    0.16030349350284254,
                    -0.3228428306928538,
                    0.22133488995179468,
                    -0.0829376109939605,
                    -0.192691269083747,
                    -0.04267662418480307,
                    0.16544776022823385,
                    0.11164826779224447,
                    -0.1352231609733427,
                    -0.11904957644248504,
                    -0.010804485081516952
                ],
                [
                    0.1489075804791546,
                    -0.05059662746820992,
                    -0.13431515942704647,
                    0.11263478161076637,
                    0.00897941903878395,
                    0.15392071238910043,
                    0.10434135355508888,
                    -0.15848815691543394,
                    -0.08001204521411462,
                    0.0758125047370018,
                    -0.09254896664610866,
                    0.1549942779723389,
                    -0.07741184932144975,
                    0.21977286169333513,
                    0.17775264319835485,
                    0.15074946183081758,
                    -0.17051179825128682,
                    -0.11609292046547962,
                    -0.3129468228971394,
                    0.04800473319039174,
                    0.08130646911715979,
                    0.10077035089691984,
                    0.1768051576387042,
                    -0.26802056477296016,
                    -0.25090094718690437,
                    0.1659239244668923,
                    0.033403485040149124,
                    0.022317335495019307,
                    -0.050527687120220315,
                    0.22024843482599502,
                    0.5004831350450698,
                    0.21868725012914608,
                    -0.08282410005977775,
                    -0.24358254326816242,
                    -0.042223388090092386,
                    -0.5802512517829735,
                    -0.1604225927007055,
                    -0.16444667035426308,
                    -0.09648816938087619,
                    -0.09542649992825324,
                    -0.44542459651823235,
                    0.04735381080904374,
                    0.02791041912852558,
                    -0.08447276068499295,
                    0.05972702626777791,
                    0.08430085755783759,
                    0.0883355317182732,
                    0.12893144859890346,
                    -0.12809352767082816,
                    -0.03455390217308607,
                    0.16614486592204283,
                    0.1479966627310117,
                    0.070485394321351,
                    0.13887006582197867,
                    0.1506186801791134,
                    -0.21626042972389367,
                    -0.1655972268037265,
                    0.01238503483438912,
                    -0.10847407017866843,
                    -0.042680583826811114,
                    0.43757878879962075,
                    -0.019753437846456192,
                    0.09423724855775238,
                    -0.16640233043789715
                ],
                [
                    0.04914735745560926,
                    -0.03214787564742608,
                    0.14665000811006906,
                    -0.028929334815676812,
                    0.1068195298368973,
                    -0.3596004406826707,
                    0.15155771052732778,
                    0.19681959553454037,
                    -0.013450350699930308,
                    0.1427282095926916,
                    -0.008936976887158587,
                    0.1273258296634541,
                    0.0656905164195395,
                    -0.1356219417249458,
                    -0.03159874446563781,
                    0.007154671282324158,
                    0.23554694180405536,
                    -0.2660310146922658,
                    0.07146565396830094,
                    -0.11670786386747017,
                    0.17598903853421038,
                    -0.08861524788277465,
                    0.29911661504957954,
                    0.17737118164779533,
                    -0.3526799445011479,
                    0.1331860137315444,
                    0.07321445509163456,
                    -0.02828324683782232,
                    0.05148825695496018,
                    -0.02431558599152771,
                    -0.33408420689178825,
                    0.16816998121854834,
                    0.14386293119171167,
                    0.12989426610011434,
                    -0.06580522646320912,
                    0.07620866502496534,
                    0.18808063853710574,
                    0.35454187304669194,
                    0.0021137993710898936,
                    -0.008871807866261296,
                    0.10945847380815545,
                    -0.04195264101558174,
                    0.1512109599756048,
                    -0.005451884091636923,
                    0.07041690504676276,
                    -0.24237042235859957,
                    -0.006137277537000613,
                    -0.15341187171014906,
                    -0.2291263906037021,
                    -0.2485682475263137,
                    0.13824323840628944,
                    -0.036328164198299415,
                    0.25042675563239825,
                    0.14542862182270483,
                    -0.1212993613194321,
                    0.017711367946423858,
                    0.20160627062413689,
                    -0.019150322230837805,
                    0.178056526611445,
                    0.10935963115834507,
                    0.15800470067169564,
                    -0.21943367474554706,
                    0.1751385774338359,
                    -0.31697902901498837
                ],
                [
                    -0.0809194945053508,
                    -0.0728181967185038,
                    0.030920398514076443,
                    -0.0870797547955033,
                    -0.25432552689576815,
                    -0.33203569018834805,
                    -0.1054029605990193,
                    0.4401668710195829,
                    -0.1164988833709046,
                    0.12560771977617344,
                    0.06997202205802337,
                    -0.003874206754120433,
                    -0.007075523329018651,
                    -0.04156874136268103,
                    -0.24101282635044088,
                    -0.031678923208187916,
                    0.17799038752394508,
                    -0.08439956493038259,
                    -0.07872357165103627,
                    -0.05822392852615749,
                    -0.2673416594109112,
                    -0.25240241973959243,
                    -0.06358567848424576,
                    -0.09284168202720175,
                    0.33409953259962394,
                    -0.010292867136153407,
                    0.07845665053978301,
                    0.14677417210011268,
                    0.07759560398299127,
                    -0.11085261108060812,
                    -0.24548795990921038,
                    -0.04828129654132247,
                    0.20730669830597762,
                    -0.3529822698600373,
                    0.09115986948474221,
                    -0.03148246919059318,
                    -0.16042162517820302,
                    -0.4003397254700414,
                    -0.17396302296056224,
                    -0.2513619672708185,
                    -0.19305728533501978,
                    -0.10016694293238033,
                    -0.09574594460256984,
                    -0.13665741609397392,
                    -0.011618855215162623,
                    -0.1725361058814013,
                    0.3476463678400673,
                    0.17017754388251688,
                    -0.33042256789719904,
                    0.12865500212613756,
                    -0.18577913323119216,
                    -0.3432047541070732,
                    0.40336262524180716,
                    -0.18691072982339452,
                    -0.1123094911451075,
                    0.12031883772301127,
                    -0.10629162744124054,
                    0.03903012989522859,
                    0.007365253362817679,
                    0.017271880644091166,
                    0.1826779961624954,
                    -0.09216037456702675,
                    -0.005801462412518194,
                    -0.07887698347830796
                ],
                [
                    0.08646018701689823,
                    -0.06708357960631674,
                    0.3487635931218775,
                    -0.013177939148471197,
                    -0.08806781711505435,
                    0.24829679817818076,
                    -0.07953476312575519,
                    0.11873665921679352,
                    -0.16555515539128934,
                    0.3093101247237742,
                    0.37451890596970744,
                    0.10728438946126209,
                    0.2266690266194477,
                    -0.0721744028437528,
                    -0.10681453599673883,
                    0.015283030908194184,
                    -0.23118042859753699,
                    0.2484093618109735,
                    -0.1506369464817205,
                    0.21351544226028446,
                    -0.11195321786311604,
                    0.16367402632585706,
                    -0.006675261544400267,
                    0.6277346206841382,
                    -0.262891466755825,
                    -0.18341654449678332,
                    -0.12047012125260032,
                    -0.06295050424241277,
                    0.09041529380743364,
                    -0.29480403676235384,
                    0.32957721494442344,
                    0.001507390241750023,
                    0.06480246231822107,
                    -0.09618973457405827,
                    -0.27249521892333317,
                    -0.01517173603539934,
                    -0.10264207127476509,
                    0.11382737021865644,
                    0.04481598044010571,
                    0.05268952741147917,
                    -0.017307717861270173,
                    -0.18339627671459735,
                    0.014642809925784064,
                    -0.21816443556662157,
                    -0.16076890399471117,
                    0.3885290232509057,
                    0.000606106958814684,
                    -0.013664351473399332,
                    -0.2292421101358709,
                    0.2531677396572122,
                    -0.35320146145343206,
                    0.07276695416409326,
                    -0.31813431270472875,
                    0.06528585618567717,
                    -0.03815070236235494,
                    0.1611537151358476,
                    -0.054162032416608274,
                    0.13735141270844986,
                    -0.06369469781223018,
                    -0.039824772889584366,
                    0.3610607573656173,
                    -0.16411321876096743,
                    -0.05921027909507296,
                    -0.08512919514927493
                ],
                [
                    -0.2302310360816649,
                    -0.1210864523251837,
                    -0.0860299192795667,
                    0.04401349047037065,
                    -0.14502453093053042,
                    0.025225556535680118,
                    0.02341273261770181,
                    -0.13985796770266612,
                    0.23332275171594635,
                    0.09644059533986704,
                    0.0885776214404738,
                    0.22896596624467966,
                    0.39024456073395164,
                    0.2794061342317499,
                    -0.1676280441339164,
                    0.18230545035143755,
                    -0.0824015773622279,
                    -0.1578717944617491,
                    0.22222909940267974,
                    -0.02023870842046407,
                    -0.09023950615026015,
                    -0.09675578991416826,
                    0.27719018716370936,
                    -0.15160419017135665,
                    -0.1720448035635958,
                    -0.13529085439429525,
                    0.06317924439422537,
                    -0.03779529895335082,
                    -0.14658393665757116,
                    -0.025759389556393415,
                    -0.054178639039950065,
                    0.21127106088916886,
                    -0.07322937983167367,
                    0.05760234753367073,
                    0.49538936578060494,
                    -0.02348646142160569,
                    -0.13462294794890337,
                    -0.10020750129516735,
                    -0.020061285138678466,
                    0.0093858556017309,
                    -0.542258724132394,
                    0.1459548441329192,
                    -0.14981236137635745,
                    -0.24349594239321157,
                    0.04193227297252658,
                    -0.16018451562797575,
                    0.0626060188587734,
                    0.13721895000454729,
                    -0.015638039520470482,
                    -0.2740903229990936,
                    0.20382020197133996,
                    -0.15339083542014936,
                    0.03173707880238034,
                    0.11978267165881626,
                    0.13241447569750342,
                    0.18406932564935446,
                    0.14944949038664462,
                    -0.13523079193554285,
                    -0.11427032112912582,
                    -0.22024031514192416,
                    0.031821200038571806,
                    -0.10249652106853366,
                    -0.0383240817329887,
                    -0.3635013482673464
                ],
                [
                    -0.045751093576071614,
                    0.03798064078588562,
                    0.012853592834330454,
                    -0.591068153595934,
                    -0.0570054963381799,
                    0.07605947407649943,
                    -0.1754103684319599,
                    -0.21388503421873542,
                    0.14861462699580208,
                    0.096048838003415,
                    -0.14785605814110994,
                    -0.018259928451058872,
                    0.16788149674427394,
                    -0.07659273456878629,
                    -0.11409914036792951,
                    0.08324344023039096,
                    -0.1114054604882267,
                    0.1337044816628311,
                    -0.16753893648713075,
                    -0.1488401810112867,
                    0.07803460033493609,
                    0.05467490369556214,
                    0.21338968724610669,
                    0.23705414439751005,
                    0.07118508971744172,
                    0.01942854050462797,
                    -0.18652796482531525,
                    -0.08951458302639646,
                    0.052520262533148517,
                    -0.32058495258884917,
                    0.13508501720092655,
                    -0.015240302228252777,
                    -0.2550922413258051,
                    0.10738996869183651,
                    -0.20132410845502027,
                    -0.09688247835003201,
                    0.020714786299385685,
                    -0.05138315992679841,
                    0.08092590875505226,
                    -0.0747836935419667,
                    -0.12186364904172495,
                    0.05936764551578953,
                    -0.4209213846330602,
                    -0.03843014689772757,
                    0.03254890896772616,
                    0.10750677764893059,
                    0.17102800863434417,
                    0.0932957869152107,
                    0.001027975780632382,
                    0.4051642427195804,
                    0.09023465865590745,
                    0.30128923186681433,
                    -0.008215090143086974,
                    0.13533743452612484,
                    0.02604302231564855,
                    0.0053811385987054365,
                    -0.03195550029903897,
                    -0.0786550687120278,
                    -0.18961424753094747,
                    0.04264339968395772,
                    0.0647954412367795,
                    -0.1883642897909808,
                    0.20338016018428873,
                    0.14734706530484276
                ],
                [
                    -0.07383826937878427,
                    0.13263634673643276,
                    0.2177186492904747,
                    0.2586133206633179,
                    -0.06011234838647853,
                    -0.007928518834161376,
                    -0.15969993876662775,
                    -0.2811184746749105,
                    0.10537682820552458,
                    -0.13942973392914576,
                    0.031495045060559584,
                    -0.1050988473679991,
                    -0.3995795178443323,
                    -0.28800626791690265,
                    0.23936604463791403,
                    0.13009691083548858,
                    -0.05638584846873195,
                    -0.09902351124980012,
                    -0.018279054119148118,
                    0.12233647121207533,
                    -0.010438785920267766,
                    0.23380465301319622,
                    0.1708815061957924,
                    -0.23004709815507093,
                    -0.3928404815155172,
                    -0.002107020113212123,
                    0.08088663644965798,
                    0.03412486801097892,
                    -0.018282454865169315,
                    0.1645610943340418,
                    0.20723066064240658,
                    -0.08161094243086069,
                    -0.09620504944019415,
                    0.02641138407496316,
                    -0.14990735267395094,
                    0.6028340528939087,
                    -0.21405617970727192,
                    -0.16926111368234475,
                    -0.05533553548177953,
                    0.05419783587071263,
                    -0.10791998572596971,
                    -0.08985194198887403,
                    -0.15691075927650164,
                    -0.1952248638637805,
                    -0.22468965879083527,
                    -0.1971275091636672,
                    -0.057275201849903506,
                    -0.44478609535385927,
                    -0.05342403026528054,
                    0.10267577387061737,
                    0.06132729348135499,
                    -0.17959679766780726,
                    0.18465446177292527,
                    -0.1689637901510324,
                    0.031015271162393783,
                    -0.01796979839672015,
                    -0.13763839015656812,
                    0.14759815869321327,
                    -0.17301175279419068,
                    0.12471877301684904,
                    -0.16091876432395913,
                    0.046516173126428535,
                    -0.08236095916534697,
                    -0.04982583857818227
                ],
                [
                    -0.3069029623205327,
                    -0.39467494570667444,
                    0.10019666836070139,
                    0.1914826065781701,
                    0.33228144768859236,
                    -0.19536636613850783,
                    -0.09720081063403557,
                    0.013867026905653413,
                    -0.21087200854436822,
                    -0.19323839400081086,
                    -0.06717111152627632,
                    -0.10691310430530478,
                    0.18086062037415584,
                    0.2990669231972328,
                    0.0006610364596503709,
                    -0.09085424918169896,
                    0.07713361192915748,
                    0.15904993054673885,
                    -0.15515333149311084,
                    0.21055560505586077,
                    0.16489849995887926,
                    -0.11954894893031423,
                    0.009738588619587292,
                    -0.1299305723926051,
                    -0.15400077162784712,
                    -0.567116262818545,
                    -0.305323460000954,
                    0.35942537408935166,
                    0.004874699472483964,
                    -0.052100420463704514,
                    0.03979420212227963,
                    -0.15412483782357358,
                    -0.058545139838148644,
                    0.07082734959967375,
                    -0.018935913512767487,
                    -0.17975282531305392,
                    -0.23128141259393176,
                    0.006077769280325885,
                    -0.15872203641031637,
                    0.02652088092534975,
                    0.07406555672232205,
                    -0.09828326251615319,
                    0.13878262869536043,
                    0.17737452642013962,
                    0.11970523825167999,
                    -0.3287183063605714,
                    -0.12036140325909774,
                    -0.13667794568987737,
                    0.23907447699990073,
                    -0.034350802742007,
                    0.00835041227566311,
                    -0.05517245835522413,
                    0.15550038783789796,
                    0.2132665405232309,
                    0.056496136579321385,
                    0.21225379988971793,
                    -0.028541141752981378,
                    0.09697115718693758,
                    -0.057251469367519695,
                    -0.11517130812162703,
                    -0.10808208311290257,
                    -0.20261578265492622,
                    -0.03068907716074706,
                    -0.03052923755598329
                ],
                [
                    -0.060612551262942446,
                    -0.13126877183946398,
                    -0.07837033777098376,
                    -0.17837090255012278,
                    -0.07633170453792099,
                    -0.18477134469385273,
                    -0.08971418168591001,
                    -0.06800894125595289,
                    -0.2799014076466601,
                    0.18253312312579872,
                    0.11648014707382877,
                    0.16894402406340325,
                    0.1468472767347522,
                    -0.07818980598477848,
                    0.2469455940669848,
                    0.15113544036366033,
                    -0.0036993153756991757,
                    0.2169361565178717,
                    0.035685751452448275,
                    0.06256016422707607,
                    -0.1193244184048143,
                    0.12874771295062248,
                    0.2564861859429385,
                    -0.02044451646566434,
                    0.12707964301605343,
                    0.09622241013960109,
                    0.26856989835637396,
                    -0.12473533949292467,
                    0.223458787640966,
                    -0.06835413752629645,
                    -0.03372987143302671,
                    -0.12923907316411218,
                    -0.029724630161857817,
                    0.1318824497036062,
                    0.14666375497301318,
                    0.14930330719540166,
                    0.20587778643207014,
                    -0.28876653000491137,
                    -0.047639823799504925,
                    0.04706474365433301,
                    0.06949421157025028,
                    -0.03706726962145168,
                    0.31834905030338195,
                    -0.11454541296931231,
                    0.08403668904248093,
                    0.08065656801471341,
                    0.2056231269283587,
                    -0.05048040587030365,
                    -0.15370138842598935,
                    0.00446317620458325,
                    0.09051437200857947,
                    0.21860797099559565,
                    -0.45190309076418916,
                    -0.26146589443367485,
                    -0.13067969924053133,
                    -0.03139086485989674,
                    0.21930625873605927,
                    0.2022054963793288,
                    0.06975706888106485,
                    -0.18824160619271732,
                    -0.08280950598039907,
                    -0.10566054478526499,
                    -0.33789202330683143,
                    0.19584357921381723
                ],
                [
                    -0.1606638051046998,
                    -0.08741783083093722,
                    0.03691098050382928,
                    -0.09017691522525773,
                    0.13316755941591127,
                    -0.14772196135279586,
                    -0.03461295461611286,
                    0.24433810349832463,
                    -0.2791508888809346,
                    0.18780129638379575,
                    -0.04619089609219625,
                    -0.010345200253578773,
                    -0.2544232880720375,
                    -0.3958338976005332,
                    0.03531095733148971,
                    -0.10527153642514744,
                    0.18395863119409483,
                    -0.2414393284230809,
                    -0.5694263612917565,
                    -0.00039966435358067173,
                    0.08074655325649738,
                    -0.26631844654571263,
                    0.0032518542382282073,
                    0.1046024708713516,
                    -0.07887243147848945,
                    0.08693601200601266,
                    0.1486362661753461,
                    -0.0879736674539126,
                    0.07517160087228134,
                    -0.024412800077689725,
                    -0.03218755315697047,
                    -0.07819524029584442,
                    0.0890899950229326,
                    -0.21301821420390035,
                    -0.11937849806552805,
                    0.22100689830960238,
                    -0.23235264749965875,
                    0.24672090101199248,
                    -0.15758028365172716,
                    -0.39509559563654784,
                    -0.22933917226692954,
                    0.0383425959430092,
                    0.11352766323932477,
                    0.25405758787019117,
                    -0.43559263830932193,
                    -0.16147183936850623,
                    -0.02210653596055715,
                    -0.044126016625037304,
                    0.3462073561199862,
                    -0.09623698647164912,
                    -0.30923518823780183,
                    -0.343071011309402,
                    0.33974442130007154,
                    0.15108985203554404,
                    0.0077161637799606836,
                    0.0657604734783955,
                    -0.2867180403758309,
                    -0.177910142384559,
                    -0.1459122142854841,
                    0.2150793004457289,
                    -0.3512987831831185,
                    0.09465680665134438,
                    0.08651396667094512,
                    0.06009627087366641
                ],
                [
                    -0.17569657061661648,
                    0.15602579371968536,
                    -0.30895901084439586,
                    -0.3708853170973299,
                    0.20420585694372767,
                    0.299989321549212,
                    0.13062441640844127,
                    -0.20383653816878278,
                    -0.12817985864743606,
                    -0.2369098239795451,
                    -0.06692347024617028,
                    -0.030226592565946363,
                    0.16752579705692497,
                    -0.06278850271022188,
                    0.009153385901629825,
                    -0.000426083304126381,
                    -0.2518288199316605,
                    0.10255520474494453,
                    -0.23616226455712208,
                    0.008859345814477726,
                    -0.09740087946992304,
                    0.11291783455196225,
                    -0.049031976100588556,
                    0.16292115976773586,
                    0.040888831140346645,
                    0.034596186788345515,
                    -0.07171386661823928,
                    -0.10821224658865781,
                    0.03382015896391665,
                    -0.23699344488774277,
                    0.2013890788902664,
                    -0.15988547314074572,
                    0.14460444633707298,
                    0.12303951830876213,
                    -0.28488281917585556,
                    -0.4804774119939706,
                    -0.3518673408803362,
                    -0.23529881993148552,
                    -0.1276740832483408,
                    -0.0727963358375335,
                    -0.34449382573990245,
                    0.07903788291297285,
                    0.12606947405233954,
                    0.1529393211728281,
                    0.012040687265158707,
                    0.2013644152525166,
                    -0.25956884435740196,
                    0.020106662192182455,
                    -0.060628694427489034,
                    -0.12641046915931797,
                    -0.04353300352345206,
                    -0.0676088516424417,
                    0.20132078833391664,
                    0.12515486616969043,
                    0.10911378577946573,
                    -0.15376259061761377,
                    0.09438023756711506,
                    -0.3437696814425823,
                    -0.08172220480600656,
                    -0.21329795212840857,
                    -0.08668634095418568,
                    0.24194329664445854,
                    -0.15510808105690413,
                    0.12562556891101248
                ],
                [
                    -0.08152653346273055,
                    0.06293798529462728,
                    -0.07304471317823383,
                    0.1456957311531236,
                    0.3010199757119905,
                    0.06874610091347794,
                    0.26127754731114394,
                    -0.3154369361140164,
                    0.16717035466821525,
                    -0.05141293177642698,
                    -0.18109637029075235,
                    0.06393747334745886,
                    0.05662707838965023,
                    0.2305068799637129,
                    -0.08626038643989323,
                    0.012113305500944353,
                    0.2282448155049135,
                    -0.05633470664932512,
                    0.008548708590337057,
                    -0.01880598128578162,
                    0.09660956545369448,
                    -0.21235067646921207,
                    0.1507235358781941,
                    0.2649048981910583,
                    -0.08027106248370681,
                    0.030834233519367923,
                    0.0960870743653302,
                    0.0956690817096003,
                    -0.0535737245802365,
                    0.0808908105552919,
                    0.150073920920549,
                    0.08183400572189094,
                    0.09249463508940885,
                    -0.06930022238981014,
                    0.0259282626409856,
                    0.35073795762335314,
                    0.21621327142902733,
                    -0.18254698912814057,
                    0.30231410144294624,
                    -0.22893165787585726,
                    -0.09105938419358568,
                    0.019769410480629638,
                    -0.1032944763067549,
                    0.13828157492595702,
                    0.12630246110933113,
                    -0.18244727768649163,
                    0.10106333732893663,
                    -0.18607242564607718,
                    0.03233750445658263,
                    -0.07254626104410533,
                    -0.08354451307818116,
                    -0.04410547209774907,
                    0.21054709978326056,
                    -0.2806710644659324,
                    -0.02519425516820469,
                    -0.08808755376156756,
                    -0.21672236768716946,
                    0.0198051373761254,
                    -0.05077311562231509,
                    0.11065016664262205,
                    -0.013438243607947101,
                    -0.03842813846499925,
                    0.17086584463901852,
                    -0.13450911999675258
                ],
                [
                    0.05690629253917527,
                    0.16791187430545124,
                    -0.30211379655661563,
                    0.17997425638048944,
                    0.03105524383220076,
                    -0.20833052922733677,
                    -0.01995694970140315,
                    -0.14890897526846192,
                    -0.31448681513945986,
                    -0.019688129065468102,
                    -0.1645596408464692,
                    -0.05443131918202507,
                    -0.2636135179508289,
                    0.2952289535072508,
                    -0.022076618185179576,
                    -0.23617260356977127,
                    -0.005171499542195352,
                    -0.33851811814165633,
                    -0.12926301860011266,
                    -0.2817517555527675,
                    -0.24575706430898314,
                    0.3477375336313348,
                    0.07087382941869168,
                    0.18026008644947958,
                    -0.3689291504034597,
                    0.0568240571219696,
                    0.03213823336515768,
                    0.40895619153984325,
                    0.029292526327794798,
                    0.007653278139626505,
                    0.1872585581661393,
                    -0.1310767822406328,
                    0.3186326011660307,
                    0.06263574508567589,
                    -0.027496515926444563,
                    0.07580606724172809,
                    0.19467332230903767,
                    0.16670050640450965,
                    -0.16633369215378171,
                    0.36296803967930386,
                    0.06251401596653655,
                    0.2251729969864301,
                    -0.08236659525693893,
                    -0.2201729410102128,
                    -0.0260334494420339,
                    -0.2101307418602588,
                    -0.47807309922169194,
                    0.00810923080253493,
                    -0.2305992426071631,
                    0.06092566407205149,
                    0.17579757053156514,
                    0.11988008022278865,
                    0.12396374991513975,
                    0.1209143381052572,
                    -0.07193595374263952,
                    0.027891576492508927,
                    0.2707492534994416,
                    0.07026713313862142,
                    0.3317949724759838,
                    -0.2125130849727243,
                    0.01651991216067597,
                    -0.20110648251724605,
                    -0.17868953860008258,
                    0.0313942466548398
                ],
                [
                    0.08428433717816394,
                    -0.07278153521687566,
                    0.028640700648316753,
                    -0.2419942727484599,
                    -0.08312538502136972,
                    0.02840521257777475,
                    -0.05314143517937979,
