{
    "learning_rate": 0.01,
    "l2_lambda": 0.0,
    "dropout_rates": [],
    "loss": "categorical_crossentropy",
    "layers": [
        {
            "input_size": 45,
            "output_size": 64,
            "activation": "relu",
            "dropout_rate": 0.0,
            "weights": [
                [
                    -0.15558187098481643,
                    -0.1946361590781368,
                    0.13907131084471785,
                    0.018340481675739102,
                    0.3850884402629691,
                    -0.0012971188861698652,
                    -0.24290980526364978,
                    -0.0662908546825648,
                    -0.022094208823967433,
                    0.026673438667606304,
                    0.22610132461958518,
                    0.21535133392911981,
                    -0.11499619377682792,
                    0.1392365057851325,
                    -0.05802434268281659,
                    -0.10932872823724339,
                    -0.2428963659060247,
                    0.12869383775638038,
                    0.24666343802186816,
                    0.19316987293453566,
                    -0.02800553613480918,
                    0.10787141020808118,
                    -0.0861217807413257,
                    -0.010670285627881053,
                    0.42725354921082886,
                    0.05406266082381819,
                    0.4559315593610812,
                    0.17632812729509564,
                    0.16715430959593788,
                    -0.029458664509315693,
                    0.04476227398694797,
                    0.09424457863635312,
                    -0.26203131455251394,
                    -0.057606898952202105,
                    -0.12877958293865913,
                    -0.3043202279165832,
                    -0.037129407663407894,
                    -0.08570861869546977,
                    0.11133865095860226,
                    0.10239835651418633,
                    0.06575331990532401,
                    0.11334492368673343,
                    0.09499040462712499,
                    0.34881494434980403,
                    0.30319504595493324
                ],
                [
                    0.27561837703198105,
                    -0.07396605070863442,
                    0.5269625157987813,
                    0.017769566563776068,
                    0.09915209883473404,
                    0.1668642249361173,
                    -0.04763319565795121,
                    0.14454011835571073,
                    -0.31961899550616085,
                    -0.3430298405690974,
                    0.09816379749400453,
                    0.5946729301473005,
                    -0.1794568449660291,
                    0.06585000874266529,
                    -0.1417546753003172,
                    -0.2945282977459035,
                    0.23515988351876732,
                    0.08896141740248634,
                    -0.0462644477056026,
                    -0.06165122642331681,
                    -0.05030942645819908,
                    -0.09757025830896698,
                    -0.21965816064420954,
                    -0.09806363485361815,
                    0.18774286639980223,
                    -0.020713837947796365,
                    0.1362181760919154,
                    0.11171307603648332,
                    -0.7603500723587746,
                    0.10275320370571903,
                    -0.06311220097524642,
                    0.008651006257932695,
                    -0.07377129282660465,
                    0.09713280019254557,
                    0.11092284196927293,
                    0.11663687384476461,
                    0.013202009549395011,
                    0.05220581517410238,
                    -0.2980849980641777,
                    0.16367303807393863,
                    0.040355269933208614,
                    0.49214222102068844,
                    -0.030640736195148278,
                    0.0945133071835229,
                    -0.427384288882415
                ],
                [
                    -0.056008776487156714,
                    0.1922483444624953,
                    0.15405948320447235,
                    0.14797221089902662,
                    -0.08232800907102836,
                    0.16422735623139725,
                    -0.0945992576508426,
                    -0.03088007127642951,
                    -0.23246973633968238,
                    -0.08486847527916783,
                    -0.2966376610997463,
                    -0.15775595378674492,
                    -0.15930280629983207,
                    -0.14275264261744466,
                    -0.20633603602203066,
                    0.3067590654802125,
                    -0.30265696206866416,
                    -0.1285431942516123,
                    -0.15207036926976347,
                    -0.2177108130794562,
                    -0.07026118320650586,
                    -0.09891072992824353,
                    -0.1087282724488894,
                    0.17845636618976055,
                    -0.02908551810923129,
                    -0.2539482011879432,
                    -0.17345973431495443,
                    0.463591370394905,
                    -0.22637327272978344,
                    -0.3618087411180026,
                    0.010090586730499642,
                    0.21675936607334675,
                    0.10656437191054764,
                    0.11110202760942886,
                    0.043603736374973966,
                    -0.0981186892687525,
                    0.12191009877827746,
                    0.12547889727288364,
                    0.4330694631252398,
                    0.5469274456754629,
                    -0.35782945819540374,
                    -0.08975800238843444,
                    0.27385846596639296,
                    0.2254644640380305,
                    0.0733038460322078
                ],
                [
                    -0.25811480692546857,
                    -0.29148672697331085,
                    -0.2208351911481155,
                    -0.09979742683482867,
                    0.024921210609828093,
                    -0.42408234895841873,
                    -0.07531370659505623,
                    -0.027444291297083694,
                    -0.027270052079843298,
                    -0.054669245900768174,
                    0.2054653847730181,
                    -0.22487185679114255,
                    -0.09313563450450514,
                    -0.08792910874348185,
                    0.02818856957867201,
                    0.1929569138446466,
                    -0.2433472457546956,
                    -0.3983225177579361,
                    -0.03434343422235421,
                    -0.21034892755608178,
                    0.02349114225955836,
                    0.3045565196101225,
                    0.2828156478208784,
                    0.19834598046023835,
                    -0.008143247489484891,
                    0.01218073204735863,
                    -0.14720092802100987,
                    -0.1718858833174483,
                    0.08096568381271757,
                    0.0040666224884333205,
                    -0.6590631636529256,
                    -0.018024697932037585,
                    0.10512662295260677,
                    -0.26461952113616033,
                    -0.06605815113654395,
                    -0.05710510998800031,
                    -0.12795530548185272,
                    0.0324311807079096,
                    0.2103267221197231,
                    -0.057542335264634696,
                    -0.1539258623854187,
                    -0.026105386481789426,
                    0.08766588426662421,
                    -0.010036044881264458,
                    -0.21149867925095928
                ],
                [
                    -0.008917450717290777,
                    0.1098844372904144,
                    0.2648952277657272,
                    -0.3196123847557268,
                    0.19200255034330094,
                    0.1635131587718325,
                    -0.15010158469169133,
                    -0.26603968567834113,
                    0.04183509057109609,
                    0.3147721457758908,
                    0.0600326069019455,
                    0.33709164236355116,
                    -0.3123186466195565,
                    -0.06792445324262263,
                    -0.05235406364031414,
                    -0.0012403694163523706,
                    -0.0006185341774093901,
                    0.2868319250901254,
                    0.34029983703417926,
                    -0.07633382799751288,
                    0.04135170843891695,
                    -0.024171457356914304,
                    0.08032353344649232,
                    0.45799021504675347,
                    0.2376142781862875,
                    0.08439865841410644,
                    0.3229603160788006,
                    -0.24034097395569154,
                    -0.04685960297550514,
                    -0.37818411070129904,
                    -0.3559087949323051,
                    -0.06397039636953954,
                    -0.21899168045614947,
                    0.07954788664408857,
                    -0.0525729091227369,
                    0.012189482292005397,
                    0.038211975267711695,
                    0.10313071557549588,
                    -0.3398899884032537,
                    -0.18488257737382469,
                    -0.07052344561608609,
                    -0.07504807704101989,
                    0.13267448847116195,
                    0.04469082946126321,
                    0.17986897194394813
                ],
                [
                    -0.3675499969120376,
                    0.012512529511670216,
                    0.32589358551613135,
                    -0.3674273760154544,
                    0.004664625541788665,
                    -0.11162270107219659,
                    0.2578817330192736,
                    0.14491512233605794,
                    0.127939068842011,
                    -0.31869482814424693,
                    -0.31761217037655615,
                    -0.13211659126895464,
                    0.06689917258083285,
                    -0.03994984911691068,
                    -0.0743240479431041,
                    -0.06879406071093225,
                    0.2774789484008322,
                    -0.12428703807699322,
                    -0.05726578386316556,
                    0.20515678767000484,
                    0.06265310869298789,
                    -0.4255943480951262,
                    -0.13789365727288214,
                    0.19655237915706691,
                    0.12800395381061908,
                    0.159137669200637,
                    0.44293660321229705,
                    0.12174120082775326,
                    -0.09065445556344262,
                    0.07596606227568219,
                    -4.4915966987271844e-05,
                    -0.2320612733429633,
                    0.08416153990822568,
                    0.1250045810281331,
                    -0.003981695304477485,
                    0.07078557681378526,
                    -0.49561681781932276,
                    0.18653476894451723,
                    0.17672000760206866,
                    -0.3714375754409065,
                    -0.16313440485053465,
                    0.505744613176168,
                    -0.16513208158990458,
                    -0.12916227379328132,
                    -0.37658860782148185
                ],
                [
                    0.11605965980606153,
                    -0.10923849373327674,
                    -0.3521598179448264,
                    0.08912175139642957,
                    0.45313611011053445,
                    -0.09031018139488217,
                    0.1368772144145011,
                    0.09967476779378262,
                    0.17933266301968162,
                    -0.015655293648113234,
                    0.07664812764796959,
                    -0.12983481465874896,
                    -0.2366099055992581,
                    -0.13170786487028419,
                    -0.0661551173946842,
                    0.02828673354941935,
                    0.21770236679869093,
                    -0.3506379401397644,
                    -0.02847785319527516,
                    -0.16501988859869698,
                    -0.3033868238378105,
                    0.06517800401010948,
                    0.6204965741498664,
                    0.1421580570552251,
                    -0.4628373622536909,
                    -0.13672570060091316,
                    0.16190606036647706,
                    -0.007745402050802723,
                    0.07954357018137939,
                    0.14846414767091043,
                    0.11113027127146981,
                    -0.07221310538772965,
                    -0.20241957149373085,
                    -0.046973493358392036,
                    -0.016344913186935147,
                    0.08075881686019824,
                    -0.538024878177146,
                    -0.2924659759826864,
                    -0.211225877075054,
                    0.016324025675310022,
                    -0.1174006698537217,
                    -0.21396736280074546,
                    -0.2505589140804928,
                    -0.0008925946865383032,
                    0.1403664445506832
                ],
                [
                    -0.13268243427991672,
                    0.2469404751221038,
                    -0.04471224113492619,
                    0.1787959253092627,
                    0.04220652429626296,
                    0.07962730599828718,
                    -0.19246822446909156,
                    0.1944114815518211,
                    0.08561169321870205,
                    -0.13056338201995052,
                    0.07769373484442961,
                    0.5888652266495277,
                    -0.2761893905780602,
                    -0.026822775693391192,
                    -0.3280994187038042,
                    0.12085482953444684,
                    -0.1572440440649753,
                    0.20301464869632263,
                    0.04297768238753203,
                    0.045787963573364274,
                    -0.01578734653099702,
                    0.3228419246898374,
                    0.23232008298475065,
                    0.21972693366196044,
                    0.09147459691649946,
                    0.052454585272589095,
                    -0.5403408464408255,
                    0.17460471736581878,
                    -0.032352623692460454,
                    -0.3143854908913644,
                    0.14957462552489215,
                    -0.10273107162541785,
                    0.00443250742283939,
                    -0.23850032027779366,
                    0.11313007719967491,
                    -0.06281672760802062,
                    0.19106687062810046,
                    -0.047108159708055375,
                    -0.21004043275794887,
                    0.10319527670274255,
                    -0.3099535584758741,
                    0.26162632776295663,
                    0.1451509283964666,
                    -0.10408614701352137,
                    0.15138511399331123
                ],
                [
                    -0.14688575021743316,
                    -0.2802109781409822,
                    0.45916219238651956,
                    0.08389957509814991,
                    -0.2061089570572423,
                    -0.2141785317949224,
                    -0.15934107707344028,
                    -0.3206517638425665,
                    -0.17114197029231806,
                    -0.21015010208879328,
                    0.2865769881604519,
                    -0.0014741245171578817,
                    0.17023373942775274,
                    -0.28942218541646614,
                    -0.28958588760410753,
                    0.7633486686412815,
                    -0.24171009369439167,
                    -0.14800174223877616,
                    0.15789243907491024,
                    -0.06798118951171091,
                    0.17119730612010353,
                    -0.1451613824931464,
                    0.44674541983829946,
                    0.33755471948168353,
                    0.0578153856871331,
                    0.03174796616989522,
                    -0.05973530178950077,
                    0.3387192073063238,
                    -0.12559787575208572,
                    0.06817801652250932,
                    -0.10494333015924293,
                    -0.10463337826139296,
                    0.06462194859347412,
                    0.22777723475003428,
                    0.2532809049588266,
                    -0.21934352938140317,
                    -0.184521284666083,
                    -0.1227709935930521,
                    -0.30862887368249975,
                    0.1464820469116112,
                    -0.09363564791677807,
                    -0.09332203245139238,
                    0.10951440466229038,
                    0.2535491846121586,
                    0.04502968969666735
                ],
                [
                    0.2499790927677977,
                    0.1299240485040078,
                    -0.05831228583005589,
                    0.06681801848411115,
                    0.11963288942196486,
                    -0.029347400572187723,
                    0.13108277097046478,
                    0.06151399365786829,
                    -0.12141108819740004,
                    0.10282216198933952,
                    -0.07844291358721353,
                    0.1995239982178741,
                    0.11150519386565506,
                    -0.18356323189894322,
                    -0.33739081972511076,
                    -0.0756071542529186,
                    -0.48992464312208056,
                    -0.20113695879704743,
                    0.17314763498102947,
                    -0.23209846727060507,
                    0.5481914959407554,
                    -0.27917206008161577,
                    -0.12949421468994543,
                    0.06847086851388914,
                    -0.05332844304578523,
                    0.25043204359670707,
                    0.14712855856179263,
                    -0.09102919016892567,
                    0.0637231673153506,
                    -0.15454507073140952,
                    0.17290687091476306,
                    0.008434878597944201,
                    -0.2989871109460799,
                    -0.06733391718063585,
                    0.06305100200744915,
                    0.46015317802000655,
                    0.4093502109599881,
                    0.20468034265323115,
                    -0.11449543531695194,
                    0.18866640405157112,
                    -0.024647288326267586,
                    -0.16511483641463376,
                    0.19359164748918103,
                    -0.10220420910353833,
                    -0.21484317753552787
                ],
                [
                    0.4564326320155301,
                    0.23386842497036792,
                    -0.27666471940351034,
                    -0.1965778740397204,
                    0.005218669746634309,
                    -0.044737338382868,
                    -0.03641062484209927,
                    -0.002896397586237734,
                    -0.10898445595505686,
                    -0.291038432967889,
                    -0.10215422688468678,
                    -0.19122089818109783,
                    0.1758775839217455,
                    0.19515204344102324,
                    0.2627162154501709,
                    -0.19960067118151117,
                    -0.07545923677208974,
                    0.00757910613484672,
                    0.10027127674002276,
                    -0.08506503475342068,
                    0.5516508558181146,
                    -0.33628296823501136,
                    -0.1356679114654943,
                    -0.08067002772458631,
                    0.02654914458725109,
                    0.32905497939946265,
                    -0.0421130639267655,
                    0.007399989669352355,
                    -0.0660685344716098,
                    0.2134745315166363,
                    -0.23447221608283567,
                    -0.0335376032809142,
                    0.710698769959524,
                    -0.07102900240459656,
                    -0.1651972892348584,
                    -0.1727697633199046,
                    0.0891053935235941,
                    -0.1952214348625051,
                    0.056506548594275875,
                    0.1932359283918441,
                    -0.038678131536070394,
                    0.12712924274867762,
                    -0.12533177708275006,
                    0.08542646911944422,
                    -0.09295637705062186
                ],
                [
                    0.37048026430325676,
                    0.2577713390419116,
                    0.06810994765909052,
                    0.2724993257447701,
                    0.16875445589988827,
                    -0.13647077174675984,
                    0.017072643219833747,
                    0.11155931416141428,
                    -0.4057723407389487,
                    0.364875823062864,
                    0.1621238137707009,
                    0.1900087676244483,
                    -0.11001648891336607,
                    -0.16632870726546134,
                    -0.36360815646215516,
                    -0.3269430554631266,
                    -0.19210235272452164,
                    0.027746310572588858,
                    -0.13491083360100803,
                    -0.24569323825390307,
                    0.040494540921267155,
                    0.12585456423064612,
                    -0.18458021237213998,
                    0.001069810661541767,
                    -0.15496714229055808,
                    0.06979252347516693,
                    0.04946099589157429,
                    -0.26439073933801693,
                    -0.28943770281317255,
                    -0.036532027790311505,
                    0.23565332312802018,
                    0.0033677973514609186,
                    -0.19021073647409453,
                    0.19760695894921468,
                    0.12026614127725511,
                    -0.12094181927828629,
                    -0.009999434729139866,
                    0.012912440017208144,
                    0.11355555662782063,
                    0.025205304612290914,
                    0.37463207944545807,
                    -0.07060820084412343,
                    0.06630676154435508,
                    0.25479269409991845,
                    0.12760194419497367
                ],
                [
                    -0.09905034777208932,
                    -0.05860947857539371,
                    -0.16725608155765304,
                    0.5193502578897481,
                    0.09070827980698987,
                    0.16643048159646534,
                    -0.07828804771783171,
                    -0.3235051309133968,
                    -0.009608548239047412,
                    0.1491364128620778,
                    0.012291587762823002,
                    0.1836287280246583,
                    0.30887666946713804,
                    0.22004549762461445,
                    0.11197199786010348,
                    0.15067256462751719,
                    -0.5057506164067272,
                    0.07802283765357214,
                    0.0987219319430176,
                    0.31629492303675755,
                    -0.05549183833540405,
                    -0.0028643350409178784,
                    -0.39490573676448065,
                    -0.025398935720974656,
                    0.08695387730913473,
                    0.06363871440678638,
                    0.047978636803279094,
                    -0.0171667860759768,
                    -0.019907988024041375,
                    -0.11131416563835071,
                    -0.032640633987385065,
                    -0.023311380847820036,
                    -0.03040149672478048,
                    0.2964857608578442,
                    0.12470240887839877,
                    0.07490176383931693,
                    -0.19183293331514217,
                    -0.17001743912163111,
                    0.592818671210935,
                    0.17866474598207607,
                    0.02250361613029457,
                    0.07617456995689308,
                    -0.32260817093425814,
                    -0.08748610519501462,
                    -0.09797813297360877
                ],
                [
                    -0.16450733387319538,
                    -0.28942224536549127,
                    0.0824072858647131,
                    0.1229348792791985,
                    0.140630151784706,
                    0.09987116065955982,
                    0.07406257317154884,
                    -0.12421763360304706,
                    -0.32336229956042717,
                    0.3153754137490844,
                    0.03709261184888922,
                    -0.39564190320173315,
                    0.05156923340876699,
                    -0.08479047480455885,
                    -0.27418041970272455,
                    0.35215930895984887,
                    0.0662799637370927,
                    -0.19779322603705138,
                    0.4899389361398967,
                    0.4605727378345485,
                    0.023600510236743963,
                    -0.10028158001618029,
                    0.3221106876304082,
                    -0.04373412787747296,
                    0.270850555253215,
                    0.5102352832745048,
                    0.043049111810561314,
                    0.29298702604197857,
                    -0.13803242690820103,
                    -0.013729963941821894,
                    -0.1291505510498113,
                    -0.07709434574154209,
                    -0.16433346567403362,
                    0.21218614150899423,
                    -0.13472353749455893,
                    0.03537313595627787,
                    0.019550113170933962,
                    0.09616199521086778,
                    -0.24189854387159354,
                    0.16922121124900757,
                    0.10992875985919197,
                    -0.15553046689887687,
                    -0.20610663044635333,
                    0.28266505989259777,
                    -0.13887706422576548
                ],
                [
                    0.2669994399774795,
                    -0.033469285707742706,
                    0.03528741820078616,
                    0.28262715038159514,
                    0.0914589501354423,
                    -0.16498867108609658,
                    0.00439767110577236,
                    -0.2979716416683037,
                    0.19294869551410745,
                    0.1336506768371079,
                    -0.09403735588474808,
                    0.15204100866859102,
                    0.30098951867185986,
                    -0.023507107057787167,
                    0.1030362539854901,
                    -0.12348376634110216,
                    0.2816207964003464,
                    -0.02358693074018064,
                    0.16104938624846557,
                    -0.21358177708775883,
                    0.034831427803114885,
                    -0.22196132857694337,
                    -0.18146791987167504,
                    0.04882185459677928,
                    -0.12164742953552946,
                    0.23483963314064732,
                    -0.015027866872040389,
                    0.15518004811057445,
                    -0.024065348199976085,
                    -0.014119791199054413,
                    0.17884781170243821,
                    0.0440446565630134,
                    0.0514690874237702,
                    0.17682975116674002,
                    -0.04918453615328813,
                    0.4097774235975353,
                    0.060213826948328775,
                    0.029412015538368606,
                    0.21140893127334603,
                    -0.48569363867249027,
                    0.06040590992090869,
                    0.2909749729029429,
                    -0.018770059164484963,
                    0.1311874200325222,
                    -0.23263730044765174
                ],
                [
                    0.638647684364727,
                    0.0607373457414664,
                    0.21569786350181697,
                    -0.3200964118280838,
                    0.231159900229276,
                    0.0642954682820228,
                    -0.2858115456126244,
                    0.02415325030174073,
                    -0.004800589554091921,
                    0.14218505104461496,
                    0.1832687585608567,
                    0.1284219269369742,
                    -0.08386235323105079,
                    0.060152461969632164,
                    0.05705705142358608,
                    -0.08182406394456758,
                    0.22552264355629137,
                    0.3373922489798096,
                    -0.01792657591239339,
                    -0.14916049743883247,
                    -0.22193621940735944,
                    -0.28442611368731574,
                    0.08415860929507724,
                    0.025276137524647923,
                    0.09732185321075708,
                    0.06966172855881915,
                    -0.12350111763744964,
                    -0.2833696843013305,
                    0.29749965646693716,
                    -0.25859554608660584,
                    -0.09449442747971415,
                    0.16206418795046668,
                    -0.1738968391191027,
                    -0.17743847726446843,
                    0.011408758430726477,
                    -0.22779209776153414,
                    0.17183552114251774,
                    -0.39162248595440935,
                    0.4221550264345121,
                    0.08882314715084105,
                    0.2734606376771375,
                    0.08788521798484153,
                    0.11701761879333081,
                    0.10641173626336872,
                    0.20787763052969568
                ],
                [
                    -0.07319051468842952,
                    -0.46467504590609476,
                    -0.24838970725013212,
                    -0.04549374461057378,
                    -0.13518727464765268,
                    -0.4371389323587879,
                    -0.11951812801187102,
                    -0.25128354209005066,
                    0.06865976223977738,
                    -0.0976419443285348,
                    0.030636523265626315,
                    0.22468984460982497,
                    0.19996001010261072,
                    0.021011024035415788,
                    0.3106374038331485,
                    -0.12469477037732392,
                    -0.18553778786463715,
                    -0.32517976743387256,
                    -0.19181286272567538,
                    0.38195849731547066,
                    -0.29805974745581804,
                    -0.01890675037745933,
                    -0.4096873492005497,
                    0.2727839121259326,
                    0.1754224230642724,
                    0.0696263349762571,
                    0.02606272998459451,
                    -0.45720039960612824,
                    0.2178311969652019,
                    -0.19600286516538895,
                    0.1660909966410768,
                    -0.44128914041876155,
                    -0.05633919512268656,
                    0.07042213540158113,
                    0.3539059572711341,
                    0.06237627239404415,
                    0.24221626650058684,
                    -0.3089125181861459,
                    0.19326965901451268,
                    -0.16319675956756002,
                    0.13883610570442795,
                    0.013977743301350659,
                    -0.13582599962099765,
                    -0.4797708985556888,
                    -0.18489320364414982
                ],
                [
                    -0.024951721374561166,
                    -0.035701858581903986,
                    -0.21044424149733823,
                    -0.1859012789813329,
                    -0.15077643952517855,
                    -0.003365987709725488,
                    -0.316629765568197,
                    0.02706721917584251,
                    -0.05371733335392743,
                    -0.04074174096810409,
                    -0.04485013878186098,
                    -0.012530024585588648,
                    0.37177328159681405,
                    -0.1111473604767207,
                    0.018244003509567928,
                    0.11127943087466889,
                    -0.11493935774526086,
                    -0.04496058934808421,
                    0.1042391148973611,
                    -0.0467264376261876,
                    0.22564147439895066,
                    0.1257358492160911,
                    0.33440633207500603,
                    0.08335586348293056,
                    -0.3277698720094744,
                    0.17941188302191058,
                    0.22327135596495978,
                    -0.30337915525205134,
                    0.36409842923281494,
                    -0.08179925631745488,
                    -0.1454218609970921,
                    0.0346858877178071,
                    0.14175243808589638,
                    0.20667645395851808,
                    -0.555304119718135,
                    0.2562561166046654,
                    -0.07970893864976117,
                    0.06881348385363918,
                    -0.0071761368257051,
                    -0.07873398737919747,
                    0.01794226013379364,
                    0.017396332695543325,
                    -0.18807914966559838,
                    0.05300892670185845,
                    -0.07823273261393285
                ],
                [
                    -0.040133918871863114,
                    -0.05030110625309932,
                    -0.292212861896108,
                    0.018044878262088056,
                    -0.1344458563668967,
                    0.14634969252278018,
                    -0.02589275986772636,
                    -0.0004984776315871556,
                    -0.11228238457134102,
                    -0.462277474269104,
                    0.17462223540144037,
                    0.49634550254974885,
                    -0.04219372317692526,
                    -0.2342934604961502,
                    -0.12418284504397073,
                    -0.08561263380816923,
                    0.19379979029989053,
                    0.07758437265562473,
                    0.020688658879963278,
                    -0.31663394125911837,
                    -0.19349723443964664,
                    -0.06486988347909384,
                    -0.06643560015298895,
                    -0.4519044181878717,
                    -0.18911478533195916,
                    0.3562936065402142,
                    0.14443361595266113,
                    -0.24240478010290903,
                    -0.16788978074760805,
                    0.17165805255929115,
                    0.1330739935609652,
                    0.05682365279185133,
                    0.11547448359979343,
                    0.15779617246745414,
                    -0.23826733019553412,
                    -0.07581888650801688,
                    -0.2642121317430088,
                    0.03954558819975102,
                    0.27578953172921566,
                    -0.23352361517840065,
                    0.016271284577494032,
                    -0.7187464749577839,
                    -0.1801694985768541,
                    0.06686891593500727,
                    -0.20304199247135954
                ],
                [
                    0.15905875534992436,
                    -0.0022238159026669166,
                    0.199691593326233,
                    0.1941268366176681,
                    -0.24536183414107865,
                    -0.015143624237981131,
                    -0.07926767142939668,
                    -0.07803632837145477,
                    -0.1627257570933308,
                    0.40335387976756076,
                    0.5276793091987362,
                    0.04640834505942479,
                    -0.10158389058853147,
                    0.48833034474629994,
                    -0.05247709694875929,
                    0.22581884970911667,
                    0.1362808321498576,
                    0.05346508974236918,
                    -0.08978796483890047,
                    0.04022830087852213,
                    0.06709771728890095,
                    -0.17588703648302564,
                    -0.04490677129737904,
                    -0.47719891849930013,
                    -0.30342556805651855,
                    -0.10043954816210497,
                    -0.15173560555894067,
                    0.14203798871571272,
                    -0.13255582630138948,
                    0.05460457285165675,
                    -0.08283486530126553,
                    -0.04475386200196322,
                    0.05121584954527914,
                    -0.11385137065303395,
                    0.08174289462270926,
                    0.11217733368262191,
                    0.17430858948062614,
                    -0.2103513417649225,
                    0.38632876466692845,
                    0.02812152680240111,
                    -0.3090840366904059,
                    -0.21343434269116637,
                    -0.08509512103421338,
                    -0.007974059089928551,
                    0.2473564481199744
                ],
                [
                    -0.2961186139829954,
                    -0.15028841599698992,
                    0.05492293026637823,
                    -0.009195805761134547,
                    0.06883588404700029,
                    0.013700771546523412,
                    -0.05570657040538707,
                    0.0521591715947019,
                    -0.12832979986133017,
                    -0.08406119536529413,
                    -0.034743826027169085,
                    -0.10640182862316908,
                    -0.09507006589241646,
                    0.06146969213235339,
                    0.3799249206825925,
                    -0.006197985563753698,
                    0.17414956997402617,
                    0.17513154029244757,
                    0.09140269697643892,
                    0.03034969725367339,
                    -0.05727718484294028,
                    0.05228640474730858,
                    -0.02692763051312791,
                    -0.2689839480747591,
                    -0.01013516921375792,
                    -0.06927493769339753,
                    0.33395863398997655,
                    0.36405863294757057,
                    0.007257342793990743,
                    -0.2146399222549004,
                    0.541242934210375,
                    -0.25109681415699525,
                    -0.023050326518312743,
                    -0.04974914145842097,
                    0.15005555044153893,
                    0.16957165652230372,
                    -0.0010087583488900982,
                    0.2702816683228076,
                    -0.31734172519040915,
                    -0.035968255932317866,
                    0.4189672379889235,
                    -0.1742920259176415,
                    0.37436554095821933,
                    0.24790288454137785,
                    -0.2872254066181601
                ],
                [
                    0.16582077857971605,
                    0.09713832926234355,
                    -0.027616841169509982,
                    -0.23448572915489405,
                    -0.07868892140631827,
                    -0.12355271043718845,
                    0.2187785302649739,
                    0.005379720526186475,
                    0.12644798636198357,
                    -0.2919941694813353,
                    -0.08174345401176404,
                    -0.1533114867507597,
                    -0.03070896515609845,
                    0.15397906769581116,
                    0.24204949946169263,
                    -0.34263778609947454,
                    0.1421606471055119,
                    -0.16708729502177516,
                    0.19206063716928926,
                    0.018985216320715037,
                    0.5091491259640136,
                    -0.26395613154225694,
                    0.02649598338845136,
                    0.24060015759931552,
                    -0.1431344946728805,
                    0.11745692298035251,
                    -0.29019502264002855,
                    -0.03102757161479557,
                    -0.25767259613857685,
                    -0.17558452522327359,
                    0.1902403801237969,
                    0.2100178237168564,
                    -0.1655681530841026,
                    0.10215834610015175,
                    0.1118828628978984,
                    -0.09559402943168749,
                    0.04845490115489068,
                    0.38647338169110507,
                    0.1302909761532926,
                    0.2715236284018911,
                    0.02048990218214238,
                    -0.18149953744514088,
                    0.32126993294819506,
                    0.23232277948955357,
                    -0.35308944889949556
                ],
                [
                    -0.35735280479540427,
                    -0.012872523046824992,
                    -0.31477753623615806,
                    0.3432012057778497,
                    0.22277775691308854,
                    0.11289400100408073,
                    0.16319412450152268,
                    -0.12590703469800885,
                    0.2624143778689421,
                    -0.038080142014924684,
                    -0.023381898032341274,
                    -0.18740918559564912,
                    -0.2798923847388045,
                    -0.005692976081626724,
                    0.24187819456037984,
                    0.38154219073606355,
                    0.10796387749695396,
                    -0.1046636022812006,
                    -0.050745070316904686,
                    0.18745943047754388,
                    -0.069871244156998,
                    -0.029248608166162295,
                    0.01655045924834922,
                    0.2452127618299794,
                    -0.03375065082719401,
                    -0.055759012928301044,
                    -0.45714521254476215,
                    0.28535369124479404,
                    -0.022657978668902293,
                    -0.008868807582688576,
                    0.14202965522401237,
                    0.23367047516784686,
                    0.08109742404811524,
                    -0.2578931046900188,
                    0.2010444960866128,
                    -0.13355326659044975,
                    0.09250655575856548,
                    -0.22890004964860056,
                    0.024009911500220214,
                    0.01668696880238162,
                    -0.049459688633609715,
                    -0.3618910613834786,
                    -0.3303480064901233,
                    0.5486686478025097,
                    -0.1854867195293958
                ],
                [
                    -0.08103494360513658,
                    0.042044503966051264,
                    -0.13934688196059375,
                    -0.22687811724776052,
                    -0.20932394451717637,
                    0.6062505051553668,
                    -0.341342228481408,
                    -0.12384498548149547,
                    -0.12397438441739075,
                    0.06825019472632864,
                    -0.08906367067356767,
                    -0.17599480881662657,
                    0.1977209339243403,
                    -0.31590123667000936,
                    0.16088166575719287,
                    0.3899512752792566,
                    -0.02246378938782781,
                    0.027500426033043316,
                    0.045275975951301894,
                    0.07953436510475959,
                    0.05589891926260654,
                    -0.022196515179503697,
                    0.024455697426186855,
                    0.1826307420746029,
                    0.361130449741006,
                    -0.09996370013252459,
                    0.0427590485707169,
                    0.014530059487966996,
                    0.060259568435580425,
                    -0.40165321496991757,
                    0.0034086080994309,
                    -0.09281800782221672,
                    -0.12573587419974844,
                    -0.04370182449430377,
                    -0.18516060897682957,
                    -0.1870117359737262,
                    0.03582149324258619,
                    -0.6390363518412951,
                    -0.07046065970865052,
                    -0.08967828185676538,
                    0.04565345783012677,
                    -0.14055052610990307,
                    0.4222560625515556,
                    -0.20407680915207113,
                    0.10826860297344386
                ],
                [
                    -0.1476204028290721,
                    -0.06559626953066175,
                    -0.1716636613333279,
                    0.17568002291871324,
                    -0.18827996828352905,
                    0.06225841528518125,
                    0.04315165930653722,
                    0.14320154565736087,
                    -0.09096795600036092,
                    -0.005703990213580545,
                    0.3531326001186434,
                    0.19397087718175757,
                    0.02894165267524957,
                    0.43502743114790016,
                    0.5458437017245781,
                    -0.1089842392927128,
                    -0.18689554053270743,
                    -0.2374269636098928,
                    -0.11676774296031751,
                    0.03823957572760673,
                    0.26230558277972144,
                    -0.1989593126137299,
                    -0.3318133607631466,
                    -0.03667355048608894,
                    -0.020671739952342883,
                    -0.18583328998122314,
                    0.057335728563960645,
                    0.05250782678899751,
                    0.059909801684069515,
                    0.08458352771819613,
                    -0.08456438398174264,
                    -0.16293074403968089,
                    -0.21946057006349878,
                    0.1576827868985316,
                    0.254277139676216,
                    0.3463987872858652,
                    0.23996508761041777,
                    -0.04827480052195993,
                    0.005985375247728546,
                    0.6478947024531913,
                    -0.1380844446431296,
                    -0.24115814433673857,
                    0.04529375650406485,
                    -0.5462585938919612,
                    0.12947330194092022
                ],
                [
                    0.012725943587721123,
                    0.10684155933773276,
                    -0.14941871876622745,
                    -0.16221416290093066,
                    0.12501736662181032,
                    0.13300109376230873,
                    0.07533006118829759,
                    0.05038171946490729,
                    0.262541939783945,
                    0.19311999064236526,
                    -0.36455535986523413,
                    -0.25917061533533897,
                    0.3191945862107788,
                    -0.47136261301440485,
                    0.076079794069742,
                    0.38274118539118396,
                    0.5110537284310954,
                    -0.023884433885643465,
                    -0.25653605546677055,
                    -0.06758525543251805,
                    -0.2133047267980495,
                    -0.037212724033323916,
                    0.33102741141053493,
                    -0.23969250815381551,
                    -0.03996933289992993,
                    -0.3595688891446048,
                    0.31016809749263247,
                    0.0697446013955915,
                    0.03801430341228799,
                    0.04733257885474726,
                    0.09217144993372176,
                    0.3543234479405611,
                    -0.13455184077173984,
                    0.06405907193851575,
                    -0.13402349632765836,
                    -0.32150623434871356,
                    0.10805696106378235,
                    -0.0787181364093922,
                    0.03423128206048794,
                    -0.08060447340740169,
                    -0.27900625872733337,
                    -0.30077949095402784,
                    -0.31618764966833207,
                    0.25667188091886173,
                    -0.03771137891466314
                ],
                [
                    -0.296920889043978,
                    0.14702974242759043,
                    0.2717574538224054,
                    0.2413910868187622,
                    -0.001001045228405885,
                    0.13237960692704373,
                    -0.0825568501688929,
                    -0.12359864643829092,
                    -0.021739418181839967,
                    -0.23173615884252827,
                    -0.3512781219413299,
                    0.2223797244431304,
                    -0.24005850983342847,
                    -0.01156322499021907,
                    -0.293421246343716,
                    0.09616085234383454,
                    -0.370189280273491,
                    0.06109606319630992,
                    0.051369411649853,
                    0.3817265602718017,
                    0.4014993220223165,
                    -0.025330070781068335,
                    0.015274454570454312,
                    -0.12241751194363082,
                    -0.11397074494070483,
                    0.18911618229628865,
                    0.04517747205723814,
                    -0.1954794861710609,
                    0.34255042151387366,
                    0.1278698093515137,
                    -0.38972910396312366,
                    -0.260145770222542,
                    -0.07552200161136677,
                    -0.382788078023743,
                    -0.0725547375285199,
                    0.18215513437783437,
                    0.20777318268366693,
                    -0.3472791979560659,
                    0.19792563427193643,
                    -0.038018316042588846,
                    -0.09026477382843251,
                    -0.20002269899036496,
                    -0.14675430365837722,
                    -0.12854983403972162,
                    0.20866241197497098
                ],
                [
                    0.06374807811103245,
                    -0.01594213699837067,
                    0.3128919751171524,
                    0.1419440596353712,
                    0.12928516015578673,
                    0.07052433418023303,
                    -0.1601018198403768,
                    0.24436901928788402,
                    -0.18374917080299816,
                    -0.17013441079518066,
                    0.1341578470465844,
                    0.1068438745380736,
                    0.0613171317055247,
                    0.020090856944795708,
                    -0.040399010800131974,
                    0.1507969970450768,
                    -0.01685726700172799,
                    0.18841907182721168,
                    -0.21201392506708414,
                    -0.08203875566331197,
                    -0.2392552701316202,
                    -0.39091604816712233,
                    0.17429843265626271,
                    -0.05099272089017994,
                    -0.02838198135343401,
                    0.28964072985722433,
                    -0.13045472245954765,
                    -0.22933291706419642,
                    0.08515502319860292,
                    -0.021668311353488144,
                    -0.08752183275497231,
                    0.13410088995249367,
                    0.18549214257332552,
                    -0.14485847332824528,
                    -0.08676661971882624,
                    -0.3652986816944187,
                    -0.05794360770559081,
                    0.14956074699978608,
                    -0.11578666967590516,
                    0.07929425596169631,
                    -0.08533455394811047,
                    0.08338092670379231,
                    0.09175045838583598,
                    0.12045063459796142,
                    0.3440360865498953
                ],
                [
                    0.30256159456172976,
                    0.13788612683365062,
                    -0.21813324823906172,
                    -0.3537294465159971,
                    -0.060327203629319884,
                    -0.06234517024773224,
                    0.10792899061295533,
                    -0.10132617923373897,
                    -0.4167597653981568,
                    -0.056096425904184656,
                    0.4864265142151746,
                    -0.043470223395069715,
                    0.29054100076614997,
                    -0.13721651436954302,
                    0.08170663132704116,
                    0.3342813130688703,
                    -0.06711075933417457,
                    -0.21664273457143501,
                    -0.18984177850795916,
                    -0.10807730280786569,
                    -0.2232939111520902,
                    -0.15503104297022383,
                    0.3506954057648607,
                    -0.2587466077383065,
                    0.16379454988761294,
                    0.18228065907853166,
                    -0.005791276345705502,
                    0.07871263759739398,
                    -0.48377090419020724,
                    0.006079389574468472,
                    0.12064755721336055,
                    -0.3112234373176939,
                    0.1450344744242496,
                    -0.11589919626030201,
                    0.05566488009704106,
                    0.11698060612945145,
                    0.2000726451365872,
                    -0.10367213746810947,
                    -0.2531637648984744,
                    -0.2767822358819186,
                    0.171212171262423,
                    0.3485709120986025,
                    0.39930145320730714,
                    -0.23179719109574085,
                    -0.1304524663240892
                ],
                [
                    -0.1382643539872319,
                    -0.01673527179696506,
                    0.26971922070163773,
                    -0.19072841148895892,
                    -0.12219377115086985,
                    -0.08614930226852935,
                    0.0966673170578114,
                    0.13504307321414996,
                    0.07464285897641948,
                    -0.24384322726909588,
                    -0.14298851567538656,
                    -0.17762560345617331,
                    -0.22047921085583214,
                    -0.13358720940105437,
                    0.001271054130898894,
                    -0.04758069970857834,
                    -0.35175567114334655,
                    0.31875715911142516,
                    0.00964090282537406,
                    -0.2449506755344179,
                    0.0021881024293381422,
                    0.12679409489189422,
                    -0.3873099183671864,
                    0.14185550514858908,
                    0.1245628625074213,
                    -0.3318305694091615,
                    0.23337451352759897,
                    0.07050020170385109,
                    0.4256539001362826,
                    -0.17565327759294733,
                    -0.24969583153297353,
                    -0.23922360550084865,
                    0.2644218335836448,
                    0.30926991074448945,
                    0.12958201388676982,
                    -0.18652421864702431,
                    -0.19300776592068325,
                    0.14783650414563493,
                    0.2305678451430714,
                    0.04552610221452314,
                    -0.09829450034585005,
                    -0.1070089686959058,
                    0.6638465317716077,
                    0.07885965588179734,
                    -0.17153283972108618
                ],
                [
                    0.05344015255854874,
                    -0.23506143827397274,
                    -0.20074663991133088,
                    0.06266047683264878,
                    -0.18712081723126628,
                    -0.30965089817064156,
                    -0.06445361335895108,
                    0.3037431164255864,
                    0.10666556146192385,
                    -0.3647650357345253,
                    -0.12373850334223475,
                    -0.06964958613635587,
                    0.0438546387523774,
                    -0.049298843272237346,
                    -0.017361306402637004,
                    0.038356695442040345,
                    -0.15749054018548658,
                    0.017251498793573062,
                    0.36067521627897803,
                    0.18506647975147852,
                    -0.18921923978532051,
                    -0.09893009179257575,
                    0.014012317601483875,
                    0.13571683334764878,
                    0.103660683603929,
                    -0.5796087005229832,
                    0.31892325481858336,
                    -0.019318888219049028,
                    0.22143518062960404,
                    -0.016194571165647226,
                    0.052712904669287304,
                    -0.2838733478039589,
                    0.03928447077991433,
                    0.1643360247742062,
                    0.4342062847600693,
                    0.01109709756345943,
                    -0.3428882423552962,
                    -0.19939012737803258,
                    -0.16529592557582812,
                    -0.19594522861973843,
                    -0.15241697373243882,
                    0.012222911930027907,
                    0.11632219025107027,
                    0.16068728118878287,
                    -0.1442993141643246
                ],
                [
                    -0.23524827375080698,
                    0.08806741574136137,
                    0.1996594603580759,
                    -0.1407042689796559,
                    0.22654790600692035,
                    0.18851578028302574,
                    0.14938260739738393,
                    -0.34994140904482385,
                    -0.27923657447176037,
                    0.15517569154525837,
                    0.26334796204136873,
                    0.1966686474593706,
                    -0.012214928130282493,
                    0.3042560559784383,
                    0.14020002788044703,
                    0.4720202534808724,
                    -0.16832342502413433,
                    -0.2254057037726579,
                    0.36022542439053407,
                    -0.4340500434446571,
                    -0.05300336156674713,
                    -0.49761508591863013,
                    -0.3609910320687162,
                    0.1011655108046515,
                    -0.08427495125837786,
                    0.15809487000851874,
                    0.6436848286740013,
                    0.2909296102052074,
                    -0.04616454117187678,
                    -0.3160252141181288,
                    -0.1833646549668326,
                    0.03581969308718094,
                    -0.06423410233878642,
                    -0.11117214530755985,
                    0.10954425552274517,
                    -0.31795940019938534,
                    0.07440477107786767,
                    0.003940573375288138,
                    0.01830231605951202,
                    0.24159898248509634,
                    -0.009021559012989504,
                    -0.2417357793550506,
                    -0.2852117364747944,
                    0.17945869730419806,
                    -0.18196945320529076
                ],
                [
                    -0.16423642140611464,
                    -0.15518371210560264,
                    -0.18901067996198612,
                    -0.21310011707840973,
                    0.3678237120136957,
                    0.027654401110525213,
                    -0.2817055025582284,
                    0.23650239020837593,
                    0.09815201206859923,
                    -0.3050727303061424,
                    -0.3232331961275118,
                    -0.2876252308096451,
                    -0.04266840750466412,
                    -0.03327756361504924,
                    0.2750265265024471,
                    -0.4556960888647798,
                    0.11904564183911882,
                    -0.044214121217222485,
                    0.08462356847532011,
                    -0.15945697433387723,
                    0.060864954517962755,
                    -0.11870906454277454,
                    -0.15251321391581496,
                    0.5160576314851102,
                    0.03221644881505693,
                    -0.36920463589376995,
                    -0.14107650043347505,
                    0.10969127690114143,
                    0.21308833625161877,
                    0.024433470461071742,
                    -0.012567762811752698,
                    0.02144991271630086,
                    -0.17289878806315903,
                    -0.12884530421672796,
                    -0.19355322515202494,
                    0.045230732437031664,
                    0.460775359746675,
                    -0.2048098978677104,
                    0.0762142773907772,
                    0.0034918176960093755,
                    0.1972547031844397,
                    0.16433430722410242,
                    -0.0048066295248150506,
                    0.13421503064353232,
                    0.11286371866608721
                ],
                [
                    0.1882592155990565,
                    -0.0015443723499683562,
                    -0.24497522269085342,
                    0.5521419097176508,
                    0.08634453991402673,
                    0.21664002479946592,
                    0.2280693317260974,
                    -0.08958467368453175,
                    0.013436907182836565,
                    -0.462135550092778,
                    0.14515368747069374,
                    -0.031213680592185513,
                    0.09076127103135992,
                    -0.16994514367462007,
                    0.30814270897929985,
                    0.15663569944072053,
                    0.21753573429226503,
                    0.0932716958909991,
                    0.011251824692466918,
                    0.1569199893218069,
                    -0.3235228897909642,
                    -0.061567960792174595,
                    -0.07140443464816816,
                    0.09535195336101561,
                    -0.3106010711720592,
                    0.1705201558528753,
                    -0.01880053341622158,
                    0.2506459909797598,
                    0.26823963064257944,
                    0.10631965974936114,
                    0.012389434648645807,
                    0.32641218212924983,
                    -0.07443488703277168,
                    -0.0378494332003155,
                    -0.16772301243569407,
                    -0.2726108768454766,
                    0.5435222699325194,
                    0.027102445178374113,
                    0.4155639004570233,
                    -0.28417103741500876,
                    -0.3283131109740492,
                    -0.24851178486799266,
                    -0.25553978056319365,
                    0.00488076560284016,
                    0.2873338873969198
                ],
                [
                    0.39634420735206366,
                    -0.11572156189520155,
                    0.07870976110052792,
                    -0.1397974675860234,
                    -0.22007334794082373,
                    0.29798220526145924,
                    0.15427417247032485,
                    0.04974527444299007,
                    -0.19396365753757794,
                    -0.05123062080732352,
                    -0.07173174786546702,
                    0.08647307640656944,
                    -0.2553535005601236,
                    -0.36011638356516273,
                    -0.4277090016640648,
                    0.08156652817059931,
                    -0.045740917035159194,
                    -0.050989389081082324,
                    0.30648225541934865,
                    -0.08472081818345949,
                    -0.003401279317429738,
                    0.01638197484416819,
                    0.059991482343632746,
                    -0.10811999096719938,
                    -0.2778981280353662,
                    0.31435829850930447,
                    0.05602732456086091,
                    -0.07590824785830293,
                    -0.3222928129614991,
                    0.3626118523213222,
                    0.12900504931827608,
                    -0.5161695644235396,
                    0.04532455136072793,
                    0.11498184083922858,
                    -0.10505164563350791,
                    0.14377690868371,
                    -0.19465035913362067,
                    0.04978337208229312,
                    -0.19578345626288615,
                    0.6882942037022038,
                    -0.1765519322474277,
                    0.27858546957001545,
                    0.13854113736025578,
                    0.228586651470176,
                    0.26028015190540754
                ],
                [
                    -0.04577238018647926,
                    0.18091757761514168,
                    0.0720870094644216,
                    -0.15753761109544953,
                    -0.233051409586836,
                    0.2359509935234347,
                    0.0019240713599625832,
                    -0.348318885978283,
                    -0.312143231278622,
                    -0.15663380515115186,
                    -0.03418944217439143,
                    0.39726850761153465,
                    -0.04967510033810048,
                    -0.31791800685762245,
                    -0.2789614269518219,
                    0.1513478198796527,
                    0.37206317530288924,
                    -0.11521749593637018,
                    0.021877046953937006,
                    -0.09501722657503187,
                    -0.5181298574354747,
                    -0.06971813158827422,
                    -0.11644069552580452,
                    -0.028825312109679636,
                    -0.2484318567488428,
                    -0.12317920772586524,
                    -0.15523436136383997,
                    -0.12642244779998005,
                    -0.2377572821636551,
                    0.1503634449980604,
                    -0.20385003590780634,
                    0.19622948681035712,
                    -0.13175626431907733,
                    0.18909446352471843,
                    -0.2599624958455893,
                    0.21951352323618775,
                    -0.08917333634795081,
                    -0.14660546187260318,
                    -0.1855415290645111,
                    0.17919018796468986,
                    0.36182480533404654,
                    -0.23222095294489312,
                    0.0362718277224223,
                    0.05358718499723969,
                    0.00623229883123014
                ],
                [
                    0.09752501082456085,
                    -0.33463524100468167,
                    -0.5003243216284411,
                    -0.05553723454764491,
                    -0.08176306448728336,
                    -0.028739018618677826,
                    -0.285680089606816,
                    -0.12207805834520913,
                    0.38029811863205754,
                    -0.3030730390401203,
                    -0.14599707681991414,
                    -0.0005962994016147946,
                    0.24986637203863615,
                    0.07309186616681468,
                    0.025430042609968808,
                    -0.07374047780034049,
                    0.03983028312278707,
                    -0.052394257548471615,
                    0.44514934781963394,
                    0.020343384864730495,
                    -0.11406015679007499,
                    0.07801750572676386,
                    0.06683699825692087,
                    0.1821362070558863,
                    0.02471992483740806,
                    0.3816823491332499,
                    0.1828366912943641,
                    0.13045605853222123,
                    -0.29231169530159046,
                    0.15967025027866202,
                    0.30174802721524463,
                    0.10925703891089607,
                    -0.08528807289314873,
                    -0.13878302512686974,
                    0.22913482217416548,
                    0.10649737513312947,
                    0.0030405733886608773,
                    -0.02381669669624496,
                    -0.3661185411137747,
                    -0.04914778805873156,
                    0.258952521290093,
                    0.08806460802135226,
                    -0.08914537569984882,
                    0.08290838901895009,
                    -0.3744017300388855
                ],
                [
                    0.3587053297438968,
                    0.1547139194282622,
                    -0.11820635444326577,
                    0.037917642306366725,
                    -0.11684486321840813,
                    0.1288058728215646,
                    -0.17836696515181721,
                    0.131643232626744,
                    0.3710109245982616,
                    0.031896146107587744,
                    0.22590185799667153,
                    -0.12466594487096574,
                    -0.0011731138135857098,
                    -0.12870754561626224,
                    0.14342458753672158,
                    -0.10543124578107564,
                    -0.19654257963527644,
                    -0.12482306138727607,
                    -0.04042729178411488,
                    0.3839338807440029,
                    -0.0081498146347122,
                    -0.15072209760516117,
                    0.11865169005103257,
                    0.12408155842572806,
                    -0.33934665365537403,
                    -0.08521479464478718,
                    0.07545541332207026,
                    -0.0471024404080229,
                    -0.22604555469526494,
                    -0.00878946752168296,
                    -0.4356392506320908,
                    0.10352985649317491,
                    0.19952148524648125,
                    -0.2044191553909098,
                    0.052478971348812437,
                    -0.31497467841365007,
                    -0.5371183741759467,
                    -0.2882577826983178,
                    -0.11914241115879139,
                    0.08712378802947941,
                    -0.06575722017167457,
                    -0.33568421895130174,
                    -0.32272560875220613,
                    0.04098287775085256,
                    0.22624730293806544
                ],
                [
                    -0.17117430541683834,
                    0.0880985022882491,
                    0.10695052548333416,
                    0.07521775003807239,
                    0.162946089819596,
                    0.13212677133524323,
                    0.1251693882736654,
                    0.22163984465351952,
                    -0.042683258518496726,
                    0.2788997093441596,
                    0.30163399866529683,
                    0.34705841594411035,
                    0.02649037447164561,
                    -0.18592632529510025,
                    0.10396108543139432,
                    -0.2202166374589908,
                    -0.07286571449378307,
                    -0.18297457321074698,
                    -0.18986343220867627,
                    -0.1244184895583355,
                    -0.2416724627703401,
                    -0.15789832670248669,
                    0.012109931138018799,
                    -0.2898813796822136,
                    -0.12357087661858668,
                    -0.20955740115169003,
                    0.04083673124837794,
                    0.023595016707757082,
                    0.07585452063648246,
                    -0.0748843818482608,
                    -0.425182193288002,
                    -0.08287015003371927,
                    -0.1174458048695182,
                    0.11689389338846244,
                    0.45901757845705726,
                    -0.07559504875091877,
                    -0.23365157619021126,
                    -0.1603578280570694,
                    -0.41493976199163873,
                    -0.24635993019509714,
                    -0.08317033241317709,
                    -0.18539690110529738,
                    0.13802977225527566,
                    -0.1073858865782283,
                    0.21109459988610968
                ],
                [
                    0.24122028712296423,
                    0.27098318757656886,
                    -0.2533418887580298,
                    -0.3533584286987426,
                    -0.12276579841413651,
                    0.11692130532435717,
                    0.04813095123899374,
                    -0.011311967525268059,
                    0.046887798928334355,
                    0.14827121029438234,
                    -0.10115030629860707,
                    0.15255481895451473,
                    -0.09339566692520243,
                    -0.16911921590012927,
                    0.13387724143995924,
                    0.1749675577200567,
                    -0.09877062571450583,
                    0.05596737973294237,
                    0.010996603461669419,
                    -0.07864260794264237,
                    -0.15687031741327273,
                    -0.008629946358329008,
                    0.011938683935648453,
                    0.10089108277897363,
                    -0.18835348607918945,
                    0.07064991428543907,
                    0.08125793851142432,
                    -0.010527777135397409,
                    -0.15609172750134914,
                    -0.10189168055758678,
                    0.031911690191660826,
                    0.19716311273874285,
                    0.2581552584076968,
                    -0.04847887223047454,
                    -0.3112570968854155,
                    0.07821025722248737,
                    0.427725094330586,
                    -0.018682642835372517,
                    -0.35710063241108764,
                    -0.4380844847070329,
                    -0.2898110329048819,
                    0.25643293685762253,
                    -0.07837627593359107,
                    0.09296626348282308,
                    -0.13339644274908805
                ],
                [
                    -0.09068373510606127,
                    -0.026076425228771873,
                    0.2715984457539736,
                    0.16384440196486322,
                    -0.27861467834231946,
                    0.2873655845094025,
                    -0.20709947334764936,
                    -0.11566188815319499,
                    -0.15965536706036468,
                    -0.03726875963527391,
                    0.14462677550397188,
                    -0.11039167320096775,
                    0.3728761870866885,
                    0.022559187124632833,
                    -0.10296886910588793,
                    -0.2137005354679907,
                    0.009836429950210246,
                    0.15979769998186832,
                    -0.23875850031091686,
                    -0.19712666980867063,
                    -0.19651163121734105,
                    -0.04014608820501633,
                    0.14928368797031813,
                    -0.12874133131205992,
                    -0.22576931264079517,
                    -0.004922144794568637,
                    -0.09114686931898158,
                    -0.02753921405182998,
                    -0.04229586281198597,
                    0.2139985608569056,
                    0.12769621333533782,
                    -0.12198408654412203,
                    -0.3508863228132038,
                    0.5970521223183806,
                    0.17815654679361626,
                    0.007965870529236878,
                    -0.388845656459771,
                    -0.38410230065729095,
                    0.04089761670371265,
                    -0.11313180914722819,
                    -0.1634528095788234,
                    0.044004522771288176,
                    0.043554898354031375,
                    0.047014183772733496,
                    0.3156011178924559
                ],
                [
                    0.17937114013333127,
                    -0.217867926289504,
                    0.08981036028132705,
                    -0.09492012253038257,
                    0.08208675204828139,
                    -0.37019568900042554,
                    0.27173999687429407,
                    -0.41905230562839524,
                    0.49506079444357953,
                    0.12626999832766264,
                    -0.035204174174235124,
                    0.06975845874937185,
                    0.15566168202136457,
                    0.19550230458890178,
                    -0.48425171734190203,
                    0.007829516757823863,
                    0.2630739376004,
                    0.18766731588413652,
                    -0.5060578995249471,
                    0.11735773938161805,
                    0.09965241119934443,
                    -0.11092530006639359,
                    0.5554199469828784,
                    -0.0885629986687983,
                    0.1577449991586938,
                    0.3770763038384573,
                    -0.032539649736900364,
                    0.3864481347530424,
                    0.04233145633309636,
                    0.06789532358220601,
                    0.18040441558244047,
                    -0.19939036997479298,
                    -0.15699382423867733,
                    0.19445201041638205,
                    0.04965417205235403,
                    0.21884308606049696,
                    0.06292401308263554,
                    -0.16707341241408122,
                    0.19681294962778312,
                    -0.0022645431874645833,
                    -0.0667725003824078,
                    -0.079557655098611,
                    0.06473984828119445,
                    0.08502620749749418,
                    -0.46239453698048566
                ],
                [
                    0.21775543375760498,
                    -0.27558360060817405,
                    0.3363692104331595,
                    0.12621070044146587,
                    0.46113044956057037,
                    -0.0129167011177361,
                    -0.15746222624617848,
                    0.518143215682441,
                    -0.06985432225490133,
                    0.07931792578693142,
                    0.3454830876790197,
                    -0.0805596513996256,
                    0.2636635586418378,
                    -0.21068522648849622,
                    0.1601983525342321,
                    0.04928438435065043,
                    -0.22448195274042346,
                    0.1791799998809769,
                    -0.3814519925054837,
                    0.13822018184439006,
                    0.19059629960983662,
                    0.41650000897299844,
                    0.5093070245584332,
                    -0.40516097405339363,
                    0.032438607652251226,
                    0.15051384767077056,
                    0.08809462202374839,
                    -0.20996418203364547,
                    -0.22372557797563683,
                    0.17989795573322526,
                    -0.08130730124591497,
                    -0.03218320935006804,
                    0.18735233559718867,
                    -0.2932304765673576,
                    -0.21601734698762917,
                    0.3594843661412077,
                    0.08276845711423568,
                    -0.2030081727416865,
                    0.047612347919352774,
                    0.09946841044524468,
                    -0.28613960142065137,
                    -0.1326448896108999,
                    0.5864873159849838,
                    0.2867565160532327,
                    -0.05514334345271756
                ],
                [
                    0.22885254400263877,
                    0.1491813984162704,
                    0.04498014774343777,
                    0.038889363191733736,
                    0.26841825889447946,
                    -0.04171634696876895,
                    -0.18964644139830558,
                    0.16021276218839134,
                    -0.15550152675788248,
                    -0.19902723457138388,
                    -0.23708593446411125,
                    0.17844898626092445,
                    -0.039249465335194945,
                    -0.19104024113815674,
                    -0.3929181469018587,
                    -0.37030633368240407,
                    -0.18071769939131732,
                    0.011249090039444645,
                    -0.17041774051277156,
                    0.08319884049812151,
                    0.11605220922504791,
                    -0.00746330346511326,
                    -0.06398918554925102,
                    0.03974258689271347,
                    0.470734747599548,
                    -0.07792613342756692,
                    0.21519438427544985,
                    -0.38667932149874834,
                    0.23061306461071784,
                    -0.041163452286464945,
                    -0.2711997393159136,
                    -0.1612544419932173,
                    -0.12552084157495852,
                    0.33518737785297625,
                    0.10487132323193413,
                    -0.09696723169441236,
                    0.27183044988869565,
                    -0.08127375605981499,
                    0.364825690973207,
                    -0.14190275432525104,
                    0.07079970167480464,
                    -0.011801635805266011,
                    -0.056252909170709096,
                    0.38803720188616836,
                    -0.35036028280994075
                ],
                [
                    -0.4554341043803815,
                    0.40184511786620514,
                    0.34218919310191204,
                    -0.40690363169948784,
                    0.05211183867144825,
                    0.019275544480563817,
                    0.17623336310854298,
                    0.10431502376771054,
                    0.1019046238304515,
                    -0.07806013338522556,
                    0.12027529414205608,
                    -0.12095908509728417,
                    0.37549329877554527,
                    0.2007446970821255,
                    0.391461026395693,
                    -0.23708077824117074,
                    0.05156245761932167,
                    0.11620682955356482,
                    0.19322297110155953,
                    0.0634613683977678,
                    -0.5336332159624326,
                    -0.17950974744828269,
                    0.1887949811451391,
                    -0.09296640948056317,
                    0.4217854074341108,
                    -0.1951447758426969,
                    0.021671874831287012,
                    -0.4839391804917841,
                    0.04303362697958877,
                    0.3186987272780867,
                    0.22219939648220305,
                    0.03797882235218283,
                    -0.14586550264931525,
                    -0.1421411746199018,
                    0.7408764500738825,
                    -0.09428329118613546,
                    0.16584620337127498,
                    0.21896679407699038,
                    0.12479959087960106,
                    -0.5151337922854251,
                    0.1955404391873535,
                    0.3939449778921384,
                    0.02558724820821907,
                    -0.17327985216688985,
                    9.276997671479293e-05
                ],
                [
                    -0.36593657626561943,
                    0.3804233696499387,
                    0.06762552100503243,
                    -0.22280178532255618,
                    0.0965795074165291,
                    0.3181737987748265,
                    -0.23760739056865612,
                    -0.15615555962938377,
                    -0.28959583106206527,
                    0.1405657496420206,
                    0.16781508292468664,
                    0.3175146993759699,
                    -0.0025007339022829634,
                    0.2147970953897926,
                    0.26308730271197756,
                    -0.2821962271129939,
                    -0.06541601638703824,
                    -0.3675315810061129,
                    0.15143784718424805,
                    -0.48623984342069626,
                    0.04684450306701195,
                    0.0016042846412849601,
                    0.027835930788609128,
                    0.023394102092855574,
                    -0.6449358534077434,
                    -0.24539197572838864,
                    0.25684262179199013,
                    0.051190279618999655,
                    -0.21046532047387273,
                    -0.001308456336625373,
                    0.052493575705128,
                    0.2584308398529796,
                    0.040749516693310825,
                    -0.15536265412604894,
                    -0.01889846348536762,
                    0.24112807308318088,
                    0.0992924745081764,
                    0.1849744135559767,
                    -0.20170086145923521,
                    -0.025584421871392305,
                    0.009543271490888528,
                    -0.07121451429957233,
                    -0.06792415377957116,
                    0.03114265261091928,
                    0.23849854807627388
                ],
                [
                    -0.0781464975171196,
                    0.09346606681646175,
                    0.2989890048411356,
                    -0.06145636624661993,
                    -0.40520971118585636,
                    0.3111977242111447,
                    0.2998856775319039,
                    -0.0844199260504322,
                    -0.0929525144582164,
                    0.08542230400463481,
                    0.19466776046117626,
                    0.19881887293101294,
                    0.11641310159397981,
                    0.39405081570437356,
                    0.061251027946009486,
                    0.2896890707363616,
                    -0.27331479371143597,
                    -0.11329366201553956,
                    0.07288345535509465,
                    0.17402469187321296,
                    0.21143038807113215,
                    -0.2797021165256083,
                    -0.13078138776788956,
                    0.07788392523907306,
                    0.16033461173392033,
                    -0.05989093860651683,
                    0.5896234819616262,
                    0.46152883035678965,
                    -0.012848323390802522,
                    0.2698512839672103,
                    0.017098455835315895,
                    0.1702341034748804,
                    -0.17902856402801867,
                    0.2860442801261926,
                    0.07277193018246746,
                    -0.15544346307908205,
                    0.146546387977958,
                    0.011670781895451492,
                    -0.06061467061929653,
                    0.2396423468392707,
                    0.12230546290074742,
                    0.18027221864784385,
                    0.28839284869573967,
                    0.32341035295813286,
                    -0.2700000149519028
                ],
                [
                    -0.008121449584179178,
                    0.2940750870213709,
                    0.050490502042865856,
                    0.24229343492454766,
                    -0.021924582251450813,
                    0.02250660880287448,
                    -0.08292919775518975,
                    0.16029644707833096,
                    -0.2397351374704274,
                    -0.01431570632814608,
                    0.11961717961653329,
                    -0.23734455880897773,
                    -0.3996470861909015,
                    0.1092457077603044,
                    -0.008864937062148989,
                    -0.057750297120435466,
                    0.14098640826456585,
                    -0.35937962501985976,
                    0.5366497411367742,
                    0.07346026890615963,
                    -0.04706902134828929,
                    -0.0569116162815631,
                    -0.23966152389115136,
                    -0.22824884289946823,
                    -0.05797424657120702,
                    0.046216997588767766,
                    0.3010384367345183,
                    0.4180440124009413,
                    0.39821589218768444,
                    0.16031587877064368,
                    -0.049891063787549046,
                    -0.07169649749769788,
                    -0.06718141479207294,
                    0.17324979894706402,
                    -0.4150971787094918,
                    -0.19777783881429598,
                    0.03869484481831226,
                    -0.25669835311646105,
                    -0.32191294568994333,
                    0.0807956623181573,
                    0.033711124764378285,
                    -0.03527709692878472,
                    0.32589107155842184,
                    -0.10994638668253463,
                    -0.01047641584600878
                ],
                [
                    0.39344468073458144,
                    0.1047710347202334,
                    -0.1029762288992668,
                    -0.011712109765898553,
                    -0.17472569838106772,
                    -0.2897109168142728,
                    -0.3270066572042043,
                    -0.5680552352081836,
                    -0.28266041331512387,
                    -0.2814733535418539,
                    -0.06381889870501072,
                    -0.04035656226079093,
                    -0.22727163585621568,
                    -0.13992877910073676,
                    0.17471693221735896,
                    0.009554079716944136,
                    -0.3848803819970425,
                    0.4259630595824978,
                    -0.24021381468495515,
                    -0.0014012885113871103,
                    -0.1814112895777496,
                    0.15442000117660662,
                    0.07397085068648108,
                    -0.28035958775081166,
                    0.09893454814585317,
                    0.17632503933126967,
                    -0.1169786667813191,
                    -0.3774236914199012,
                    -0.0050352927461106665,
                    -0.11094399604513212,
                    -0.04044563656871965,
                    0.14514942210759652,
                    -0.08845101712313404,
                    -0.16510488238883408,
                    -0.02750039485953343,
                    -0.16375917008455468,
                    -0.24150674123086058,
                    -0.031727000354936995,
                    0.14736501662495238,
                    0.06810818645931781,
                    0.20259921237808717,
                    0.4268428142063868,
                    -0.5498485091372034,
                    0.09246651986240363,
                    0.13801894655141952
                ],
                [
                    0.008408241949765046,
                    0.014737083777492395,
                    -0.28190007382064236,
                    -0.1393170500451484,
                    0.4172544866903413,
                    -0.3976188214070378,
                    0.12483471937985137,
                    -0.10930393157753475,
                    -0.34354959915926836,
                    0.24267837795903247,
                    0.23073393581715423,
                    -0.006660143856424798,
                    0.12490658550433922,
                    0.19155643217871998,
                    0.04191045868992564,
                    0.18588074709682437,
                    0.14683902423117554,
                    -0.0644826824781542,
                    -0.12478652565745868,
                    -0.026797305803445914,
                    0.1598897694615692,
                    -0.09198669985893354,
                    -0.2893121667725816,
                    -0.25071769980742464,
                    0.05352903929456181,
                    0.324029395842826,
                    -0.20785167886064376,
                    0.07655092858279483,
                    0.13776581713330963,
                    -0.08187100350246979,
                    -0.17499284067820361,
                    -0.034715645188899504,
                    -0.4040475736727884,
                    -0.12274367655951768,
                    -0.16614031783153113,
                    0.08528986537344961,
                    -0.05033049973672223,
                    -0.29142283555890164,
                    -0.017992578012153152,
                    0.24869337424035592,
                    0.12701846695665964,
                    0.04560749603786381,
                    -0.1324793845528184,
                    -0.16207350974192125,
                    -0.05368522667100081
                ],
                [
                    0.049010232667468075,
                    -0.15847325303625936,
                    -0.19614966788889013,
                    0.09205319143987932,
                    -0.30504171811373704,
                    -0.22373229434875147,
                    0.4702140360655157,
                    -0.1793289035501386,
                    0.24001138994797963,
                    -0.026511207292227897,
                    -0.1359029310666303,
                    -0.11171425476998927,
                    0.0565185816086326,
                    -0.2756930844745608,
                    -0.11164502534214708,
                    -0.2200715528354867,
                    0.009684351076309983,
                    0.23729321624091962,
                    0.112411663756129,
                    0.1843325507345755,
                    0.033483359930582345,
                    -0.12315015193303547,
                    0.4006117607305515,
                    -0.19679163403088373,
                    0.09884191496757372,
                    0.061384231269426916,
                    -0.3065508857300136,
                    0.1724916991938532,
                    -0.11621484761229071,
                    -0.052067334818756604,
                    0.1455484118509255,
                    0.16381230473804373,
                    0.06483443230918623,
                    0.3271824983536477,
                    0.03682800934555701,
                    0.041810279794089494,
                    0.23357199524892563,
                    0.09872619912683243,
                    -0.06399168115640351,
                    -0.01193280400076107,
                    0.037622479332442345,
                    0.19061681260101865,
                    0.21637857282319728,
                    0.046306753594320016,
                    0.33434013999643825
                ],
                [
                    -0.060802509860899606,
                    -0.21683934420097534,
                    0.19068817344891664,
                    -0.20581879754039764,
                    -0.062032242556337124,
                    0.11986310802919782,
                    0.19043470449146546,
                    -0.4104456673453633,
                    0.3668319634521485,
                    0.21505898061399945,
                    0.07649748844923851,
                    0.3554481342589426,
                    0.2595326752461626,
                    -0.17355224991465282,
                    0.04534112668344799,
                    -0.046972904922101245,
                    -0.05055673421813213,
                    0.36846074884858393,
                    0.13516363629937475,
                    0.22672784094220452,
                    0.519248269988922,
                    -0.12912525047888934,
                    -0.01433591032944111,
                    0.16399040127179798,
                    0.29932022886823995,
                    -0.16223570482490543,
                    -0.10792131684480888,
                    -0.12510804377541962,
                    -0.20079527065954467,
                    -0.1440895258212846,
                    0.1353508988957583,
                    -0.18512142030028797,
                    -0.1415794424104561,
                    -0.03366129859719223,
                    0.03626045503912059,
                    0.09500719960673794,
                    0.13320207140553023,
                    -0.21759635930418703,
                    0.14454043606503386,
                    -0.05160354127941937,
                    -0.16561654262639783,
                    0.024101610377475345,
                    0.11397578577664141,
                    0.08242715507093128,
                    -0.27936899833881546
                ],
                [
                    -0.073899310270221,
                    -0.35193500164328007,
                    -0.082958926290258,
                    -0.21799865840065566,
                    -0.10197505426489244,
                    0.23379542450632002,
                    0.18473097491260707,
                    -0.05069243778475629,
                    -0.08493582905323187,
                    0.07436688315118409,
                    0.02216345411027431,
                    -0.3225031084173903,
                    -0.09268675746752718,
                    0.31672064025644164,
                    -0.08131730365321062,
                    -0.095542130371315,
                    -0.30742196054366305,
                    -0.27431981405542527,
                    0.05589277195571656,
                    -0.14073816823524893,
                    -0.05241864495167489,
                    0.029209389850714137,
                    -0.009747555056296287,
                    0.04618643182190465,
                    -0.011813989502665191,
