{
    "learning_rate": 0.01,
    "l2_lambda": 0.0,
    "dropout_rates": [],
    "loss": "categorical_crossentropy",
    "layers": [
        {
            "input_size": 12,
            "output_size": 24,
            "activation": "relu",
            "dropout_rate": 0.0,
            "weights": [
                [
                    0.34380370756719675,
                    -0.22669955988474644,
                    -0.5494622625740581,
                    -0.29523295772572694,
                    -0.9324669166702769,
                    0.18077452243988543,
                    -0.49124215048980713,
                    -0.05661432442075403,
                    0.6520642493706387,
                    -0.63731977091715,
                    0.4114920149182023,
                    0.2140126492006542
                ],
                [
                    -0.11090186925923944,
                    0.03989177099278698,
                    0.045274673137789025,
                    0.3722688874489442,
                    0.3283285562656792,
                    0.5905344133220156,
                    0.445538678003844,
                    0.06220324344340065,
                    0.16956150251111168,
                    0.15081139859947656,
                    0.07004464325160153,
                    0.21067806377421924
                ],
                [
                    -0.7834228870233243,
                    -0.1441640470524081,
                    0.24015254919866,
                    -0.009852394273718366,
                    -0.2919784939402072,
                    0.05457287743635772,
                    -0.16091555887237458,
                    0.20499089238077034,
                    -0.4993138455223795,
                    0.05024129054212617,
                    -0.4333864127492405,
                    -0.04579225009536138
                ],
                [
                    -0.33503377606840845,
                    -0.1950959609711716,
                    0.09709595581332306,
                    -0.25001015597784654,
                    -0.336296663895967,
                    -0.3889543894152107,
                    0.4704416712546058,
                    0.09730069155181156,
                    0.1316401315082752,
                    -0.012112404750507202,
                    0.5482313668467319,
                    -0.35205380293632055
                ],
                [
                    0.3301915711598492,
                    0.044901639234683995,
                    0.4276666314531147,
                    0.34700914299593577,
                    -0.530295375575573,
                    0.20810745366456493,
                    -0.4053689153203585,
                    0.6783029531684853,
                    0.4401585382032995,
                    0.02948856295595949,
                    0.37954879000231934,
                    -0.3816825078526991
                ],
                [
                    0.05294055570508354,
                    -0.11469638973025373,
                    -0.44741277349003755,
                    0.18865290679847588,
                    0.14498229425625958,
                    -0.8400994983767628,
                    -0.4606420692012832,
                    -0.01280876856642798,
                    -0.13366778249571484,
                    -0.06705024228729997,
                    0.3624655286449169,
                    0.09431018002303815
                ],
                [
                    0.5000528936797454,
                    0.48989350344380445,
                    0.054250271229620596,
                    0.1924614671786642,
                    -0.18006921979212903,
                    -0.22795253036346416,
                    -0.140715794633797,
                    0.5267593344602602,
                    -0.4969516651416876,
                    -0.5365623654118374,
                    -0.10372624485762758,
                    -0.1563240895326766
                ],
                [
                    0.10789263782633086,
                    -0.030500773114504384,
                    0.36124135579171,
                    0.03313346099256968,
                    0.3507196933795339,
                    -0.32530655771869454,
                    -0.12741587682168853,
                    -0.9187288351172836,
                    0.5712415131429853,
                    -0.48979388182177597,
                    0.004030776180433038,
                    -0.3789834973868909
                ],
                [
                    0.2761807967556857,
                    -0.18851011196848158,
                    0.24499129134141676,
                    -0.1453966843035882,
                    0.8387489425369085,
                    0.7723429636658633,
                    -0.12458197365107597,
                    0.3551779745080737,
                    0.3722100199815964,
                    0.26481632267433997,
                    -0.15602364144590267,
                    -0.8705888362210179
                ],
                [
                    0.20900763205426479,
                    0.3119512371270318,
                    -0.2452353469509091,
                    -0.31384540082698537,
                    0.5010831757819668,
                    -0.4151678165154253,
                    -0.2708914315515617,
                    0.2608382611682231,
                    0.3106318659888641,
                    -0.4875078189273771,
                    -0.4977613322637263,
                    -0.6746996776040115
                ],
                [
                    0.09211639669425586,
                    0.45585465490030785,
                    0.3938920978896245,
                    0.29671116561204175,
                    -0.5932291603996405,
                    -0.028891006935963522,
                    0.6684368552152505,
                    0.5764900517116024,
                    -0.10678350178423422,
                    -0.03778929211684458,
                    0.7375425776004363,
                    0.21773171316206588
                ],
                [
                    -0.0018526935356472003,
                    0.6754778717506249,
                    0.4927945299892112,
                    0.1027886890963634,
                    -0.17025999778928777,
                    -0.4390244095602764,
                    -0.11054093757425841,
                    0.32176285856942916,
                    -0.0876560464287966,
                    -0.04211521236909072,
                    0.7035116305698176,
                    0.25097203223647685
                ],
                [
                    -0.601441512077237,
                    -0.7651221196799929,
                    -0.007322803015670812,
                    -0.6707655886691691,
                    0.16872197029228786,
                    -0.8379407320519567,
                    0.4091585421452586,
                    -0.007090973579264655,
                    0.5281304456656389,
                    0.3569702244435888,
                    0.049020809353895314,
                    0.10907020773841883
                ],
                [
                    -0.42730798803956577,
                    -0.5547698872773478,
                    0.5100519652595088,
                    0.6265452401948642,
                    -0.2836828057639661,
                    -0.1567810741130718,
                    -0.4292329667740992,
                    -0.23336306863832654,
                    -0.14911103481762267,
                    0.06495708123638523,
                    -0.060779895643120536,
                    -0.2703561286744412
                ],
                [
                    0.3953664342274497,
                    -0.6397250193588806,
                    -0.15993606922642886,
                    0.23351996443477605,
                    -0.38167107363800373,
                    -0.37356748438883086,
                    -0.3911006708001044,
                    0.43289039393672657,
                    -0.033473871500770566,
                    -0.7373923315569798,
                    0.6302805692391793,
                    -0.1804497170617246
                ],
                [
                    0.20834576561556947,
                    -0.18517277373524363,
                    -0.24533475543721833,
                    -0.35031614879675527,
                    -0.3856118718438337,
                    -0.14059547294996186,
                    0.7495528583141469,
                    -0.13730615498805476,
                    -0.3025962188227334,
                    0.7609658969488932,
                    0.05494304555763652,
                    -0.21104507977247558
                ],
                [
                    0.04191571397014563,
                    -0.4060414276689332,
                    -0.07497753819220071,
                    0.17318643240289397,
                    0.009612529563987084,
                    -0.0017644669954568915,
                    -0.1016509281661643,
                    0.6225157463748459,
                    -0.7036172645727654,
                    -0.4998491784667807,
                    -0.5123667516346533,
                    -0.07926294501112684
                ],
                [
                    -0.2874002871419113,
                    -0.16896880516381546,
                    -0.16889123395238367,
                    -0.06089481011759817,
                    -0.022641402059067686,
                    -0.06644752944337323,
                    -0.2818389500108068,
                    0.41934222773708685,
                    -0.25107629913983187,
                    -0.5101277517369442,
                    0.22332713717427846,
                    -0.29353590488492065
                ],
                [
                    -0.12510817140266428,
                    0.5904498982136611,
                    0.3119672116845243,
                    0.46204873710640065,
                    -0.2530043244016793,
                    -0.18258257099188138,
                    0.05188565688112065,
                    0.4525750120010332,
                    -0.4282229990920975,
                    0.4788034161233876,
                    0.3264888253044474,
                    0.1315823253740608
                ],
                [
                    -0.20927366819194781,
                    0.23920744795848123,
                    0.19717357160317026,
                    -0.3455640968505317,
                    -0.41300828752767565,
                    -0.09652064978945356,
                    -0.12116167223448758,
                    0.2802984176332098,
                    0.8506495988867889,
                    -0.37992614503597383,
                    -0.3053478211217185,
                    -0.2954550942083709
                ],
                [
                    -0.014552830867675458,
                    -0.258194746285818,
                    -0.216039117256748,
                    0.5154124176673313,
                    0.2331396501572501,
                    -0.29510841794953885,
                    -0.21253904615335564,
                    0.3517686960404066,
                    0.34467748558135525,
                    -0.042122000412055174,
                    -0.4882177156582342,
                    -0.17654135374945468
                ],
                [
                    0.46281629653885054,
                    0.47152753479450094,
                    -0.814676576791655,
                    0.5469316375459329,
                    0.1359692900555384,
                    0.12143114728325416,
                    -0.3223994400663771,
                    0.8269705516679237,
                    -0.2923199290674539,
                    0.10182734069230799,
                    0.2319367258606757,
                    0.42386082372026107
                ],
                [
                    0.4900050230175083,
                    0.19224652260311903,
                    0.11910624232607164,
                    -0.001140422259837511,
                    -0.39243383205863813,
                    -0.0987893816550562,
                    -0.6093804597231115,
                    -0.5265463280321475,
                    -0.13142714141263664,
                    -0.40420057431147716,
                    0.3112497014341875,
                    0.36638579332579296
                ],
                [
                    -0.1517370905816145,
                    0.48051371118262115,
                    -0.31936876590960395,
                    0.11916693018114233,
                    0.1666591187125724,
                    0.43541186053405456,
                    -0.14403417305052302,
                    0.061223145424436146,
                    -0.5722682790442257,
                    -0.3498085621526512,
                    0.3562474933075855,
                    -0.41292735888826126
                ]
            ],
            "bias": [
                [
                    1.7101069748438065e-05
                ],
                [
                    -0.00019931846191437343
                ],
                [
                    -3.532375947502911e-05
                ],
                [
                    0.0
                ],
                [
                    -0.00013588854360424031
                ],
                [
                    4.6574513804993294e-06
                ],
                [
                    3.0903541812982e-05
                ],
                [
                    0.0
                ],
                [
                    -7.255692276320303e-05
                ],
                [
                    0.0
                ],
                [
                    -6.488072770339826e-05
                ],
                [
                    -4.4134334404844074e-05
                ],
                [
                    -6.983543742021631e-05
                ],
                [
                    -8.424869510316165e-06
                ],
                [
                    -3.521864274340903e-05
                ],
                [
                    -3.4744787129416955e-05
                ],
                [
                    1.9960333845806518e-05
                ],
                [
                    0.0
                ],
                [
                    -5.785812855487104e-05
                ],
                [
                    0.0
                ],
                [
                    -1.9738061794682658e-06
                ],
                [
                    7.369364980759686e-05
                ],
                [
                    2.0583075143282797e-05
                ],
                [
                    1.771189223070704e-05
                ]
            ]
        },
        {
            "input_size": 24,
            "output_size": 12,
            "activation": "relu",
            "dropout_rate": 0.0,
            "weights": [
                [
                    -0.16980434050540155,
                    0.670517548625987,
                    0.13686233634820485,
                    0.1411895883554432,
                    0.402138669343275,
                    0.1996130567582002,
                    -0.04730623458196332,
                    -0.4001223259612173,
                    0.09938108249581076,
                    0.29224562509011315,
                    0.05139289083081411,
                    -0.1372403187018805,
                    -0.4634861253648901,
                    -0.2073546685239452,
                    -0.09866620981320451,
                    0.1614238710564891,
                    0.12147067315952298,
                    0.3163719024981567,
                    0.29840859993619606,
                    -0.3103874383639132,
                    0.016086629443827282,
                    0.22013921211411094,
                    0.5302427583558369,
                    0.014580522137697902
                ],
                [
                    -0.3077646333600915,
                    -0.5534525067660282,
                    0.2444384007246857,
                    -0.24946668858220342,
                    0.3332141623975648,
                    0.07207084042436253,
                    0.11982678948306305,
                    0.15040759454358052,
                    -0.06415391424140574,
                    0.4654092936822385,
                    -0.022142074192573736,
                    0.20311224572500633,
                    -0.05816402077581491,
                    0.01787446056425937,
                    0.19153316839001316,
                    0.05056294377593086,
                    0.030127605613174083,
                    0.17482476554788332,
                    -0.3877427701813192,
                    0.2068570487188193,
                    0.013888768097496626,
                    0.20596817471871862,
                    0.4011792060309927,
                    0.21532614179105694
                ],
                [
                    0.16531010004290217,
                    -0.1258335697433368,
                    -0.41243202370510007,
                    -0.2042663064557656,
                    -0.175838920880774,
                    -0.2533917577081787,
                    0.15320231521638375,
                    -0.16245844789000377,
                    -0.46115948632844433,
                    0.0994856142380781,
                    -0.2506325604033704,
                    -0.16533281713702325,
                    -0.0131677712869469,
                    0.08992491124983835,
                    -0.2523432147282819,
                    -0.1589643235153533,
                    0.013897715689766716,
                    0.06696547263712145,
                    -0.15886919536868885,
                    0.339692060827786,
                    -0.22022514399351398,
                    -0.050961066762050145,
                    0.0057417721966997026,
                    0.4730074658367225
                ],
                [
                    -0.07852265788745891,
                    -0.05042983203466246,
                    -0.32115637537867575,
                    0.236911640111003,
                    -0.026193048387832957,
                    -0.12401537504911629,
                    0.8347602542580042,
                    -0.004352976004148204,
                    -0.7566067563787465,
                    0.3233671910993942,
                    -0.14461927511983982,
                    0.3187737483007527,
                    0.0874853747682125,
                    0.09140263024259213,
                    -0.6257714086024135,
                    -0.3261344718758923,
                    -0.5313444595260634,
                    -0.04027585651364905,
                    -0.18302444124175496,
                    0.2989145822161581,
                    -0.027626261422421472,
                    0.04170921053602138,
                    -0.5100254049581848,
                    0.13248474203912197
                ],
                [
                    -0.21279890244717733,
                    0.179751387454851,
                    0.1656322714868159,
                    -0.23461857875770104,
                    -0.348751782989005,
                    0.09623912533792664,
                    0.3003992786929815,
                    0.09965763286928751,
                    -0.16228294415939756,
                    0.2418248848323482,
                    -0.23849602077899595,
                    0.11269909747728551,
                    0.4284232087933974,
                    0.1092919281587849,
                    -0.25139901653511065,
                    0.24772124539127874,
                    -0.2150802095086636,
                    1.013103581676008,
                    -0.10759160000264739,
                    0.255493318360103,
                    -0.02696488080199871,
                    -0.22698736465327746,
                    0.3025073261044786,
                    -0.17724111165155967
                ],
                [
                    0.2672475095883078,
                    -0.3436769149149485,
                    0.1687674822223871,
                    -0.1533472657234282,
                    0.2328996925810836,
                    -0.3640484772605096,
                    0.3322349634971018,
                    0.1852200005131171,
                    -0.027299585481785186,
                    0.025212680208808496,
                    0.42524316767093756,
                    0.23690082756342212,
                    0.332506956955714,
                    -0.3816403732882279,
                    -0.11713062346637086,
                    -0.31283971360936114,
                    -0.07378876171996114,
                    0.6773029967809873,
                    0.19559121365248144,
                    0.4148485335485862,
                    -0.05027579369186338,
                    0.09832458948123861,
                    -0.09153264969543465,
                    -0.026737687170842683
                ],
                [
                    -0.014845596912064217,
                    0.4852565615254428,
                    -0.04794104209590391,
                    -0.08853282208060399,
                    0.2936312276787875,
                    -0.03815798093189093,
                    -0.1267137921726656,
                    0.22842261018415458,
                    0.5630684250612354,
                    0.27479920027328475,
                    0.02713715056035813,
                    -0.08473797721018671,
                    -0.14228662039479875,
                    -0.36728732490933164,
                    0.3763420903553736,
                    -0.29815741462890294,
                    0.22357694853220197,
                    0.0941286141863775,
                    0.560422056350164,
                    -0.2814365887656714,
                    -0.20484468204008435,
                    0.07864219098906132,
                    0.13846323821477258,
                    0.27975066887784455
                ],
                [
                    -0.11563252446824913,
                    0.09261857904281623,
                    -0.09699381992429447,
                    -0.06963897968284656,
                    -0.043200929301053216,
                    -0.021705902787404228,
                    0.02422634699542763,
                    0.6444122621720914,
                    0.01080259264059269,
                    0.2244842633685389,
                    -0.2765703856343306,
                    0.24506830066147034,
                    0.3511989057972995,
                    -0.17867311185418824,
                    -0.363801732057764,
                    -0.03417785445961105,
                    0.09283955714767289,
                    0.02049868474562707,
                    0.08190994841644994,
                    -0.024156508031807234,
                    -0.32849312636569783,
                    0.5922172415552399,
                    -0.23184209059575747,
                    0.15362038510486684
                ],
                [
                    -0.4685467498691684,
                    -0.22443751940294923,
                    -0.0187266382801981,
                    0.08911607262521487,
                    0.07332041842105959,
                    0.04612625811956684,
                    -0.2368643469558432,
                    -0.2045531366375437,
                    0.10671782175451049,
                    0.18429529089435603,
                    -0.23233346572720237,
                    -0.35194941192231965,
                    -0.3328925851168167,
                    0.3646801807901964,
                    0.0429898086171426,
                    -0.49181237740415373,
                    -0.21920258438670978,
                    0.22581079539085452,
                    0.12158548778425768,
                    -0.23843316734833037,
                    -0.015505510933872105,
                    -0.18809690756719355,
                    -0.27398958894547903,
                    -0.4493821835034998
                ],
                [
                    0.043004139849258195,
                    0.14549511933872844,
                    0.016654307236649634,
                    0.4130899819984375,
                    -0.346415997313847,
                    -0.04539731254468846,
                    -0.5081900361122234,
                    0.04322242387157122,
                    -0.4878006385067655,
                    0.0961383517123515,
                    0.3821337116714804,
                    0.08667808211692644,
                    0.6162358243476943,
                    -0.19753567517694742,
                    -0.06104083089230223,
                    -0.33563028188403904,
                    -0.09062611364864886,
                    0.27039490100208635,
                    0.17142781377632527,
                    -0.30156749196218147,
                    -0.1646722309134534,
                    -0.010001128609489447,
                    0.018967120353602963,
                    -0.108560973024297
                ],
                [
                    -0.05580412115531355,
                    -0.3380075996618088,
                    -0.5133117900109004,
                    -0.7010526643566684,
                    -0.36068638030496564,
                    -0.3074610998112745,
                    0.6832057305444691,
                    -0.14583418101123555,
                    -0.4487132088179054,
                    0.7020226030069057,
                    -0.2498579027619989,
                    -0.33740640087445195,
                    -0.15248218055877652,
                    -0.16059488650520076,
                    0.22795839918936242,
                    -0.030259363079571798,
                    -0.0788774258848279,
                    -0.13471230191359335,
                    0.05499907593636096,
                    -0.3367466046853501,
                    0.17358771947906546,
                    -0.09949020277063937,
                    0.30931499458381573,
                    0.22303798444289538
                ],
                [
                    0.3158101747162844,
                    0.2797062101200738,
                    0.06392186167858967,
                    0.20499362911000052,
                    -0.4120153664519134,
                    0.17372595668243404,
                    -0.26886215612224285,
                    -0.09425677056770622,
                    -0.30153203348513213,
                    -0.23749587177359635,
                    0.03141313813189158,
                    0.15494499642466344,
                    0.061669150051008,
                    -0.1778161854183837,
                    0.22168736434262035,
                    -0.5395379277678427,
                    -0.15325134714217176,
                    -0.5253595356616566,
                    -0.2599551298922188,
                    0.09664055068014571,
                    0.3482390110069379,
                    0.2175403315571041,
                    0.20296912842440124,
                    0.3504193611838841
                ]
            ],
            "bias": [
                [
                    -0.0001592654535585665
                ],
                [
                    4.7356559101883096e-05
                ],
                [
                    0.0
                ],
                [
                    0.0
                ],
                [
                    -5.0373434459955175e-05
                ],
                [
                    -2.098833856718695e-06
                ],
                [
                    -0.00017202368151957552
                ],
                [
                    0.00013800107026604836
                ],
                [
                    0.0
                ],
                [
                    -7.847366891218558e-05
                ],
                [
                    0.0
                ],
                [
                    8.64128469193532e-05
                ]
            ]
        },
        {
            "input_size": 12,
            "output_size": 3,
            "activation": "softmax",
            "dropout_rate": 0.0,
            "weights": [
                [
                    -0.4071247308489756,
                    0.25233857385038627,
                    -0.17393701397745367,
                    0.40830505674822515,
                    -0.3767418069115668,
                    0.12850550488884643,
                    -0.04669646766022147,
                    0.49097329483657837,
                    0.3490998834773058,
                    0.2906562440158487,
                    -0.34446062011313155,
                    0.011436773337379375
                ],
                [
                    0.14186923990370448,
                    0.33742052386494137,
                    -0.447607622084407,
                    0.17033730166518035,
                    0.2765130942112063,
                    0.06243591971811272,
                    0.5757848507673073,
                    -0.11830407850075864,
                    -0.15063042801400753,
                    0.4283915146659286,
                    0.23112037220703308,
                    -0.5028496652944641
                ],
                [
                    -0.3659135305456704,
                    -0.1482629827945185,
                    -0.2267736121194231,
                    -0.23237164040962763,
                    0.1807319378070843,
                    -0.2293367984528158,
                    0.10077756081795873,
                    0.7141976449168812,
                    -0.12986191558637672,
                    0.5676634988051026,
                    0.3603663284138681,
                    -0.0438979813691357
                ]
            ],
            "bias": [
                [
                    0.0002117196216230183
                ],
                [
                    -0.00029632927366986283
                ],
                [
                    8.460965204684447e-05
                ]
            ]
        }
    ]
}