{
    "learning_rate": 0.01,
    "l2_lambda": 0.0,
    "dropout_rates": [],
    "loss": "categorical_crossentropy",
    "layers": [
        {
            "input_size": 768,
            "output_size": 64,
            "activation": "relu",
            "dropout_rate": 0.0,
            "weights": [
                [
                    0.02035428468675562,
                    -0.0009173159834081912,
                    -0.010617835499474515,
                    -0.012509640234310088,
                    0.07311103491403706,
                    0.045837424998077476,
                    -0.0528607027175062,
                    -0.007925759562050414,
                    -0.011299197640209651,
                    -0.04974941210432325,
                    -0.06317379025929029,
                    0.0900085844588779,
                    0.012766404244124303,
                    0.04993859829544397,
                    0.014460541951485476,
                    -0.008751236334081054,
                    -0.0007015335786169736,
                    0.020616793108342614,
                    0.01888521088380793,
                    -0.032686497315021865,
                    -0.030299865918647872,
                    0.009642520361307784,
                    -0.04872295037737522,
                    -0.03213555537905046,
                    -0.06958164981946625,
                    -0.07315372539135116,
                    0.005116647729159118,
                    0.05316989512314246,
                    -0.042910993693424916,
                    0.03419461886487431,
                    0.02303769121412839,
                    -0.017612966942402067,
                    -0.005080705928421165,
                    -0.017585865038364578,
                    0.07271271565064517,
                    0.05205618391341151,
                    -0.05962326955209831,
                    0.12091206941325343,
                    -0.06660501997538042,
                    -0.004369090727700794,
                    0.052746167310613164,
                    0.014517147436386175,
                    0.03351396831685128,
                    0.017369746533891478,
                    0.02236359915102416,
                    -0.02128088443014101,
                    0.0002626646461165987,
                    0.036254454153995155,
                    0.07550834857219911,
                    0.00982445823327974,
                    0.07462090859004561,
                    0.016070966981570636,
                    0.021833445311495524,
                    -0.012488059362054929,
                    -0.049611159874276896,
                    0.041994479191664706,
                    0.06759306280980133,
                    -0.044961473563388914,
                    -0.027611440641840925,
                    -0.05713590402610882,
                    -0.058554007447771506,
                    0.06420459259535169,
                    0.030782782941177866,
                    0.07464030117105708,
                    -0.13382578442117007,
                    0.003920050467929739,
                    0.04350100621066605,
                    -0.028924292111741325,
                    -0.036276956907407794,
                    -0.06960921136303815,
                    0.0329261653836287,
                    -0.007795567283150074,
                    0.04567781137806941,
                    0.11048641571896635,
                    0.008921033967999557,
                    0.07594164270504267,
                    -0.03441603071217896,
                    -0.04773967649822102,
                    -0.06722500907155501,
                    0.06640637737182048,
                    -0.03736596215334805,
                    -0.014867003758872802,
                    0.04582827478816111,
                    -0.08299855824442846,
                    0.019372352760371612,
                    -0.048103912142628456,
                    0.06081944711371564,
                    0.00016788256060980755,
                    -0.09165553375441886,
                    0.00551365252970603,
                    -0.012481269825640028,
                    0.08104819673526763,
                    0.06739402213753046,
                    0.039800273271762665,
                    0.0661528375343854,
                    0.028753691843663054,
                    -0.057268993132293285,
                    0.04525653024361039,
                    0.11321920059815829,
                    0.06556133465737654,
                    0.06267479422396448,
                    0.05400807133566749,
                    0.08590296527338749,
                    0.04890326883630847,
                    0.07531199065388974,
                    -0.003476758189975729,
                    -0.019902848557310088,
                    0.019343439681146095,
                    -0.0018725542104909916,
                    0.046802321101854054,
                    0.0642713046018108,
                    0.06825459378407794,
                    -0.020981952769444853,
                    0.136127651310885,
                    -0.0624564784122999,
                    0.005838393710524925,
                    0.03550215433193962,
                    -0.01943299497925486,
                    -0.07373970130625336,
                    0.014494431930011504,
                    0.06276909600313528,
                    -0.02374786262367277,
                    0.06774822408218087,
                    -0.12405005468568957,
                    0.010433595622133213,
                    -0.061976308470651775,
                    -0.06719223999138961,
                    -0.028130381798394645,
                    0.07102110831001585,
                    0.009630103061486556,
                    -0.08932844383356833,
                    -0.006512425354887648,
                    0.07579761942183241,
                    -0.14122726053042367,
                    0.02637856965264258,
                    0.023456201647727264,
                    -0.03851722241574599,
                    0.04008721011862159,
                    -0.007994558322041944,
                    -0.04364978055621331,
                    0.0314075236285072,
                    -0.015124244932717957,
                    0.025744229890327878,
                    -0.0558682855582362,
                    -0.057937632587396946,
                    -0.0859657092067871,
                    0.0726726532657978,
                    -0.014857688564090017,
                    -0.025214552083478274,
                    -0.019405234187185923,
                    -0.04610913697642551,
                    -0.012585315383007774,
                    -0.0555366651275737,
                    -0.016582769130270462,
                    -0.0030676957167481396,
                    -0.010239361140054108,
                    -0.06308419427911317,
                    -0.07837994870316654,
                    -0.059108528389759496,
                    -0.05448231926996276,
                    0.07520608215657326,
                    -0.008126262151436671,
                    -0.0926622794579601,
                    -0.035632134130092766,
                    -0.04716705367539283,
                    -0.010075879837384966,
                    0.0005419535665185844,
                    0.01694591732734299,
                    -0.011743030456611106,
                    0.005941786415740013,
                    -0.1016994744254621,
                    -0.10068881708943815,
                    0.020735118158834016,
                    0.015326675543020897,
                    0.039795971356708065,
                    0.05054224232674794,
                    -0.07919700571218917,
                    0.009081785609818418,
                    0.0570246400606658,
                    -0.048066160051052034,
                    0.016555012965559394,
                    0.011411381253970282,
                    -0.0035161537474842634,
                    0.0033585299629369236,
                    0.03750722821433143,
                    0.020226025245332468,
                    0.08788396280301908,
                    0.01637236795116019,
                    -0.13171211819348014,
                    0.0023996757654045583,
                    0.005389479550124556,
                    0.022327631629889006,
                    0.07217973651511804,
                    0.06945595735973017,
                    -0.008564674348927178,
                    0.0896531730610231,
                    0.02382560205357621,
                    -0.1011623594770511,
                    -0.07087163980833412,
                    0.004309823705243209,
                    -0.11471025631435026,
                    0.03811165128072045,
                    -0.013497667923391358,
                    0.03195292835235131,
                    -0.009865490191538805,
                    -0.07342897770289002,
                    0.031978017076799516,
                    -0.017650248795035475,
                    -0.06434103176957054,
                    0.014734292260159678,
                    0.0630461713894393,
                    -0.0018776705388503004,
                    0.03215591844202323,
                    0.012282622227550189,
                    -0.04015337100072575,
                    -0.034809433210279586,
                    0.010106014574910789,
                    -0.05709562894238044,
                    -0.1197948762987753,
                    0.050816013887276176,
                    -0.0238204706243586,
                    -0.05079887453231137,
                    -0.005728219336137828,
                    -0.07207552478366087,
                    0.11773560550376216,
                    0.06524606681557686,
                    0.02129898386354913,
                    0.02977216313174893,
                    -0.0023867041408256184,
                    0.0023390299967276013,
                    5.152061300957544e-05,
                    -0.015459717714141738,
                    -0.002562674796729092,
                    0.008495672692529821,
                    -0.012664306616434506,
                    -0.1111565852857315,
                    0.04232675271322208,
                    0.07170889169505633,
                    0.04755233827453534,
                    0.036239632285266644,
                    -0.04025645700232308,
                    -0.03912616182112872,
                    0.02380402748725086,
                    0.03567324988085223,
                    -0.032557208599640675,
                    -0.010872442889260783,
                    0.04843721222923178,
                    -0.01859143160314764,
                    0.008606582882321748,
                    -0.16164196847433268,
                    -0.05385201191476231,
                    -0.011400768492341113,
                    0.05875114149839571,
                    -0.08816924946078432,
                    0.018728650522996514,
                    -0.04042055688856629,
                    -0.04405558217086116,
                    -0.03127867814237996,
                    -0.06021420759375572,
                    0.09957195705971864,
                    -0.013589035357694712,
                    -0.043690881619691216,
                    0.11117090950250949,
                    0.07533081816155371,
                    -0.07652020278976866,
                    0.020566163773450927,
                    0.09089272403850052,
                    0.030395006847040572,
                    -0.0551040721088968,
                    -0.06929988401274267,
                    -0.016751539244951544,
                    -0.0731835222907057,
                    0.024635740157362817,
                    0.0337863067818072,
                    -0.028317836924217646,
                    -0.00783659002451553,
                    0.07450047548630488,
                    -0.030849817936153018,
                    0.05587778801724905,
                    0.10170247329615453,
                    -0.006763290850114704,
                    -0.016467558757078254,
                    -0.01836816714195923,
                    0.0645674282782873,
                    0.025378643889810325,
                    0.06253243880462515,
                    0.04094285997923512,
                    -0.08182753777335194,
                    0.028079761286904485,
                    -0.06569757838216983,
                    -0.02402997372684622,
                    -0.022075775532913906,
                    0.04056371739861358,
                    -0.017075844539596704,
                    0.05637402027203555,
                    0.025655605911020507,
                    0.102998557788581,
                    -0.03356080318017778,
                    -0.009287602264197328,
                    -0.026494179699775636,
                    0.06125869694307352,
                    -0.11873068348989256,
                    -0.060469898106935635,
                    0.04656431986960506,
                    -0.05032055822973491,
                    -0.033738441569222316,
                    -0.11926856710077552,
                    -0.05652783160465282,
                    0.06325161611098687,
                    -0.11735919816469875,
                    0.05002003516254325,
                    0.01185443432422203,
                    0.042563815724776716,
                    -0.10979528395990325,
                    0.062357399829977136,
                    -0.057863043596067094,
                    0.028415772267184936,
                    -0.04961169573864107,
                    -0.02012811051356282,
                    0.04580189634600112,
                    -0.07117761518653683,
                    0.028113700998027832,
                    -0.04546134571942799,
                    0.0067245275304823595,
                    -0.0641336434833402,
                    -0.01443146852196624,
                    0.00870186192770529,
                    0.04090280978223997,
                    -0.038757068228141525,
                    -0.058373797141287515,
                    -0.07944360165416063,
                    0.009723530343250035,
                    0.05941878132647796,
                    0.022544114544683563,
                    0.10505544979436719,
                    0.07431384956872009,
                    0.06381507051995931,
                    0.10944251447388208,
                    -0.004790774199171669,
                    0.04735518907145401,
                    -0.07819461123722303,
                    -0.02356397447074878,
                    -0.06309896455167069,
                    0.009711703662584767,
                    -0.01821872306908584,
                    -0.007367520917102748,
                    0.07856938634944029,
                    0.0007238709627216572,
                    0.010181447547060336,
                    0.03445200242280392,
                    -0.0028063904563935434,
                    -0.08967153486139155,
                    0.04391170544347504,
                    0.012961383102722506,
                    0.03536080725196199,
                    -0.04712038110384742,
                    -0.0005350502653716835,
                    -0.07086881349948493,
                    0.10323633532625189,
                    0.07809773170031142,
                    0.05811180886131132,
                    -0.03174673322345666,
                    -0.008590691269373209,
                    -0.019878054712882398,
                    0.04358083659305326,
                    0.07627708587074009,
                    -0.08365418748711156,
                    -0.05001213409077272,
                    0.0672512718117815,
                    0.021814587619623023,
                    -0.004565031080594767,
                    0.0882939129491894,
                    -0.05954777827474247,
                    -0.030112430407396508,
                    -0.033556245408903396,
                    -0.04220510511152115,
                    0.03318374449950557,
                    0.055935024559915614,
                    -0.0501268878866966,
                    0.004067940028928568,
                    0.07194990403128278,
                    0.0023080765270597488,
                    -0.01429793606652732,
                    -0.047090866089238084,
                    0.017869045299354652,
                    -0.03687451607610674,
                    -0.0619882830057414,
                    -0.04515430294268037,
                    -0.07287308425938177,
                    0.007189768502270466,
                    0.008213065367183213,
                    -0.0218536679771961,
                    0.053128957177449976,
                    0.06591623587854656,
                    -0.015928684986435952,
                    -0.019882408089685232,
                    -0.09695305479106546,
                    -0.01765721260703285,
                    -0.016238917535579683,
                    -0.022961251816370234,
                    0.029303729340212376,
                    0.032133318761194414,
                    -0.02501532684335228,
                    0.03154059181545809,
                    0.004625725168069126,
                    -0.11527752184127975,
                    -0.060283934687365946,
                    -0.056884568872195396,
                    0.051202714616740995,
                    -0.0032539595867994153,
                    -0.07121834780103707,
                    -0.019605497929332524,
                    0.058380499806853656,
                    -0.04637680307989073,
                    -0.012218407274181515,
                    0.0496711784400572,
                    0.0041901466220625695,
                    0.016589932262524594,
                    0.0041285924210957324,
                    0.03681749267647506,
                    0.019326690607769755,
                    0.029143113497226515,
                    -0.09988756764542771,
                    -0.006387557074712967,
                    -0.018418322068724145,
                    0.027850707891748903,
                    -0.018515539549597417,
                    0.015949224256200396,
                    -0.033439823087095095,
                    0.06819105681820599,
                    -0.08391140685201615,
                    0.04562706115774839,
                    0.02874287206955284,
                    -0.0663894398847411,
                    -0.03233209565752453,
                    0.0396361778532644,
                    0.018060781402319412,
                    -0.027276602325906556,
                    -0.022612456642590022,
                    -0.003910988661935973,
                    -0.13196262077090307,
                    0.0072226733602189334,
                    0.0631809680971118,
                    -0.019257308531404175,
                    0.02096868685599251,
                    -0.01235004681270456,
                    0.008537327437940001,
                    -0.011059033900806151,
                    -0.01714267743708117,
                    -0.034855589373879024,
                    0.08758959199723455,
                    -0.006851621828130769,
                    -0.022297038625201642,
                    0.013274641011473494,
                    0.07639809138525307,
                    0.05764035125765292,
                    0.05518729333259025,
                    0.12066607958029411,
                    0.08622450399531119,
                    -0.011784680485978086,
                    -0.014090652656851367,
                    0.04821891871862022,
                    -0.010189528769173561,
                    0.02545736999722537,
                    -0.008560931364057256,
                    0.025850932264144408,
                    -0.00764902026346705,
                    0.0305109206168576,
                    -0.025767309230907667,
                    0.06623790546962634,
                    -0.01884126199425031,
                    0.02803470591893434,
                    0.001073304091646425,
                    -0.0035849106211438275,
                    0.10993780853812764,
                    -0.02881813022697236,
                    -0.019233506207351966,
                    0.04329055281297917,
                    -0.10334346136260276,
                    -0.007707804195395934,
                    0.0002676707766825144,
                    0.016449646669025077,
                    0.05810167740177056,
                    0.03788494928723082,
                    0.046361932699318105,
                    0.09631844741319447,
                    -0.004731553707142491,
                    -0.01694696070305861,
                    -0.10357091489857224,
                    -0.028966830536870963,
                    0.04695235419432454,
                    -0.007902919159609464,
                    -0.03134277939839493,
                    -0.0022522787022181924,
                    0.043539152234482896,
                    -0.07147432442282747,
                    0.014634335224215058,
                    -0.1148030990480039,
                    0.047505398455934475,
                    0.041271378021081245,
                    0.020764545013008177,
                    0.007225338989294013,
                    -0.02115174705037995,
                    -0.029495480057320885,
                    -0.021266145447403167,
                    -0.045451490802523864,
                    0.005574578502454156,
                    0.0752151053270236,
                    0.016915019196698505,
                    0.026769268868734257,
                    0.15338952241093853,
                    -0.023259681551241553,
                    0.016833037606351204,
                    0.11220678139254463,
                    0.006940592211793067,
                    0.047279746490520906,
                    -0.04250256509930396,
                    -0.16864034997179378,
                    -0.030807489402020966,
                    -0.033077927367579696,
                    -0.05270424000688155,
                    0.020223617871967324,
                    -0.12337408019688847,
                    -0.030136944287052263,
                    -0.0060139908407898296,
                    -0.007993616744968988,
                    0.02811916261214412,
                    -0.07818072077198739,
                    -0.06313432285139653,
                    -0.0005607682698914219,
                    0.022150200792504775,
                    -0.000916523797839814,
                    -0.09359540454144209,
                    -0.008110339173430951,
                    -0.01647167254296803,
                    0.015115011870235822,
                    -0.1150890875684536,
                    -0.028919626290741622,
                    -0.08468116001697808,
                    0.0016514038228693556,
                    0.10349780659589371,
                    -0.04193207093195456,
                    0.09518142428950684,
                    0.001845800805182302,
                    0.09820125187826186,
                    0.0002776318921055883,
                    -0.017319318564870387,
                    0.006899835215201259,
                    -0.006680324158113492,
                    0.04074557728565937,
                    -0.012348125817997746,
                    0.1147270107074212,
                    -0.021983253762180868,
                    0.05968815275347654,
                    0.04362134799492538,
                    0.010139071383785558,
                    -0.08709970151146781,
                    0.04059326032138626,
                    -0.03050531217161541,
                    -0.0244371115143067,
                    0.025246064793570555,
                    -0.0069069991193352245,
                    -0.016820040016947046,
                    0.021740939297833554,
                    -0.039733142795176715,
                    -0.023746829536028666,
                    0.013586566926288237,
                    0.06770597435187622,
                    -0.01300603955355059,
                    -0.008384681720849657,
                    -0.01195370737481859,
                    -0.00530761901998321,
                    0.05779263571099588,
                    0.10532740560964372,
                    0.08765530188526682,
                    -0.07546887187362068,
                    0.08597396791462775,
                    0.03539228883992215,
                    -0.01535734923913846,
                    0.021673919057209272,
                    0.09014790770601804,
                    0.02795457185877762,
                    -0.050131568515303475,
                    -0.08552979151429306,
                    0.016613327070372146,
                    0.009118978741983424,
                    0.026678145531101587,
                    -0.010216087778521074,
                    -0.026619096599956968,
                    -0.08721137316113059,
                    0.032608222258243585,
                    -0.03228680559486657,
                    0.03175313125505031,
                    0.0172968841053225,
                    -0.041937364949028985,
                    0.009464597316174057,
                    -0.05258736033937924,
                    -0.03425670478388944,
                    0.03476731184123106,
                    0.03312751081438955,
                    0.009978390883009294,
                    0.06484736359949603,
                    0.03292310067159132,
                    -0.025801045747458867,
                    0.07015552323127598,
                    -0.03230517687230064,
                    0.013660988042108264,
                    0.0666043210324453,
                    0.029587154934669985,
                    0.0056886351333212,
                    0.01834242855772777,
                    0.03240739703730783,
                    -0.04892333519694046,
                    0.014244711155384494,
                    0.10645046817655718,
                    0.007735919668710609,
                    0.03855874192094808,
                    -0.04851418899807853,
                    0.06837416849654887,
                    0.05119371309219454,
                    -0.0011958047019615824,
                    -0.006404720058246988,
                    -0.021950095840380525,
                    0.019164190104513305,
                    -0.08762517233417633,
                    0.0178523441956657,
                    -0.010446639403890066,
                    0.06928192565667438,
                    -0.02844594143444724,
                    -0.05854389764140997,
                    -0.05042735475119295,
                    0.01575563044242746,
                    -0.03872933638659299,
                    -0.032532301007487566,
                    0.0063026634685093156,
                    -0.047530391080377134,
                    -0.06065084942209135,
                    0.01727803390568419,
                    0.04726737408500442,
                    -0.008200604289628812,
                    0.026597375340011782,
                    0.025131416877985178,
                    0.014415720391052076,
                    0.09522362354288011,
                    -0.026980463911608923,
                    -0.009185741025226579,
                    -0.03358905735334084,
                    -0.03268895178547649,
                    0.09418251720792037,
                    -0.09752248071160469,
                    -0.01924104866631923,
                    0.045219272783242385,
                    0.012812922912851457,
                    0.007466426687306182,
                    -0.009322481409588806,
                    -0.07646584198474447,
                    0.014782464095523525,
                    -0.033028409059490955,
                    -0.031073655349888284,
                    0.03874243790573497,
                    -0.01111698591964209,
                    0.04831369331714243,
                    0.03708400380823356,
                    0.05299006781588052,
                    -0.0661804168750271,
                    -0.056315391143259924,
                    0.08469245628040717,
                    -0.011015406072889698,
                    -0.012184131871793593,
                    0.009358840269617724,
                    0.05938714856401569,
                    0.03520573989339141,
                    0.026202246578010093,
                    0.02932063080710052,
                    0.04103612676182518,
                    -0.02463076182151102,
                    0.017270140664561708,
                    -0.08678654191047465,
                    0.045608688853419586,
                    0.03380816988836707,
                    0.06526013232142419,
                    0.04928288848670018,
                    -0.045309169508593435,
                    -0.008921368847931153,
                    -0.0758553741333539,
                    -0.04066087239659401,
                    -0.05015109727099881,
                    0.08597789991350772,
                    -0.04181308468402098,
                    -0.015311716659445807,
                    0.0015656735991976464,
                    -0.05682024225670568,
                    -0.006217382622044055,
                    -0.10060435664537683,
                    -0.0017714496061845568,
                    0.05844262646090166,
                    -0.019785239209609774,
                    -0.08211073541316842,
                    -0.06922607330291199,
                    -0.020122808265459133,
                    -0.004348742133314727,
                    -0.06959612237430458,
                    0.015706043359667556,
                    0.07159463072919273,
                    0.03652102686313876,
                    -0.058541671130944765,
                    -0.012507329652016017,
                    -0.05539903652376818,
                    -0.0005623182507680685,
                    -0.09449781624074297,
                    0.1229888633275131,
                    -0.008536662891109374,
                    -0.00949353408929584,
                    0.031790865680966784,
                    0.006871358846361376,
                    0.09290542223817222,
                    -0.022524836805170565,
                    -0.009548474917254655,
                    -0.008343276816615524,
                    -0.037321875792638404,
                    -0.005261897341491177,
                    -0.014786873607230445,
                    0.12143528146197881,
                    -0.01088938625330364,
                    -0.028744455515753112,
                    0.017806289114866543,
                    0.03884180767896016,
                    -0.010660288411552614,
                    0.021521227296920065,
                    0.006412418135545465,
                    0.03342918444792299,
                    0.013277078439449952,
                    0.08502739860597608,
                    0.061338929804614854,
                    -0.044682033708670035,
                    -0.08358228620327929,
                    -0.017794161516647325,
                    -0.01921809861803928,
                    0.02745130927370992,
                    0.10108058081683924,
                    0.045019622082853566,
                    -0.04249341652936761,
                    -0.0744776445246879,
                    -0.03264635985445015,
                    -0.04350026248517185,
                    -0.019421717842925772,
                    -0.019176162096471713,
                    0.04190618312476431,
                    0.05236499322973609,
                    0.014971726816605338,
                    -0.01832775179038531,
                    -0.08628949709572599,
                    -0.04672211612463006,
                    0.028115431535211274,
                    -0.027284942922419394,
                    0.012214493125759696,
                    0.08264386726912375,
                    -0.046621713094280044,
                    -0.010770670677060808,
                    -0.058338841718905486,
                    -0.0372798091687517,
                    0.09599714599097688,
                    0.08042901421560378,
                    0.007003334461177554,
                    0.04345565571671567,
                    -0.05497051792792606,
                    0.02215615701713285,
                    -0.02106926960837758
                ],
                [
                    -0.021885035090692333,
                    0.04568263539468722,
                    -0.060871025445057715,
                    -0.06612013791883048,
                    0.029524532157520045,
                    -0.02442156644486256,
                    -0.021213603377080795,
                    -0.050716411518831994,
                    0.011568718775822039,
                    0.01892587915788138,
                    0.031272726091568885,
                    -0.01023125559168267,
                    0.07450522015481588,
                    -0.02170146354936732,
                    0.09323101505720832,
                    0.09069895976874683,
                    0.010302166183389586,
                    -0.020369979008422415,
                    -0.004258924324439468,
                    -0.11480304027632546,
                    -0.017550858149971718,
                    0.09862613100611389,
                    -0.004349522727266826,
                    -0.04790256529180019,
                    -0.019407558628052726,
                    -0.03035636648818343,
                    -0.04318555377860003,
                    -0.074164186371792,
                    -0.04706825037331445,
                    0.02430062563422385,
                    0.019225960606096073,
                    0.01962057266863958,
                    0.07508394377234348,
                    0.031581633489653774,
                    0.04741590738748685,
                    -0.005395992641000244,
                    0.023525879302531517,
                    0.016830695232941412,
                    -0.006540795112556744,
                    0.022388732528116833,
                    0.013008088941935897,
                    0.016729785522213544,
                    0.0653027645364819,
                    0.03279873953050084,
                    -0.02364608884219693,
                    -0.07640064199060345,
                    -0.051464046005099726,
                    -0.004960221896514656,
                    0.020832790244326913,
                    -0.004757064360113214,
                    0.005997938684428863,
                    0.02146789951380263,
                    -0.013276330126972137,
                    0.02342817949816568,
                    -0.017868808658120062,
                    0.0028203398557937426,
                    0.0017405175869446617,
                    0.03579596502446401,
                    -0.06222569982670648,
                    -0.0005178949024965913,
                    -0.1424249866639353,
                    0.04238469741703272,
                    0.06803931644752556,
                    -0.13965839532296837,
                    -0.010637956017149432,
                    -0.02215859045730892,
                    0.09139903142718239,
                    0.05518950992715363,
                    -0.015704861637797704,
                    0.034434893757652525,
                    -0.007568166102095511,
                    -0.05053183637778232,
                    -0.12643562133726782,
                    0.02187520752945603,
                    -0.03679577164872633,
                    -0.08048821858261523,
                    0.005690539912358566,
                    0.002070050966660216,
                    -0.05086162431356168,
                    -0.02832997669971928,
                    -0.07262079885504003,
                    -0.08629626619538053,
                    -0.02841517798845752,
                    0.008658682732633446,
                    -0.09848637870444737,
                    0.04583253622686301,
                    0.009724563339314644,
                    0.058684690432705175,
                    -0.07254278687076532,
                    0.030601261394353457,
                    -0.009617284147903122,
                    -0.12403554089927118,
                    0.04291354817506384,
                    -0.07046695733210025,
                    0.007778609263511356,
                    -0.0027063835032314024,
                    -0.02580090350095777,
                    0.08015176839205719,
                    0.018424483220451714,
                    0.028002755252685727,
                    -0.07487928909531995,
                    -0.022025715844271848,
                    -0.03775611361277748,
                    -0.04210480668922948,
                    0.07975843946016817,
                    0.06556144061419822,
                    0.058581218190940774,
                    0.07125766152657624,
                    0.020385079121510497,
                    -0.08176167110462279,
                    0.04897190960814005,
                    0.00700448493006464,
                    -0.06361037238627325,
                    0.07409132379128548,
                    0.0004949334857533024,
                    0.0026118176745890814,
                    0.04846440365102785,
                    -0.04414711364455297,
                    0.10959888521014698,
                    -0.06256278835771308,
                    -0.03537881036511051,
                    -0.016178042941655035,
                    -0.08453643781160598,
                    -0.022853748865887365,
                    0.1430998554603244,
                    0.09297720631972219,
                    0.045771702781959446,
                    -0.06071457479244868,
                    -0.10472998359074748,
                    0.03068820694087609,
                    0.025750361719924227,
                    -0.05403742196660609,
                    -0.015702333491827286,
                    0.026985523655224983,
                    0.0021381259218973183,
                    0.008831675955931489,
                    0.10205635338739122,
                    -0.010502603381772222,
                    0.005736525005835926,
                    0.0074260981257064105,
                    -0.007511823442126584,
                    0.06143006610946336,
                    0.1075909129145227,
                    0.027922407564439512,
                    0.06236277412208671,
                    -0.01673029938671558,
                    0.030851353107738448,
                    -0.09363359589449563,
                    -0.060582997999641425,
                    -0.010702454057443888,
                    -0.0022900273739905374,
                    0.12292632828955578,
                    -0.02610211536880663,
                    -0.021290072863774556,
                    -0.037609671537882784,
                    0.035495824825857225,
                    0.035598110515258345,
                    0.006250985014853733,
                    0.1618808993657071,
                    -0.028679996625657494,
                    -0.019296135870446374,
                    -0.05574440185446351,
                    0.05828629107405113,
                    -0.021032311860375755,
                    -0.012613371853322836,
                    -0.0760960144690584,
                    0.051381759594330896,
                    -0.010726800448090502,
                    0.02269547165408494,
                    -0.016371006675177553,
                    -0.0423424408705353,
                    0.05636186849068396,
                    -0.0174607815655598,
                    0.02084916552717485,
                    -0.04068042387889991,
                    -0.050604151332664674,
                    -0.0630585402012218,
                    0.04384381682218287,
                    0.0008810012851632638,
                    -0.024777896007854665,
                    -0.018185422949901206,
                    0.017178028794965643,
                    -0.07911572288394716,
                    -0.024856120605287885,
                    -0.026501412602660108,
                    0.012085716915704783,
                    -0.029162275277361992,
                    -0.07557360572239982,
                    0.10973889027364576,
                    -0.015500793926522738,
                    0.020248214415295764,
                    -0.04485477492432399,
                    0.036685598730706336,
                    -0.034531357094193124,
                    0.059017610648577634,
                    0.05827915207016138,
                    0.052834175846481396,
                    0.048697166310364644,
                    -3.17538580666291e-05,
                    -0.04634373623601406,
                    0.012531416157471775,
                    -0.015485849226967335,
                    -0.05327714150470794,
                    -0.04993491736013902,
                    0.02922213260394314,
                    0.06915770644858207,
                    0.056016972876204656,
                    -0.08678549599323651,
                    0.003106586644632649,
                    -0.02337289432312692,
                    -0.0034480286260289723,
                    0.00630684724198586,
                    0.02877906829400767,
                    0.07144177779957832,
                    -0.01673713761620297,
                    0.0001957486763470554,
                    -0.04768474246205476,
                    -0.09575124338235047,
                    0.009784857146566931,
                    -0.06618502455993415,
                    0.11322956128167523,
                    0.012608393384187368,
                    0.053431558879280014,
                    0.015651304886396687,
                    -0.10995823959022821,
                    -0.050274119851936805,
                    0.09390045760650377,
                    -0.010144399815555562,
                    -0.012031441405700612,
                    -0.06499875217008316,
                    -0.07007377846475661,
                    0.10972528076166875,
                    -0.08363347785016587,
                    -0.08295693772877429,
                    -0.055323411851075276,
                    0.041426072173555255,
                    -0.005020573544679334,
                    0.07846704969397031,
                    -0.017385265793112427,
                    -0.016304931808059052,
                    0.0830098977980672,
                    -0.04255970511238514,
                    0.027372424216343456,
                    0.00290918609866805,
                    0.02649302562347334,
                    0.0009429195550891005,
                    -0.002268088549253421,
                    -0.02153123427361322,
                    -0.12510081928248487,
                    0.01313609126997278,
                    -0.0410315742330302,
                    -0.0003563408982512781,
                    -0.06935633164704585,
                    0.0807413788006568,
                    0.01939703749960987,
                    0.0525805415176616,
                    -0.06661799896422099,
                    0.03419684319206885,
                    -0.06546772075127869,
                    0.025303502143695825,
                    0.04496173542814678,
                    -0.023885233942686067,
                    -0.07755724804511005,
                    -0.018152700575449297,
                    0.027588741133865172,
                    -0.0028651013407692758,
                    -0.06983877676434852,
                    0.005801723678771568,
                    0.08541086657310362,
                    -0.010413682233470202,
                    0.030660767937686722,
                    0.03274135287580566,
                    0.023333721398699284,
                    -0.016664830029781804,
                    -0.03285030444730485,
                    0.07486712742884256,
                    0.07528025708216571,
                    -0.01386640164074095,
                    0.030847297231495763,
                    0.011365620183785128,
                    0.03867934356418889,
                    -0.027448267025842795,
                    0.012669706129259186,
                    0.09627636246506152,
                    0.017183000930100806,
                    0.0007137285232302634,
                    0.0911112819181698,
                    -0.06820287294237119,
                    0.0236468039784045,
                    0.022821962776551224,
                    0.019780953611985404,
                    -0.0542430455821491,
                    0.013855623662889092,
                    0.08539243122537855,
                    0.008047364239810425,
                    0.012987122619319379,
                    -0.041017497864859156,
                    -0.053989851198677836,
                    -0.037026179571259664,
                    0.031564086794856734,
                    -0.013525027273632351,
                    -0.036109858488828694,
                    -0.050560951969647515,
                    -0.046044645516390245,
                    0.0570553762229934,
                    -0.023305225952224576,
                    -0.041397601933630665,
                    0.0001986880132268825,
                    -0.08863168856605162,
                    -0.02197789390926605,
                    0.033150091997674117,
                    -0.004675186834219316,
                    -0.019380127286269276,
                    -0.023688645735497033,
                    -0.020375511738049558,
                    0.02199551937390375,
                    -0.0055343328510580984,
                    -0.04374186367468621,
                    0.033940262053353,
                    0.009265589635882344,
                    0.038078426735575426,
                    -0.006790879835697937,
                    0.0197504653839576,
                    0.000981700479273763,
                    -0.13746319943247584,
                    0.016826593855540115,
                    0.06589904682364833,
                    -0.04709028054914252,
                    -0.09030838596338085,
                    -0.09423298758848665,
                    0.02336198395535311,
                    0.02992489223924545,
                    0.028125175354913837,
                    0.07264275917970583,
                    0.09086727879625343,
                    0.01806662379635479,
                    0.006206169097577331,
                    0.14728477461820466,
                    -0.07372622237514137,
                    -0.005723355129218326,
                    0.018738250022350755,
                    0.1255764988644264,
                    -0.014305600832369467,
                    0.08565021168905945,
                    0.11826588832574338,
                    -0.05181879854266984,
                    0.012231638113094832,
                    -0.026055440669293665,
                    0.0175415531094958,
                    0.0050409183200263216,
                    0.028858092242041566,
                    -0.07872833934107726,
                    0.0052926707576091605,
                    -0.037630685795283,
                    0.03157066229193638,
                    0.07006354505809596,
                    0.0010788409128048286,
                    0.10328984637654301,
                    -0.008503146431378608,
                    -0.04857721725487846,
                    -0.026102789906320065,
                    -0.05710087937089728,
                    -0.049702723134564225,
                    0.011676621843187854,
                    0.0744056789306376,
                    0.02782085302202757,
                    0.013624831037056796,
                    -0.02354031643357396,
                    -0.0029923450201814555,
                    -0.055237742525513514,
                    0.0024354780597770852,
                    0.003924921876024916,
                    -0.02589532950389118,
                    0.04459151383507521,
                    0.03241287384858092,
                    -0.04794578010419576,
                    0.06535348399666517,
                    0.0188937877805866,
                    0.019170039815784343,
                    -0.07044233679605495,
                    -0.07382030764640192,
                    0.026095299467201495,
                    0.08146360129209483,
                    -0.01485448978072155,
                    -0.03795843819955917,
                    0.008249107726415173,
                    -0.03753677282746702,
                    0.08804786112206982,
                    -0.020804772699530714,
                    0.034977584267876935,
                    0.0170069473937301,
                    0.0769030046217732,
                    -0.12652114562505876,
                    -0.0359383588568119,
                    -0.007066060677816472,
                    0.029080618992918597,
                    0.01668000492397977,
                    0.0019515669128888288,
                    -0.05435002405912633,
                    -0.03539117971138454,
                    -0.06761447474433796,
                    -0.10565290937993471,
                    0.014977016166109997,
                    -0.0037283730313270405,
                    -0.02690273429431305,
                    -0.012790257665767855,
                    -0.0787030254616619,
                    0.0856026791002105,
                    0.005632837914261293,
                    0.018744286830887184,
                    0.02018742001805087,
                    0.014810010700867722,
                    -0.014092464399552218,
                    -0.0010157717740468396,
                    -0.061584772549418604,
                    -0.006755092653682139,
                    -0.005713240150791089,
                    -0.07205710747763235,
                    -0.01625258338285227,
                    -0.05935851255829774,
                    0.0063663940194531084,
                    0.07483724882925046,
                    -0.01677265726338379,
                    -0.062012227802824796,
                    -0.04432878788797508,
                    0.016297834217359267,
                    0.10873762051338028,
                    -0.027446372179235623,
                    0.0008733448345329001,
                    0.002059289417350246,
                    0.035556358822450604,
                    -0.028375885307844254,
                    0.023162957377272506,
                    -0.04085097656494405,
                    0.030285605658562992,
                    0.010835607957888791,
                    -0.0029201730578767857,
                    0.002522028355698898,
                    -0.0411311786347263,
                    0.03547105605523219,
                    0.01905022013467553,
                    0.05840080971842853,
                    0.01791055341974618,
                    -0.09391266462173606,
                    0.013516899301648422,
                    -0.0017210250111288248,
                    -0.05482305756530846,
                    0.019757536701643996,
                    0.16963564303111436,
                    -0.010263282336471082,
                    0.016850172606255306,
                    -0.05481881236664205,
                    0.036612052904411635,
                    0.03883222458659503,
                    -0.016344695952695037,
                    0.023899805262802973,
                    0.004926271748718963,
                    -0.001015532700872445,
                    -0.04262498919291574,
                    -0.01955019289476362,
                    0.029999319913573196,
                    0.06329782793179307,
                    -0.055740104201692536,
                    -0.024450529121579436,
                    0.11043759232865834,
                    -0.05023320985002562,
                    0.005973776285509251,
                    -0.13914643535803217,
                    -0.06381909082783532,
                    0.057831636915175746,
                    -0.07488540736941067,
                    0.005385400123708099,
                    -0.023382813468838106,
                    -0.03375146298419571,
                    -0.024134719612398884,
                    -0.04043151357105786,
                    -0.04364347733998221,
                    0.05500836005355945,
                    -0.02642394575565383,
                    -0.05428449875294087,
                    0.026993753003820748,
                    0.06584155620337585,
                    -0.09563371239951365,
                    0.026822016982634117,
                    0.11847754263914942,
                    -0.0001814681801700594,
                    -0.002330986718034574,
                    -0.01645429253077553,
                    -0.019114800897558168,
                    0.04126777619971911,
                    0.024115511496071364,
                    0.05206635717208245,
                    -0.0762419598766028,
                    -0.012159214115064688,
                    0.0013651349038937592,
                    -0.01027634239858439,
                    0.016372780010916386,
                    0.06419911905969827,
                    0.005509899317779809,
                    -0.04013837059938831,
                    0.05903525473557534,
                    -0.06826952663597641,
                    0.013317197517927388,
                    -0.10234003682586441,
                    -0.003692875638964418,
                    -0.029027669419821257,
                    -0.07284875200362444,
                    -0.05683383306077807,
                    0.003989867100245963,
                    -0.05237087265854889,
                    -0.09560307428561374,
                    -0.028702543888029345,
                    0.10002512807153707,
                    0.017352486101399528,
                    0.09941787593710201,
                    0.013952590047538209,
                    -0.014482866082875355,
                    0.03883886230927201,
                    0.054716976857477555,
                    -0.03630081010665783,
                    0.09504742693614772,
                    -0.043289207015405326,
                    0.010426089286686821,
                    -0.008628473920758262,
                    0.1392047430298982,
                    -0.06108587017223172,
                    0.14493112418526619,
                    0.10809589787608614,
                    -0.06042598181605721,
                    -0.07286691062596316,
                    -0.002818615258585763,
                    0.037625687794690645,
                    -0.04310192189983084,
                    0.020736800228473653,
                    0.01241131602873148,
                    -0.023076376257789476,
                    0.024809876907129557,
                    -0.056664528474722635,
                    0.05846571794025963,
                    -0.007910765366554412,
                    0.02234754677736065,
                    0.0027617101695176253,
                    -0.046890475736795445,
                    0.0025482770506866327,
                    0.026407664267224892,
                    0.007310534726750048,
                    -0.04923371656564111,
                    0.028809338419183327,
                    -0.008868175844327388,
                    -0.0297047633067222,
                    0.08519226834220409,
                    -0.04775886073374789,
                    0.07430113649116396,
                    0.090539437292776,
                    0.09292716536329654,
                    -0.024782873165022052,
                    0.036040246381990305,
                    -0.06620358049480708,
                    0.006872572906803307,
                    0.0014299341902141314,
                    -0.004708642814574319,
                    -0.016964280954019903,
                    -0.05037681445522957,
                    -0.02158553471844072,
                    -0.11630239210590787,
                    -0.005350159885429928,
                    0.06201076220954533,
                    0.013072357773700206,
                    0.046229160452914315,
                    -0.010552972647509878,
                    0.020522203256037794,
                    0.008418322252758547,
                    -0.015216121855155772,
                    0.054928956797944004,
                    -0.06087699231331664,
                    -0.08132829741466722,
                    -0.006627281156851881,
                    0.025461281568604593,
                    -0.05217489087175507,
                    -0.01679087640400678,
                    0.03484508006201765,
                    -0.008360775837598393,
                    0.12056404648466275,
                    0.06862537796141334,
                    -0.05361440474025136,
                    -0.049454373917864156,
                    0.07152210797775971,
                    -0.03810090791149371,
                    0.009882433868578412,
                    0.025272185497941985,
                    0.022169623563309235,
                    -0.13413099239898083,
                    -0.007818591690526221,
                    -0.04018179055832737,
                    0.033295259573358556,
                    -0.021359077365918584,
                    0.09332103099120495,
                    0.049793035637644444,
                    -0.01052031394269604,
                    -0.00383238636830865,
                    0.03188477956048084,
                    -0.0006182109610676361,
                    -0.054067069491928015,
                    0.0698074712733189,
                    0.018282695701045123,
                    0.05260384455038785,
                    -0.06225349444606058,
                    0.031837723041033696,
                    0.010793427506634545,
                    0.0003422285727821182,
                    -0.025378576113642533,
                    0.00241776978159063,
                    -0.07403897284289665,
                    -0.03619563011407736,
                    -0.003669233242340905,
                    0.013801437838115542,
                    0.07196326084397138,
                    -0.004995550357005203,
                    0.007751713046867944,
                    -0.0183389007429809,
                    0.05165793275770216,
                    0.01791765441434385,
                    -0.00010839984379833301,
                    0.05211198461819494,
                    0.0295601991839527,
                    -0.028137565019972898,
                    -0.06820214717681707,
                    -0.017635067722879504,
                    -0.02109392350311264,
                    0.012990236283494723,
                    0.014575380224490047,
                    -0.07416345581307805,
                    0.0342650355118143,
                    0.024708541663864252,
                    0.004142453267204917,
                    0.01652622863419638,
                    0.03367178599916992,
                    -0.01756730327709701,
                    -0.016803361117267032,
                    -0.028843818904131062,
                    0.049568128388348974,
                    0.10847354621903176,
                    0.007876276641521485,
                    0.0037289632346860476,
                    0.04036835342517966,
                    -0.008020061799134375,
                    -0.08030240396535852,
                    -0.13286528474088613,
                    0.009736496728547182,
                    -0.03623631811246612,
                    0.013162847375093741,
                    0.03586626983169386,
                    -0.08519099406615269,
                    -0.12296825901443516,
                    0.03026064680732755,
                    0.0476941113776988,
                    0.02966619013009686,
                    -0.011970625780361486,
                    0.04428367694183629,
                    -0.055304304785999084,
                    0.015305367423456092,
                    -0.04311180771441387,
                    0.016811921855769598,
                    -0.05718509507167104,
                    -0.06857121185277239,
                    -0.05302295152372243,
                    0.05199325125668037,
                    0.007331963122386603,
                    -0.09915572756699648,
                    -0.028463396963870652,
                    -0.0021185993864543937,
                    0.0017397062362739348,
                    0.10592855407431265,
                    0.017541476984054852,
                    -0.00787913416034917,
                    0.010320682575959868,
                    -0.00865729553845798,
                    -0.07893436957539733,
                    0.05453283850705015,
                    0.014837487911309727,
                    -0.03973716383863788,
                    -0.04383714385815928,
                    -0.08676820847196377,
                    -0.03692757815188091,
                    0.12408522240417338,
                    0.022158674140209365,
                    0.03840409717199458,
                    0.052003004483021135,
                    0.010570491264050295,
                    -0.027822193702056523,
                    -0.053391275525259685,
                    0.009366301196890673,
                    0.0005320079303702669,
                    -0.0038598930254114747,
                    0.01439868181201654,
                    0.029447603625921474,
                    0.11104703875241823,
                    -0.03301897994000353,
                    0.043024102552112094,
                    -0.03462666025288745,
                    -0.04488540334395485,
                    -0.00509940497319859,
                    -0.03736248581507217,
                    -0.06039503233508047,
                    0.05201907287181105,
                    -0.03894187500889778,
                    0.008751191684319691,
                    -0.007349382711279426,
                    0.0687138211870751,
                    0.14282701175224963,
                    -0.04040445223095393,
                    0.010028619698077581,
                    0.026277964643724713,
                    -0.12476268735836991,
                    0.06341042691194686,
                    -0.07484091940991265,
                    -0.01001713669688681,
                    0.055641533357805806,
                    -0.011418272282153042,
                    -0.0001617845788692057,
                    -0.051132481561750306,
                    -0.027212639264743817,
                    -0.08636076984143766,
                    0.01722627451178576,
                    0.03311663795128783,
                    0.035671092409634154,
                    -0.07100308532357578,
                    0.011775094072621827,
                    0.05334815713740233,
                    -0.02504865338582691,
                    0.017092945953945362,
                    -0.009098390237859131,
                    -0.09053225562572796,
                    0.06454428542969931,
                    -0.004079884514446396,
                    0.01922003766404032,
                    -0.0018504769725730715,
                    0.023004673964389998,
                    -0.08026372351841346,
                    0.11978292472139765,
                    -0.054227103690166104,
                    -0.07489370068257471,
                    -0.046917557259480644,
                    0.0021362625246763704,
                    0.011487752966674617,
                    0.06385596018647537,
                    0.03597765851513836,
                    -0.08188534305150573,
                    0.0303643253759853,
                    -0.09355278533118945,
                    0.012902029190554009,
                    0.046017329957173156,
                    0.03782317392751925,
                    -0.03510466843042324,
                    -0.011407889045514782,
                    0.07468202761772673,
                    0.003051723740896394,
                    0.042609328241961446,
                    -0.0650919460641958,
                    0.07332071084398778,
                    0.04622074000497977,
                    -0.023397973439147592,
                    -0.0647008423471257,
                    0.04385080600602375,
                    0.06368739263786763,
                    -0.005309113164214685,
                    -0.13730115367981044,
                    -0.0001381185260261675
                ],
                [
                    -0.026537678429550415,
                    -0.0822754889907959,
                    0.08818085526345948,
                    0.0258763323570013,
                    -0.024514452342043514,
                    -0.08442917061169504,
                    -0.09553226752965746,
                    -0.0125402806690518,
                    -0.009164282720573338,
                    0.018432373694914718,
                    -0.01610453235012892,
                    -0.05758893574293248,
                    0.015133351763201913,
                    -0.03905542159778196,
                    -0.045328496037747995,
                    0.014675409374583673,
                    -0.09646233806761449,
                    0.02780609876757325,
                    0.012049599756325902,
                    -0.06318461461858833,
                    0.02502113624422338,
                    0.07599985736832701,
                    0.03182200498091475,
                    -0.020849337564790505,
                    0.0368885588830345,
                    -0.06572514004032386,
                    -0.027922422002840914,
                    0.029575319061044464,
                    0.08103892292007357,
                    -0.009386741548407568,
                    0.002000342195414992,
                    0.03425735299945848,
                    -0.11407566078907218,
                    -0.04137176463116733,
                    -0.024038755671947777,
                    0.07662835835679419,
                    0.06607050801920254,
                    -0.03209881578194737,
                    0.07694434743308605,
                    0.02213907794776383,
                    0.011686377412218566,
                    -0.058706377921710226,
                    0.03207868788883855,
                    -0.009821890928362938,
                    0.03649196273040368,
                    0.021054439586815504,
                    0.00640034132756359,
                    -0.08260269955355423,
                    -0.020920007898709465,
                    -0.06401763725767486,
                    -0.07994215222004562,
                    0.015135711404445593,
                    0.022411649875329943,
                    0.016200288793392935,
                    0.05884509289684048,
                    0.09308331621635554,
                    -0.045501279811581766,
                    -0.049968513403832446,
                    0.01443009340602174,
                    0.028759569949291335,
                    0.005198189077075151,
                    0.0003020070934446577,
                    0.09798451635437817,
                    -0.018173380481184293,
                    0.046543995549134506,
                    0.009686546646614063,
                    0.0257104581633205,
                    -0.044514041543572955,
                    -0.005074583071032394,
                    -0.14306962325245937,
                    -0.016461420326199124,
                    -0.034377251240178916,
                    -0.09529884642198509,
                    -0.017410901366580855,
                    -0.09529689561231103,
                    0.07763567096886022,
                    -0.02266938344310686,
                    0.056566854066174545,
                    0.04570633914446748,
                    -0.09154340287721704,
                    0.08878285635403019,
                    0.007983319753209303,
                    0.08807477149158748,
                    -0.030792570849102672,
                    0.047994169298459836,
                    -0.09369586765403429,
                    -0.02048472350582115,
                    -0.0010504009716974182,
                    -0.005955871457006516,
                    -0.004874534791107636,
                    -0.01467567606401918,
                    -0.03256544490593373,
                    -0.06362757979900095,
                    0.07591334850697873,
                    -0.019171041449853085,
                    -0.08126862663378896,
                    0.019709544803405612,
                    -0.04206128871943426,
                    0.03829314042477851,
                    0.022145545379495146,
                    -0.06118668220568151,
                    -0.05508902561542503,
                    0.008179404927592277,
                    0.016473291124249775,
                    -0.0398356663184175,
                    0.09589727130886849,
                    -0.10864073467880625,
                    -0.03801066898276948,
                    0.002775566151287753,
                    0.017560166990438362,
                    -0.05735394221829521,
                    -0.011838648883376206,
                    -0.06436755274743704,
                    0.07730724173379122,
                    0.0016452729877777373,
                    -0.10060574884510091,
                    -0.009384648249481927,
                    0.03558270527329037,
                    0.03936171574530531,
                    0.10271431375020144,
                    0.03947812867181538,
                    -0.03281157847715578,
                    0.06985412086822365,
                    0.0010327574676216483,
                    -0.10694650996435154,
                    0.02777773916736525,
                    -0.041734468923114484,
                    0.1265196975262976,
                    -0.07949240856854964,
                    0.07402443375209794,
                    0.02950837076445153,
                    -0.02435385153665769,
                    -0.07810084599158182,
                    -0.07695994289691804,
                    0.04101061534650678,
                    0.025300289867645535,
                    0.017905336395622848,
                    0.006387032954655356,
                    0.05285902975284064,
                    -0.08366743720873156,
                    0.10185227855472995,
                    -0.10121773869508455,
                    0.03266198139907715,
                    0.019014243746469848,
                    -0.028332811934318077,
                    -0.10978192813195516,
                    -0.06946117300398198,
                    -0.015770561836729303,
                    -0.043456791898941374,
                    -0.0759857758077452,
                    -0.008143470245367077,
                    0.0016146737900106067,
                    -0.013852641655229214,
                    -0.0003514090931398337,
                    0.012444311255684034,
                    -0.05588656724612876,
                    -0.011506570605315633,
                    0.014231318568403793,
                    -0.004817735067071096,
                    0.02526011131885892,
                    -0.08826690790737743,
                    0.00676114542058214,
                    0.04995236844728534,
                    -0.048910159904947535,
                    -0.01727050202427906,
                    0.023636047910616697,
                    -0.013690388698709427,
                    -0.0027284795383867703,
                    0.04208052131499374,
                    0.015536749600447193,
                    -0.005347607436401611,
                    -0.009677953643511327,
                    -0.12417449718275719,
                    0.0771019505967418,
                    0.031248376259370263,
                    -0.05129958377553561,
                    0.020101808681083168,
                    -0.05783292687457079,
                    -0.005629086494987827,
                    0.06255045324247233,
                    0.029592290642287036,
                    0.11261022363240321,
                    0.015756648649473085,
                    -0.0676618318062498,
                    -0.0708209334801168,
                    -0.036168154528937034,
                    -0.07805560463740653,
                    0.06171564681146519,
                    -0.07149119212319405,
                    0.11611244887433289,
                    -0.0024834620176842305,
                    -0.0962463312984313,
                    -0.016884297979798173,
                    0.03123044115191154,
                    0.0746092813835616,
                    -0.00875122062693893,
                    0.005892616385473354,
                    0.05014749753991049,
                    -0.05531762305265344,
                    -0.07927474108783582,
                    0.059809778291107896,
                    -0.010118639334776828,
                    -0.02392453023410427,
                    0.017908872279477895,
                    0.0631186656142439,
                    -0.06923343555176334,
                    -0.027791602053487716,
                    -0.053050584063821654,
                    0.05802548129845657,
                    -0.03470719680971859,
                    -0.016058192454931192,
                    0.010618526950363742,
                    0.15039929315948303,
                    0.053870091082642346,
                    -0.026838097018108305,
                    -0.020493694585836227,
                    0.0564529642101369,
                    0.004675018219021717,
                    -0.07277560801960292,
                    -0.036505378151789294,
                    -0.03625456227961705,
                    0.03100155452247077,
                    0.04298145276735064,
                    0.01977173119325827,
                    -0.07554848066806129,
                    -0.04280400031949561,
                    0.04905868714959692,
                    -0.050478020311272326,
                    -0.0036893814029587513,
                    0.03165210550540833,
                    0.06492659785349678,
                    -0.02787007274034545,
                    0.05527852124894293,
                    0.0029798851078213645,
                    -0.04851283818432688,
                    0.009376884584283242,
                    0.0402301617360997,
                    -0.049153851421002315,
                    0.07979614989060538,
                    -0.028396881579324008,
                    0.024035409955268257,
                    0.037096389293091815,
                    0.05022425670143701,
                    -0.04225603457621996,
                    0.08762829660490454,
                    0.02274900281005037,
                    -0.03953381798909334,
                    -0.03286409587835073,
                    -0.02321063738265694,
                    -0.01839095333745973,
                    0.02493128456647919,
                    -0.02504547467241189,
                    0.025971069110042357,
                    -0.01750024102463459,
                    -0.040991314853971714,
                    -0.04647208385697738,
                    0.025193017721127493,
                    0.07630175722938866,
                    -0.04754443304718735,
                    0.0018252672689519432,
                    0.026135308002716545,
                    -0.06354807413316459,
                    0.1011571822406067,
                    -0.0439836131342009,
                    0.0009147999734471103,
                    0.021980561124513333,
                    -0.05862693388324461,
                    -0.005504197434238614,
                    -0.021755843930198696,
                    -0.0024117001414631473,
                    -0.018738124636322365,
                    -0.023476614113320898,
                    -0.017859246649332954,
                    -0.042569864913173716,
                    -0.037694019066349366,
                    -0.00308337476874446,
                    0.006483467192706692,
                    0.04632197376966833,
                    -0.02305136601307287,
                    -0.003513962222984487,
                    0.09245259150967149,
                    0.09433646289045038,
                    -0.02875877121142828,
                    0.03049692533389566,
                    -0.03536953605974881,
                    0.007596220883025104,
                    -0.025831070990184883,
                    -0.05428102384360578,
                    0.028935488285758725,
                    -0.0030346754932263657,
                    0.02232178266691933,
                    -0.015498318101416652,
                    -0.0790497169820501,
                    -0.0343904198894803,
                    -0.012444873475513912,
                    0.0015992825031549928,
                    0.03787689084919349,
                    -0.05666795505093378,
                    0.027098445080656758,
                    -0.01291744832685228,
                    0.07973269907242572,
                    -0.03486619339199036,
                    -0.05750396665944481,
                    -0.11222009732077265,
                    -0.04731708589186358,
                    0.06803522563004205,
                    -0.013118085078504739,
                    0.06905888165483236,
                    0.01497142555805859,
                    -0.04238787684828438,
                    -0.013463577552296106,
                    -0.052161312456469974,
                    0.038749447243607266,
                    0.1062404525124513,
                    0.026939615302052314,
                    0.0861732650697316,
                    -0.006662568426616866,
                    0.03317478449680667,
                    0.11508747730329774,
                    0.019666272723231466,
                    0.05450940730437732,
                    0.02992471725851195,
                    0.01426538313283314,
                    0.14489384986094103,
                    0.0222375608520866,
                    -0.01297491772621407,
                    -0.029703464062889172,
                    0.04350428583087823,
                    -0.07928401964333273,
                    0.06100115206927984,
                    -0.09040573200759675,
                    0.028503772318210146,
                    -0.017994794407459443,
                    -0.0274868508566354,
                    0.025990507862971256,
                    0.01500569300472576,
                    0.05392844597271296,
                    -0.013970298811215752,
                    0.033537810609321886,
                    -0.003434850153863723,
                    -0.04274626511889854,
                    -0.031407339861107275,
                    0.04376318426750572,
                    -0.005219701662996563,
                    -0.1260074919400478,
                    -0.12129559304248831,
                    -0.011009636863319105,
                    0.08716658732729667,
                    -0.021276586663412107,
                    0.0365647218745013,
                    0.015430829248790103,
                    0.06189417725758355,
                    0.024221441225344767,
                    -0.022641364461165846,
                    -0.0737336111723379,
                    -0.021433953004428907,
                    -0.049173423862033425,
                    -0.07638146605249783,
                    -0.06295906575331933,
                    -0.07162610190144005,
                    -0.019141207251167573,
                    -0.02928690770423632,
                    0.014657622421230438,
                    0.016211100092906053,
                    -0.019048415725993147,
                    0.0018356589910536493,
                    0.03141212872448111,
                    0.010587556503164177,
                    -0.016918726243601998,
                    -0.02021740103187116,
                    0.02067245584263142,
                    -0.0010052414576055084,
                    0.04446596834276327,
                    -0.005744385033336746,
                    -0.08294099425097684,
                    0.03805155912219786,
                    0.011239316077520023,
                    0.08305064970858514,
                    -0.016340699158525897,
                    0.05066205018439048,
                    0.006777789406202499,
                    0.011598203116908748,
                    0.053691264700742494,
                    -0.041899553406527824,
                    0.14470704891019034,
                    -0.06460358606743848,
                    0.008838532700027522,
                    0.00325778380171567,
                    0.06901105348969923,
                    0.02591597095460597,
                    -0.00024488621417289674,
                    -0.03169733580119306,
                    0.1301979119745255,
                    -0.10765994944951011,
                    -0.1093785013242865,
                    0.03059136957865934,
                    -0.058724283308416204,
                    0.048224449401699045,
                    -0.06453880938175413,
                    0.0647493006333562,
                    0.023636793935806658,
                    0.015738277458867758,
                    -0.0685688470211687,
                    0.006547634928779152,
                    -0.034894932887344264,
                    -0.02201370682213247,
                    0.040978727849760754,
                    0.07695516450093207,
                    -0.06208544585876606,
                    -0.007389411459636638,
                    0.016364710373594816,
                    -0.07580165068625459,
                    0.00012390589443929162,
                    -0.01360272859400876,
                    -0.051818161723959505,
                    -0.008867457620981864,
                    -0.005047031853773879,
                    0.09374094076603917,
                    0.031083462628863714,
                    0.027227032720980506,
                    -0.045483732772166025,
                    -0.002395738949452248,
                    -0.0004096338891396562,
                    0.0059379395437385305,
                    -0.04510375770691488,
                    0.07730379324547221,
                    0.01270906028326943,
                    0.07730782460657211,
                    -0.015187270379273407,
                    -0.07056954836778226,
                    0.012409420711324995,
                    -0.12400505765765948,
                    0.014734331716163607,
                    -0.02475590703877182,
                    0.016094708277249542,
                    0.01962973741402349,
                    0.08363863476372213,
                    -0.04643005188830027,
                    -0.00219093289648118,
                    0.07988788900731712,
                    0.019811778771627875,
                    -0.0035449039090829164,
                    0.011534664663145096,
                    0.016053251452764136,
                    0.03679587974432547,
                    -0.024283711083303617,
                    0.10518051344665427,
                    0.020950409770431208,
                    0.032771535189750095,
                    -0.009626018826465875,
                    -0.10257540875242446,
                    -0.03200562283172652,
                    0.05623725189001043,
                    0.0873383191033283,
                    0.08970027065721874,
                    -0.0013463755117268255,
                    -0.05170702821202594,
                    0.03013361223846803,
                    0.0013930787411899955,
                    -0.013494618562527172,
                    -0.03439082914568326,
                    0.027590687672015498,
                    0.03689352471120173,
                    0.04118077048973841,
                    -0.09333508627707147,
                    0.04773518609317745,
                    -0.0586528412234818,
                    -0.011447977801795047,
                    0.04768856805002708,
                    -0.11997048129772116,
                    -0.09642169358510622,
                    0.03334982339413789,
                    -0.08241577216328554,
                    0.005505601251557728,
                    0.09894916582750739,
                    -0.005303966664722546,
                    0.007337652607418234,
                    -0.08502125479300447,
                    0.08493006951669865,
                    -0.028813391785057263,
                    0.05011001157595429,
                    -0.028403866098572938,
                    -0.04549331996598959,
                    0.011826520254958445,
                    -0.023537520540739536,
                    0.00848092150053982,
                    -0.02458662281198226,
                    0.032045371762473525,
                    -0.062101804430927665,
                    0.03372992677969563,
                    -0.009060553608263378,
                    -0.03914257117233521,
                    0.0795310341390485,
                    -0.02775143161187899,
                    -0.05563647585458227,
                    0.13150852753893294,
                    0.04130095759882361,
                    0.08749062216564805,
                    0.04172948107575145,
                    0.13436152063536388,
                    -0.023783664141741497,
                    -0.001072354521247245,
                    -0.04099693844432989,
                    -0.04594863143003701,
                    0.09854177540354636,
                    -0.0271309104575659,
                    -0.08653818026990587,
                    0.01938868155929959,
                    0.06257905135662285,
                    -0.07049013150695975,
                    0.032481382671583965,
                    0.05505510534841601,
                    0.03467022144818514,
                    0.014582926198545305,
                    0.0038819165640375233,
                    -0.04072969480447128,
                    0.025898370258084488,
                    -0.057330804588227514,
                    -0.04689750116654691,
                    -0.005529013473066285,
                    -0.010008573511452741,
                    -0.02794291347202834,
                    -0.014617799452784347,
                    0.08797463224148287,
                    -0.07245907393714734,
                    0.07920941177672977,
                    -0.04989663202426754,
                    -0.05115756575601183,
                    0.01925389886904338,
                    0.010916911079937482,
                    -0.02986288917630566,
                    0.01011475963129606,
                    0.022534347431667708,
                    -0.042275038948416915,
                    -0.01482161666562558,
                    0.06595685501045065,
                    0.02230449589399319,
                    -0.08813014659848127,
                    -0.07566786102943485,
                    0.10144574362620881,
                    0.06619158521287859,
                    0.002513768350283208,
                    -0.045974987275539475,
                    -0.03923127696351357,
                    0.027845248942140913,
                    0.05246349810684492,
                    -0.061752894170263625,
                    0.03012357603271103,
                    0.07892079653371205,
                    -0.09240906976829329,
                    0.015472632436701203,
                    -0.07242504858607392,
                    -0.0007996282026792108,
                    0.037656597114249554,
                    -0.0007844387836001254,
                    -0.009668752768259414,
                    -0.009826023145959411,
                    0.021217612274638434,
                    -0.03470994542376496,
                    0.014534625159877083,
                    0.025837524547238293,
                    -0.06542357012119784,
                    -0.047161459602047415,
                    0.06438432406385919,
                    -0.023622768929503064,
                    -0.0040467374095731565,
                    0.04922808306579446,
                    0.03614022162506544,
                    -0.050327900098258806,
                    -0.0005233859334056763,
                    -0.010621708394511424,
                    0.04884631947838318,
                    0.09401219128830586,
                    -0.03320776170622656,
                    -0.03717326282715429,
                    -0.02123300923888229,
                    0.06890375319833181,
                    0.04173800880015051,
                    0.022135899407842646,
                    0.05012786203993997,
                    -0.07886100498495982,
                    0.05262836601904546,
                    0.11050702660118321,
                    -0.0272612164181622,
                    -0.04393630739945619,
                    -0.04793640488124716,
                    -0.03625873592721444,
                    0.11348382995383353,
                    -0.0642263086749065,
                    0.004660663279737708,
                    -0.005472027391677761,
                    -0.018039942639144275,
                    0.00014974405912137812,
                    0.12167762103371824,
                    0.02224281002076004,
                    0.10413295611302585,
                    -0.02479125309954473,
                    0.17746213359032256,
                    -0.08470417406103983,
                    -0.09327052342031505,
                    0.050555620989350826,
                    -0.07451402239895213,
                    0.09598358313051011,
                    0.01124339963289118,
                    -0.015569041980763776,
                    -0.06943991030038466,
                    -0.03857108440961619,
                    -0.02088375166212288,
                    -0.04825340542465269,
                    -0.027694160874079117,
                    0.032920077356928555,
                    0.011427072825283806,
                    0.033584014817427565,
                    0.004626122102988469,
                    -0.06144464407727079,
                    -0.015927847132409956,
                    0.11202102079343276,
                    -0.02030261630101369,
                    -0.023154365774589333,
                    -0.08492397151850527,
                    0.022465537881382825,
                    -0.03091865211598028,
                    0.024527262781590727,
                    0.013334575529770142,
                    0.02353422250006432,
                    0.008223941493970283,
                    0.0004705581621831018,
                    -0.01916090598890588,
                    0.09145000901120814,
                    -0.026014626342708288,
                    0.021120525859939183,
                    -0.045237241773742796,
                    0.02776195097372009,
                    -0.14150173202754204,
                    0.008780050279130803,
                    -0.022401456066152764,
                    0.010501686829354264,
                    0.0052482177683679625,
                    -0.05553916698474796,
                    -0.006050022175547763,
                    0.058906431890554854,
                    0.06915638212036467,
                    -0.016158973269600033,
                    0.03650368285320209,
                    0.001311674952662655,
                    -0.01021225503170201,
                    0.11103609699915709,
                    0.010385716296295646,
                    0.0387425389452048,
                    -0.04599854335188208,
                    -0.02520720419799732,
                    -0.10630092622442255,
                    0.011892815748477807,
                    -0.03129518753836104,
                    0.011180678957881524,
                    0.0003869198866212408,
                    -0.003036925462283247,
                    -0.03309433474324615,
                    0.0785426302947599,
                    -0.04458075736676462,
                    0.024439400122785025,
                    0.10845065181086117,
                    -0.056097288473682096,
                    -0.03628905679866633,
                    -0.03670508081470057,
                    -0.05486635422740206,
                    -0.015269897280487181,
                    -0.07500567932342687,
                    -0.0032281165222157976,
                    -0.007699176869519472,
                    -0.011783686671315298,
                    -0.004342213223218222,
                    -0.015337107307356655,
                    -0.06069943933853438,
                    -0.05333380324169833,
                    -0.010257382093953427,
                    -0.028923797533575935,
                    0.03518849181255709,
                    -0.004035324455808991,
                    -0.055356475695928914,
                    0.048770595441109774,
                    -0.002845649355259497,
                    0.011600192524222125,
                    -0.04094346400287992,
                    0.07129103079658737,
                    0.08397987596772492,
                    0.06893458119009678,
                    -0.025812339112219536,
                    0.03922549869108074,
                    -0.10960427706175711,
                    -0.036831168997752205,
                    -0.02939686842105775,
                    0.051422765802363116,
                    0.05237592530999964,
                    0.012971177959781257,
                    -0.029567731005346216,
                    -0.03437072534262186,
                    0.05844523447195717,
                    -0.044011434556336534,
                    0.003577883269206344,
                    -0.04866216810279316,
                    0.07409837410327412,
                    0.025697504728242303,
                    -0.039895214319423174,
                    0.002085264673056874,
                    0.012105937788630748,
                    -0.02868586212602238,
                    -0.03986867649459792,
                    0.005534807109182364,
                    -0.009445351036730531,
                    0.08906687164291394,
                    0.04385236373171834,
                    0.09670969970398305,
                    -0.0396512465996488,
                    -0.06913092411357497,
                    -0.0577243203741012,
                    -0.06827357678259537,
                    -0.0846171291164614,
                    0.04731481614707509,
                    0.04102687421143317,
                    0.008953345925776299,
                    0.04520735111738302,
                    -0.04092828778929763,
                    -0.00962031498815204,
                    0.013812717949085241,
                    0.021234888674133374,
                    -0.08156426053244195,
                    -0.06323386099058673,
                    -0.048931017931845525,
                    -0.039745165200345454,
                    -0.06373505463088079,
                    -0.04130350810417478,
                    0.010993222245156926,
                    0.04588849352376705,
                    -0.03145255654344021,
                    0.0765824922597682,
                    0.03309877326851126,
                    -0.030000692039931498,
                    0.05529941008992027,
                    0.00864899652890631,
                    -0.0545888102239227,
                    -0.06344609823925317,
                    -0.007745016847099289,
                    0.04869681974172521,
                    0.02133164355880758,
                    -0.06311232215252005,
                    -0.005695809431012513,
                    0.022115690001285947,
                    -0.0717116094956143,
                    -0.02978011066543114,
                    0.007744469932042854,
                    -0.05362669261544472,
                    0.1093797438816165,
                    -0.026125773619368152,
                    0.021031167161079178,
                    -0.013515849121504327,
                    -0.05997500211766308,
                    0.01962758201518187,
                    -0.009621885943371754,
                    -0.05154577471122976,
                    0.0037131958280753967,
                    -0.09533717733243066,
                    -0.05579480579856169,
                    0.08592106934744632,
                    0.048509667668408474,
                    0.06864907220717911,
                    0.0054248966975776166,
                    -0.028862066644186713
                ],
                [
                    -0.08238870867989993,
                    0.02010783622803334,
                    0.06043832311560403,
                    -0.05171325943397723,
                    0.024980993120629215,
                    0.04552357512804155,
                    -0.05153537551902573,
                    -0.029718668544199807,
                    0.031771038306970464,
                    0.055309008183433137,
                    -0.014573757476789004,
                    0.005970859742131814,
                    0.01019026307437386,
                    -0.022379939109087914,
                    0.0052063275726599665,
                    0.03153973398724983,
                    -0.03587768972651662,
                    0.010786360754704726,
                    0.0200656724444849,
                    0.048877710321052245,
                    -0.050147788458304365,
                    -0.009840570458350474,
                    -0.0476293972412175,
                    -0.06961999341844968,
                    -0.02477585375879355,
                    -0.01138373502827157,
                    -0.02701758918380111,
                    -0.07455989390303554,
                    0.03314551176877914,
                    0.0478401015747837,
                    -0.029365454171866683,
                    -0.0046788333537190726,
                    0.07998231612021695,
                    0.07907856591879514,
                    -0.056050640284023005,
                    0.09220000634767317,
                    0.009627027638296065,
                    -0.02549579759956392,
                    0.0337139007330243,
                    -0.017141824496430823,
                    0.04323367821883065,
                    -0.06596955661946843,
                    -0.02796135563798785,
                    0.0710761827694322,
                    -0.03255659808067451,
                    -0.027801099147547165,
                    -0.0533314841265287,
                    0.030688503728245633,
                    0.060432460368902596,
                    -0.08431106096482399,
                    -0.05761161622543287,
                    -0.03986936265206159,
                    -0.09708204766953556,
                    0.03540348067276528,
                    -0.012237812603733151,
                    0.0202676009078075,
                    -0.014067624084873236,
                    0.00942486406578734,
                    0.01894624082621626,
                    -0.0007627576051003577,
                    -0.013630638917850576,
                    -0.034620855069571264,
                    -0.03673144182844057,
                    0.02353175622574901,
                    -0.07068733849855961,
                    -0.009220892691650351,
                    0.003135587154386511,
                    -0.010818850337628682,
                    -0.007419535969041142,
